265 64
Source 2 -0.09547148 0.14592743 -0.15795298 -0.10733316 0.18524198 -0.17356959 -0.07997122 0.21427232 0.17009383 -0.043542646 -0.16146895 0.02502869 -0.11676049 0.116612256 0.055155225 0.0017071017 0.07989544 0.187885 0.10100386 0.09954328 -0.04512748 0.07216692 0.13946332 0.112816945 0.13697894 -0.0651801 0.19395854 -0.061213642 0.044105314 -0.18196262 0.20165835 -0.15660678 0.100131065 -0.11324689 0.20625587 -0.036824204 0.007338677 0.040755678 0.032181982 -0.10589451 -0.06792893 -0.0046066944 0.18266068 0.030957762 -0.19847077 -0.010665032 0.06274474 0.040458284 -0.20191671 -0.010267182 0.077259235 -0.02629053 0.20463504 0.17517693 0.18122143 0.11126865 0.11790283 0.0937428 -0.026656626 -0.16833486 0.0029301844 0.03955169 0.18929048 -0.20860471
Geralt 202 -0.09164377 0.12367185 0.0005155755 0.14329702 0.0803754 0.15748034 -0.051737756 0.060985185 0.0056834086 -0.13649747 -0.066953644 0.06828028 -0.26675513 0.05967322 -0.14153825 0.17621742 -0.06896484 -0.09076168 -0.16513112 -0.02785896 -0.035857167 -0.15039198 -0.16826735 -0.1268456 -0.24720292 0.02025509 0.06635667 -0.015589662 0.12141809 -0.030055827 0.1563628 -0.14482339 0.05170748 -0.18599114 0.16376348 -0.13444737 -0.10642505 0.06384981 -0.2056103 -0.002702771 -0.16595733 -0.16630687 0.14667481 0.094777346 0.16073123 0.02093998 -0.25172925 0.21071 0.07095332 0.20618314 -0.0656007 -0.04219097 -0.08150226 0.14551844 -0.01932817 0.002992489 0.025502946 0.15847446 -0.043254554 0.07664965 0.020605696 0.19065651 0.008091753 -0.12711827
1 1365 -0.061289154 -0.01121979 -0.15414296 0.25274128 -0.14660917 0.121690184 0.15551631 0.03166441 -0.15897012 0.052040555 -0.11442879 -0.03301457 -0.14844142 0.22865808 -0.10481306 0.033393174 0.16160616 -0.016951634 0.0068578883 -0.08781611 -0.06595761 -0.13060074 0.031190408 -0.08570395 0.09590949 -0.005296712 -0.19795413 -0.064525746 0.20321941 -0.27648112 -0.034431893 0.0653575 0.20559965 0.13064818 -0.076785095 0.021612432 -0.0031037815 0.010073707 -0.06215253 -0.056898285 0.08195099 0.052209802 0.07966041 0.13083622 0.16251236 0.10364174 0.075217605 0.054698754 -0.13087305 -0.15621863 -0.102150604 0.11830653 0.27477345 -0.14300056 0.06420168 0.0010675592 0.02356446 -0.066607 -0.2906988 0.06254522 -0.13026328 0.13508655 0.07780705 -0.16250005
Foltest 35 -0.08953671 0.12528704 0.0008681808 0.14440739 0.07887326 0.15718433 -0.053900886 0.05940438 0.004926973 -0.1345842 -0.06873536 0.065943696 -0.26503217 0.05837869 -0.14441289 0.17361052 -0.06892057 -0.09273306 -0.16782877 -0.02790199 -0.034461755 -0.150294 -0.16893277 -0.12574513 -0.24382469 0.021819431 0.07001902 -0.017314536 0.122582294 -0.029475393 0.15664984 -0.14376236 0.04827744 -0.18365867 0.16655344 -0.13281278 -0.10889799 0.06661606 -0.2048394 -0.003131673 -0.16508259 -0.16789585 0.14836809 0.09721096 0.16381995 0.01646027 -0.2506093 0.20945777 0.07138113 0.20573547 -0.06315806 -0.04290841 -0.085420266 0.14612328 -0.020877285 0.0034722758 0.023679437 0.15840976 -0.04309431 0.07978229 0.019931497 0.18994126 0.009928629 -0.1279343
5 70 -0.058871612 -0.014089462 -0.15413237 0.25322336 -0.1456805 0.12136714 0.15697876 0.032023847 -0.1609072 0.0522931 -0.112915285 -0.034159638 -0.14902839 0.2288162 -0.106133446 0.03310605 0.16177803 -0.018192505 0.0071303854 -0.09001029 -0.0663376 -0.12912014 0.030301701 -0.085022084 0.09590473 -0.0048478325 -0.1978378 -0.06261274 0.20201443 -0.27932015 -0.031864364 0.065318875 0.20473656 0.13021891 -0.0747818 0.021508047 -0.0019426747 0.009572374 -0.0628917 -0.058953047 0.081445605 0.052232947 0.08040522 0.13111714 0.1615517 0.103801146 0.07625336 0.055743586 -0.13013351 -0.15575607 -0.104356535 0.11774436 0.27412847 -0.14136967 0.064574614 -0.0009994106 0.024579197 -0.06460661 -0.29046857 0.06360718 -0.129287 0.13536626 0.079552054 -0.1612905
4 131 -0.060226843 -0.015560471 -0.1535161 0.25401297 -0.14665288 0.121611744 0.1572391 0.03221629 -0.16160809 0.05091466 -0.11179944 -0.034341477 -0.14887708 0.22858706 -0.105209254 0.03307956 0.16200897 -0.018861964 0.005868683 -0.089887775 -0.06689656 -0.12853058 0.029576125 -0.08428319 0.09719258 -0.005981706 -0.19624452 -0.06269 0.20115657 -0.2803988 -0.032049213 0.06501884 0.2043907 0.13151228 -0.07451502 0.022582471 -0.0020614774 0.008339997 -0.062386576 -0.06101382 0.082701586 0.052261136 0.08103935 0.13134137 0.16018322 0.102415286 0.077031724 0.055012554 -0.1306127 -0.15497471 -0.10641961 0.11939219 0.27330837 -0.14003286 0.064965576 -0.00081691425 0.025603969 -0.06478778 -0.29020363 0.06426148 -0.13015626 0.13494621 0.080552176 -0.16035798
Ostrit 1 -0.09251312 0.12135593 0.0019253431 0.14277185 0.08243462 0.15884964 -0.051466007 0.06324102 0.0063445373 -0.13910715 -0.0673642 0.06925088 -0.2659853 0.05988698 -0.13970138 0.17738883 -0.06762373 -0.087853596 -0.16295338 -0.027126845 -0.038159538 -0.1497494 -0.16815422 -0.12761158 -0.24958614 0.018529175 0.06640462 -0.016003178 0.11924012 -0.028953891 0.15493116 -0.14694461 0.053387243 -0.18822059 0.1623151 -0.13600752 -0.10657493 0.064196676 -0.20750332 -0.0023320937 -0.16747664 -0.16666771 0.1461474 0.09405599 0.15872243 0.024103247 -0.25194484 0.21254043 0.07168593 0.20452249 -0.06831053 -0.041069206 -0.07889165 0.14268082 -0.019361231 0.004230357 0.02762194 0.1579574 -0.043151725 0.07420493 0.021079693 0.18973714 0.005701959 -0.12512068
Velerad 2 -0.08865255 0.12573339 0.00056991266 0.14512914 0.07845936 0.15644279 -0.05484715 0.059017688 0.004869564 -0.13364634 -0.069848016 0.064706855 -0.26429462 0.05780786 -0.1449284 0.1723412 -0.06843661 -0.093424186 -0.16838822 -0.027525261 -0.034287244 -0.15027903 -0.1696115 -0.12538208 -0.24290317 0.02192042 0.07142337 -0.017471256 0.12342452 -0.02974168 0.15753157 -0.14310253 0.0469128 -0.18308899 0.1671336 -0.13288392 -0.11003288 0.06793281 -0.20447448 -0.0038318594 -0.16421087 -0.16818522 0.14904244 0.09864235 0.16425148 0.014496363 -0.24996582 0.20918897 0.07077531 0.20579536 -0.062471624 -0.04247112 -0.086449504 0.14672616 -0.020753011 0.0031829732 0.022726182 0.15920123 -0.04317517 0.080644816 0.01984262 0.18959093 0.01036693 -0.12864964
Adda 3 -0.08985573 0.12536052 0.0012846574 0.1440197 0.07880798 0.15777312 -0.05369337 0.059077643 0.0047385367 -0.13489297 -0.06794697 0.06659795 -0.2653385 0.058588084 -0.14472361 0.17412925 -0.069515795 -0.09282522 -0.16817549 -0.028294293 -0.03402638 -0.15031844 -0.16828471 -0.12577462 -0.24368927 0.022342535 0.069570564 -0.017677013 0.12221674 -0.02912479 0.15573108 -0.144138 0.048522174 -0.18332238 0.16685309 -0.13212731 -0.10849303 0.06594399 -0.20487878 -0.0024862003 -0.16561033 -0.16796915 0.14809053 0.096509576 0.16447647 0.017074829 -0.2510874 0.20911147 0.07221358 0.2056168 -0.06300384 -0.04371316 -0.08564919 0.14577436 -0.02159684 0.003993075 0.024106586 0.15757386 -0.04316228 0.07989792 0.019895751 0.19011828 0.010229216 -0.12742497
2 462 -0.06034381 -0.01310868 -0.1537325 0.2528318 -0.1452835 0.121627025 0.15619233 0.032234162 -0.1596736 0.052166454 -0.1145506 -0.03389249 -0.14849783 0.22896387 -0.10618698 0.0339141 0.16104892 -0.017554484 0.00656515 -0.0888902 -0.06596345 -0.12960613 0.03133311 -0.08463972 0.09617481 -0.004411624 -0.197526 -0.06298671 0.20179573 -0.27902257 -0.033288028 0.06499997 0.20608714 0.12974098 -0.07477494 0.020642525 -0.0025195037 0.009825719 -0.06354136 -0.058632534 0.081366636 0.052684184 0.08050997 0.13117704 0.16209762 0.10237862 0.07580901 0.055244323 -0.13029037 -0.15655082 -0.10409976 0.11808315 0.27521124 -0.14237915 0.06402562 -0.0004242966 0.024746604 -0.06534162 -0.28994605 0.06251893 -0.13028723 0.13474634 0.07901278 -0.16157699
Two 30 -0.08963954 0.12519632 0.00067490496 0.1443142 0.07899835 0.15706533 -0.053654183 0.059619658 0.0049662353 -0.13458046 -0.06855445 0.066049814 -0.26519513 0.05845458 -0.14408427 0.1738084 -0.06887194 -0.09269028 -0.16747889 -0.027902676 -0.034568317 -0.15037774 -0.16896883 -0.12574583 -0.24415237 0.021710573 0.069683395 -0.017044855 0.122618616 -0.029691111 0.1567974 -0.14374515 0.048596773 -0.18390673 0.16620877 -0.13308494 -0.10862307 0.06637479 -0.20486303 -0.003169942 -0.16505492 -0.16768968 0.14832872 0.0970587 0.16348849 0.016737988 -0.250704 0.20957592 0.07122762 0.20590733 -0.0634088 -0.042718735 -0.08500742 0.14623511 -0.020638928 0.0032901627 0.023727588 0.158553 -0.04309189 0.07945401 0.020018134 0.19000189 0.009819159 -0.12795945
Nenneke 23 -0.090654224 0.12429448 0.00070876756 0.14371234 0.07997127 0.15789449 -0.052365556 0.06071904 0.0054598195 -0.13617183 -0.06741539 0.06776353 -0.26594606 0.05929693 -0.14279172 0.17553952 -0.06894221 -0.091380484 -0.16613053 -0.02781734 -0.035519227 -0.15014197 -0.16850524 -0.12635387 -0.24592592 0.020598002 0.067844726 -0.01638077 0.12155008 -0.02961449 0.15620364 -0.14465909 0.050817095 -0.185287 0.16511622 -0.13373347 -0.10737019 0.06496428 -0.20542204 -0.0027392805 -0.16584688 -0.16694827 0.14744227 0.09562967 0.16171265 0.019467108 -0.2512667 0.21037804 0.07142102 0.20573436 -0.0646118 -0.042519253 -0.08277728 0.14527237 -0.020177703 0.0033200895 0.024880312 0.1582437 -0.043190304 0.078069285 0.020072116 0.1901036 0.008758529 -0.1270838
12 22 -0.059373043 -0.016883558 -0.15330663 0.25452185 -0.14733419 0.121578686 0.15894276 0.032130353 -0.16341905 0.049360916 -0.1099697 -0.03508991 -0.14829023 0.22859211 -0.10532767 0.032200582 0.16284175 -0.019771226 0.006381544 -0.09130039 -0.06695097 -0.12759979 0.029152451 -0.08363433 0.09723918 -0.0065845572 -0.19543982 -0.06158759 0.20123689 -0.28144878 -0.030649368 0.06435987 0.20298813 0.13240203 -0.073953524 0.02415521 -0.001699205 0.00841085 -0.062222835 -0.06208333 0.08342113 0.052257475 0.081389055 0.13150115 0.15922624 0.10287079 0.0770473 0.054860678 -0.13030541 -0.15488331 -0.10699239 0.11980752 0.27301815 -0.13737279 0.06544 -0.0019414786 0.025657015 -0.063909605 -0.29045504 0.06531995 -0.13048396 0.1357611 0.081134655 -0.15859392
Iola 15 -0.09021444 0.12455979 0.0011082933 0.14387636 0.079486966 0.15773422 -0.053340893 0.060076494 0.0050238054 -0.13569637 -0.06813876 0.06693614 -0.26526958 0.05877239 -0.14345333 0.17453817 -0.06900014 -0.09179607 -0.16713755 -0.027780214 -0.035044666 -0.15010649 -0.16848125 -0.12633587 -0.24504243 0.021195645 0.06889554 -0.016924124 0.121872246 -0.029537534 0.15612729 -0.14437631 0.04942509 -0.18449964 0.16593207 -0.1333508 -0.108365715 0.06589782 -0.20524536 -0.0028293356 -0.16557887 -0.16747323 0.14762495 0.096436426 0.1629288 0.018115692 -0.25108844 0.20989701 0.07147323 0.20557098 -0.06409442 -0.0428864 -0.084152706 0.145506 -0.020859582 0.0037259918 0.024646537 0.15834455 -0.04324178 0.07887216 0.02006395 0.18987542 0.009057521 -0.12733184
8 35 -0.060365792 -0.015607145 -0.15299654 0.25437814 -0.14654945 0.12227939 0.1569737 0.032259203 -0.16144958 0.050997514 -0.11146393 -0.0344061 -0.1489401 0.22768575 -0.10603712 0.03278068 0.1623307 -0.019042518 0.0061853807 -0.09036674 -0.06682843 -0.1289995 0.02973579 -0.08469013 0.09716355 -0.005625586 -0.19626747 -0.062482487 0.20189603 -0.28018373 -0.032343913 0.06493616 0.20383127 0.1313 -0.074395224 0.022493152 -0.0023101007 0.008906655 -0.0625461 -0.06122486 0.08261138 0.05229051 0.08074958 0.13195014 0.15974754 0.103291884 0.07710864 0.05557248 -0.13093886 -0.15524316 -0.10598057 0.11905779 0.27329564 -0.13917491 0.06517083 -0.0013468093 0.025862271 -0.06558326 -0.2902484 0.06391019 -0.13061777 0.13507554 0.08087227 -0.15927835
3 255 -0.060886025 -0.014684088 -0.15357777 0.2538603 -0.14677092 0.12189675 0.15649252 0.03196945 -0.16108333 0.051072028 -0.112021886 -0.034220934 -0.14878562 0.22786024 -0.10534186 0.033039257 0.16249318 -0.019036336 0.006375744 -0.089824006 -0.066640995 -0.12932709 0.030183135 -0.08489973 0.096963696 -0.005890785 -0.19650115 -0.0632727 0.20223351 -0.2789651 -0.032630928 0.064918555 0.2044955 0.13133688 -0.07524969 0.022921516 -0.0023766698 0.009369219 -0.062362403 -0.06007431 0.082390815 0.05253354 0.080160566 0.13161929 0.1604685 0.10368015 0.07641797 0.055224422 -0.13083911 -0.15549572 -0.10516469 0.119293325 0.27364802 -0.1399551 0.064774536 -0.00035387068 0.025262585 -0.0659913 -0.29035375 0.06348683 -0.13041668 0.1352281 0.07993544 -0.1599894
Roach 15 -0.09103825 0.12447299 0.0016886997 0.14310744 0.07959914 0.15864511 -0.052514385 0.05988587 0.0049381847 -0.1362465 -0.06666005 0.06814296 -0.26616243 0.05927358 -0.1436509 0.17580006 -0.069844075 -0.091644436 -0.16704321 -0.02856513 -0.034578405 -0.15029082 -0.16750689 -0.12631041 -0.24524622 0.02192425 0.06777075 -0.017370518 0.12108483 -0.02884685 0.15467204 -0.14512463 0.050403196 -0.18438144 0.16577713 -0.13244502 -0.1071208 0.06437571 -0.20551711 -0.0017146027 -0.16668877 -0.16753052 0.14718686 0.09476292 0.16352384 0.01980816 -0.25191647 0.20968974 0.072856635 0.20546979 -0.0642712 -0.04389608 -0.0839037 0.14485246 -0.02155148 0.004357117 0.025465261 0.15676028 -0.04309936 0.07839846 0.020158703 0.19041127 0.009349896 -0.12641057
Nivellen 2 -0.093917266 0.12223289 0.0016358575 0.14232159 0.081518784 0.15862215 -0.051503457 0.058982812 0.0061473465 -0.13905035 -0.06391714 0.07080847 -0.26726064 0.061121643 -0.14115086 0.17734988 -0.07111374 -0.091243915 -0.1658333 -0.029094316 -0.035492778 -0.15006796 -0.16688542 -0.1289108 -0.24837703 0.021564398 0.06308496 -0.016669905 0.11978373 -0.029459927 0.1538711 -0.14694953 0.051988788 -0.18468882 0.16431755 -0.13192254 -0.10578347 0.060324628 -0.20602366 0.00028446838 -0.16778266 -0.16597277 0.14470714 0.092358895 0.16117096 0.02509667 -0.2528849 0.21057963 0.07305243 0.20495854 -0.06681181 -0.046061512 -0.082799405 0.14393319 -0.021441184 0.0057772584 0.028589237 0.15631288 -0.043520115 0.076748766 0.021601602 0.19061773 0.0072855917 -0.12531897
14 12 -0.05779556 -0.015534935 -0.15193793 0.2540789 -0.14641793 0.123725906 0.1588534 0.034135643 -0.16072492 0.05240479 -0.10965648 -0.036223993 -0.1493971 0.22627018 -0.10755037 0.033458874 0.1627031 -0.020413795 0.0065416093 -0.09183581 -0.067671224 -0.12846708 0.028909858 -0.08264831 0.09729176 -0.00441359 -0.1962814 -0.059428107 0.20188893 -0.28171188 -0.030228855 0.06571242 0.20288458 0.12935945 -0.07334753 0.022828555 -0.0013128956 0.0069119013 -0.06286504 -0.06081726 0.08354169 0.052798778 0.08183192 0.13341233 0.15793252 0.10519808 0.078452095 0.057710968 -0.12974977 -0.1571312 -0.10700237 0.11783296 0.27278236 -0.13889661 0.06740496 -0.0040282696 0.02737855 -0.063567534 -0.2901641 0.06478382 -0.12931831 0.13646647 0.083905466 -0.15670267
11 19 -0.058617633 -0.016278643 -0.15321219 0.25452903 -0.1463638 0.12181538 0.15838182 0.03218262 -0.163057 0.05023893 -0.11091876 -0.03480288 -0.14886056 0.22826523 -0.10608198 0.032030266 0.1622128 -0.01912202 0.0068921107 -0.091218874 -0.066986874 -0.12800632 0.029428292 -0.08406731 0.09686269 -0.0054254527 -0.1960854 -0.061707914 0.20178905 -0.28119728 -0.03087093 0.06431541 0.20310825 0.13165182 -0.074120924 0.022796135 -0.0016110832 0.009006011 -0.06259228 -0.061477017 0.08264774 0.052523207 0.08165103 0.13116308 0.15964659 0.10298937 0.07690297 0.05568166 -0.1307603 -0.15504418 -0.10661504 0.119058006 0.27345416 -0.13791668 0.06519477 -0.0023101876 0.025503593 -0.06413552 -0.29027358 0.06476532 -0.13046995 0.13553603 0.08110166 -0.15880318
Fenne 1 -0.08865255 0.12573339 0.00056991266 0.14512914 0.07845936 0.15644279 -0.05484715 0.059017688 0.004869564 -0.13364634 -0.069848016 0.064706855 -0.26429462 0.05780786 -0.1449284 0.1723412 -0.06843661 -0.093424186 -0.16838822 -0.027525261 -0.034287244 -0.15027903 -0.1696115 -0.12538208 -0.24290317 0.02192042 0.07142337 -0.017471256 0.12342452 -0.02974168 0.15753157 -0.14310253 0.0469128 -0.18308899 0.1671336 -0.13288392 -0.11003288 0.06793281 -0.20447448 -0.0038318594 -0.16421087 -0.16818522 0.14904244 0.09864235 0.16425148 0.014496363 -0.24996582 0.20918897 0.07077531 0.20579536 -0.062471624 -0.04247112 -0.086449504 0.14672616 -0.020753011 0.0031829732 0.022726182 0.15920123 -0.04317517 0.080644816 0.01984262 0.18959093 0.01036693 -0.12864964
Vereena 1 -0.0922417 0.12458636 0.0027138556 0.14176813 0.079487346 0.16039796 -0.05137363 0.059184138 0.004475407 -0.13735561 -0.06412946 0.07036505 -0.26736608 0.06013523 -0.1442812 0.17766581 -0.0716584 -0.09160623 -0.16771187 -0.02982594 -0.03349694 -0.15036316 -0.16559298 -0.12653117 -0.24520619 0.0231817 0.06584917 -0.018084515 0.11977342 -0.027884405 0.1520948 -0.14617619 0.051729914 -0.18374756 0.16625418 -0.13058412 -0.105388716 0.061951414 -0.20564088 0.00020568285 -0.16837168 -0.16749889 0.14615309 0.092222124 0.16488911 0.022227893 -0.2532736 0.20890908 0.07507376 0.20521301 -0.06405396 -0.04618732 -0.08402912 0.1438377 -0.0232796 0.005612372 0.026861928 0.15428334 -0.043126713 0.078385994 0.019997498 0.19112985 0.009951469 -0.12494671
Hereward 4 -0.09211773 0.12349437 0.0017460311 0.14229159 0.08042887 0.15910415 -0.05126925 0.06099001 0.0052492553 -0.13735078 -0.065640494 0.06936136 -0.26695022 0.059856027 -0.14220658 0.17733698 -0.069867834 -0.09038522 -0.16549398 -0.02863921 -0.035387684 -0.15030144 -0.16705205 -0.12682845 -0.24706022 0.021198792 0.065926276 -0.016688226 0.120221116 -0.028895216 0.15420395 -0.14583552 0.052345484 -0.18576957 0.16429657 -0.1332888 -0.105747215 0.062983386 -0.20610216 -0.0013134276 -0.16743128 -0.16691275 0.14637142 0.09323534 0.16205458 0.022343194 -0.25256914 0.2105105 0.072955795 0.20555367 -0.065761544 -0.04350559 -0.08179019 0.14427441 -0.020929912 0.004285992 0.026595881 0.1564548 -0.042943247 0.0766288 0.020518517 0.19064492 0.008235492 -0.12572278
Falwick 4 -0.091158 0.123777546 0.00073421095 0.1435192 0.08029985 0.15783614 -0.05188104 0.061334096 0.005654479 -0.13667253 -0.067957215 0.06773852 -0.26609528 0.05950322 -0.14225434 0.17564455 -0.06859023 -0.09034558 -0.16546163 -0.027870355 -0.036259655 -0.15012598 -0.16880725 -0.12675294 -0.24664618 0.019954827 0.06752717 -0.016048262 0.120896414 -0.029441126 0.15650246 -0.14473552 0.051405787 -0.18610188 0.16427566 -0.13430408 -0.106958665 0.06488306 -0.20583248 -0.0028753479 -0.16624151 -0.16698715 0.14719078 0.09515008 0.16073948 0.020430306 -0.25089708 0.21117544 0.07086825 0.20554107 -0.06543357 -0.04210642 -0.08199072 0.14499319 -0.019411327 0.0030496458 0.02530952 0.15833002 -0.042711034 0.077162355 0.02012881 0.19040124 0.0078039356 -0.12715591
6 48 -0.05981205 -0.013756354 -0.15367487 0.25306067 -0.14644971 0.1217294 0.15727621 0.032394838 -0.16001707 0.052070174 -0.112092145 -0.0345091 -0.14878492 0.22864538 -0.10600954 0.034042116 0.16230683 -0.018611802 0.006614537 -0.08909682 -0.06621525 -0.1295301 0.030549217 -0.08453506 0.09570361 -0.0051855105 -0.19751069 -0.062471014 0.20219365 -0.27867004 -0.03236603 0.06544617 0.20483702 0.12992233 -0.075177796 0.022336593 -0.0015795185 0.0090183355 -0.06293069 -0.05903114 0.082229644 0.052009325 0.080531195 0.13158181 0.16100949 0.10435859 0.076459564 0.055156518 -0.12967315 -0.15626407 -0.10387095 0.118238375 0.27372733 -0.1419658 0.06543479 -0.00063438714 0.025441695 -0.06496064 -0.29069906 0.06320608 -0.12975383 0.13613772 0.07980828 -0.16062239
Caldemeyn 4 -0.09122366 0.1237856 0.0012100507 0.14313702 0.08017472 0.15812096 -0.052139565 0.06095058 0.0053479937 -0.13642828 -0.067072645 0.067949146 -0.26619184 0.05927627 -0.1423735 0.17601207 -0.0690648 -0.09084301 -0.16566901 -0.028065009 -0.03558655 -0.15028581 -0.16806279 -0.1265457 -0.24649328 0.020884203 0.06732234 -0.016535494 0.121138304 -0.029360622 0.15556884 -0.14507225 0.051142957 -0.18561158 0.16452235 -0.13386859 -0.10691218 0.06448115 -0.20581792 -0.0023229686 -0.16639699 -0.16709034 0.14709911 0.094843924 0.16190097 0.020410907 -0.25175118 0.21058805 0.071883686 0.20570664 -0.06536828 -0.042578 -0.08239828 0.1450018 -0.02029895 0.0036787312 0.025562787 0.15769005 -0.042956904 0.077196315 0.020480532 0.190267 0.008339664 -0.12665313
9 21 -0.0599022 -0.016806783 -0.15251118 0.2546769 -0.14701338 0.12333928 0.15804881 0.032364197 -0.16260232 0.050505828 -0.10888695 -0.03632565 -0.14886539 0.22664848 -0.10612557 0.032911465 0.16388938 -0.021270055 0.005727349 -0.09231653 -0.06666993 -0.12842898 0.029042806 -0.083657674 0.098287135 -0.0068343664 -0.1959976 -0.061253052 0.20156476 -0.28141537 -0.03050458 0.064753234 0.20283692 0.1307519 -0.073606975 0.024554674 -0.0014044084 0.008641373 -0.06266098 -0.06200856 0.08338181 0.053138934 0.07973995 0.13314539 0.15772606 0.10458504 0.07829189 0.056127373 -0.1298901 -0.1558366 -0.107385896 0.11976698 0.2721836 -0.13748476 0.066317245 -0.0023234896 0.02694598 -0.06534149 -0.29004848 0.06413272 -0.129886 0.13685814 0.08263316 -0.15650149
Count 31 -0.08977594 0.12508906 0.0009504031 0.14423917 0.07905542 0.15735866 -0.053670052 0.059590917 0.0049819974 -0.13488227 -0.0685121 0.06625033 -0.26518363 0.058519803 -0.14417869 0.1739383 -0.068957254 -0.09246478 -0.16758233 -0.027937932 -0.034609422 -0.15027983 -0.16879928 -0.12586473 -0.24416079 0.02169714 0.069676355 -0.017247064 0.12233941 -0.029415807 0.1564532 -0.14397241 0.04866272 -0.18389896 0.16632421 -0.13290523 -0.1086407 0.06632605 -0.20498554 -0.002992956 -0.16530152 -0.16781065 0.14818865 0.09687892 0.16358694 0.017023731 -0.25075784 0.20960197 0.071489155 0.20568801 -0.06343542 -0.042919893 -0.08504419 0.14591591 -0.02084856 0.0035434202 0.023960544 0.15826856 -0.0430834 0.07946376 0.019983007 0.18999243 0.00972164 -0.127729
Eltibald 1 -0.08865255 0.12573339 0.00056991266 0.14512914 0.07845936 0.15644279 -0.05484715 0.059017688 0.004869564 -0.13364634 -0.069848016 0.064706855 -0.26429462 0.05780786 -0.1449284 0.1723412 -0.06843661 -0.093424186 -0.16838822 -0.027525261 -0.034287244 -0.15027903 -0.1696115 -0.12538208 -0.24290317 0.02192042 0.07142337 -0.017471256 0.12342452 -0.02974168 0.15753157 -0.14310253 0.0469128 -0.18308899 0.1671336 -0.13288392 -0.11003288 0.06793281 -0.20447448 -0.0038318594 -0.16421087 -0.16818522 0.14904244 0.09864235 0.16425148 0.014496363 -0.24996582 0.20918897 0.07077531 0.20579536 -0.062471624 -0.04247112 -0.086449504 0.14672616 -0.020753011 0.0031829732 0.022726182 0.15920123 -0.04317517 0.080644816 0.01984262 0.18959093 0.01036693 -0.12864964
Fredefalk 3 -0.0922417 0.12458636 0.0027138556 0.14176813 0.079487346 0.16039796 -0.05137363 0.059184138 0.004475407 -0.13735561 -0.06412946 0.07036505 -0.26736608 0.06013523 -0.1442812 0.17766581 -0.0716584 -0.09160623 -0.16771187 -0.02982594 -0.03349694 -0.15036316 -0.16559298 -0.12653117 -0.24520619 0.0231817 0.06584917 -0.018084515 0.11977342 -0.027884405 0.1520948 -0.14617619 0.051729914 -0.18374756 0.16625418 -0.13058412 -0.105388716 0.061951414 -0.20564088 0.00020568285 -0.16837168 -0.16749889 0.14615309 0.092222124 0.16488911 0.022227893 -0.2532736 0.20890908 0.07507376 0.20521301 -0.06405396 -0.04618732 -0.08402912 0.1438377 -0.0232796 0.005612372 0.026861928 0.15428334 -0.043126713 0.078385994 0.019997498 0.19112985 0.009951469 -0.12494671
Stregobor 3 -0.09134126 0.12333147 0.0008741516 0.14347789 0.08088788 0.15740854 -0.052246045 0.061540205 0.0056344913 -0.13661627 -0.06787564 0.06778112 -0.26599717 0.059139475 -0.14137198 0.1755046 -0.068089776 -0.09066696 -0.16493905 -0.02781639 -0.036115173 -0.15044414 -0.1686014 -0.12686892 -0.24720871 0.02041305 0.06731483 -0.015940486 0.12120818 -0.03006909 0.15628532 -0.14528179 0.0512665 -0.18628503 0.16366827 -0.13478954 -0.10739263 0.0646943 -0.205958 -0.002900645 -0.16612402 -0.16689557 0.14716645 0.095349334 0.16063572 0.02053593 -0.25157577 0.21101435 0.071063474 0.2057274 -0.06611728 -0.04188249 -0.08154109 0.14468129 -0.019705549 0.0032544592 0.025614783 0.15882346 -0.043294616 0.07644225 0.020691223 0.18996696 0.007982155 -0.12655064
Renfri 7 -0.09189988 0.12385689 0.0013806318 0.14268963 0.08059924 0.15875457 -0.05138543 0.060743675 0.005191988 -0.13727021 -0.06592961 0.069389075 -0.26682135 0.059977796 -0.14235692 0.17675589 -0.069632 -0.09103121 -0.16582674 -0.028791381 -0.035178557 -0.15048586 -0.16740339 -0.12668121 -0.24669476 0.021345366 0.06631941 -0.016549917 0.120286055 -0.029289028 0.15451564 -0.14579694 0.052090194 -0.18540655 0.16451737 -0.13310656 -0.106021844 0.0630559 -0.20592906 -0.0014570149 -0.1672958 -0.16684446 0.14672373 0.09374987 0.16191258 0.021976637 -0.25227934 0.21022035 0.07266439 0.20546512 -0.06544276 -0.043826047 -0.082065865 0.14413194 -0.021139886 0.004179589 0.026342116 0.1568914 -0.04333275 0.07697132 0.020273153 0.1907051 0.008786588 -0.1257474
Tavik 4 -0.08935623 0.12516014 0.00033509568 0.14455901 0.078919545 0.1565219 -0.053850524 0.059849806 0.005077488 -0.13412832 -0.06911975 0.065394804 -0.26498693 0.05817141 -0.1438345 0.1734094 -0.06845883 -0.092685364 -0.167188 -0.02758791 -0.034814104 -0.15038912 -0.16942279 -0.12569423 -0.24423343 0.0214156 0.069967106 -0.016748324 0.12309079 -0.030020349 0.15756989 -0.14333545 0.04831717 -0.18415399 0.16593808 -0.13365544 -0.10893208 0.0669072 -0.20475803 -0.0037072448 -0.1645313 -0.16763236 0.14853738 0.097590625 0.1631152 0.016074976 -0.2504159 0.20980884 0.07057749 0.20615947 -0.06350936 -0.041997116 -0.084888555 0.14672755 -0.02001414 0.0028092915 0.023303421 0.15922208 -0.042972576 0.079366975 0.020131426 0.18983549 0.009609393 -0.1284544
Fifteen 4 -0.08865255 0.12573339 0.00056991266 0.14512914 0.07845936 0.15644279 -0.05484715 0.059017688 0.004869564 -0.13364634 -0.069848016 0.064706855 -0.26429462 0.05780786 -0.1449284 0.1723412 -0.06843661 -0.093424186 -0.16838822 -0.027525261 -0.034287244 -0.15027903 -0.1696115 -0.12538208 -0.24290317 0.02192042 0.07142337 -0.017471256 0.12342452 -0.02974168 0.15753157 -0.14310253 0.0469128 -0.18308899 0.1671336 -0.13288392 -0.11003288 0.06793281 -0.20447448 -0.0038318594 -0.16421087 -0.16818522 0.14904244 0.09864235 0.16425148 0.014496363 -0.24996582 0.20918897 0.07077531 0.20579536 -0.062471624 -0.04247112 -0.086449504 0.14672616 -0.020753011 0.0031829732 0.022726182 0.15920123 -0.04317517 0.080644816 0.01984262 0.18959093 0.01036693 -0.12864964
Civril 4 -0.08935623 0.12516014 0.00033509568 0.14455901 0.078919545 0.1565219 -0.053850524 0.059849806 0.005077488 -0.13412832 -0.06911975 0.065394804 -0.26498693 0.05817141 -0.1438345 0.1734094 -0.06845883 -0.092685364 -0.167188 -0.02758791 -0.034814104 -0.15038912 -0.16942279 -0.12569423 -0.24423343 0.0214156 0.069967106 -0.016748324 0.12309079 -0.030020349 0.15756989 -0.14333545 0.04831717 -0.18415399 0.16593808 -0.13365544 -0.10893208 0.0669072 -0.20475803 -0.0037072448 -0.1645313 -0.16763236 0.14853738 0.097590625 0.1631152 0.016074976 -0.2504159 0.20980884 0.07057749 0.20615947 -0.06350936 -0.041997116 -0.084888555 0.14672755 -0.02001414 0.0028092915 0.023303421 0.15922208 -0.042972576 0.079366975 0.020131426 0.18983549 0.009609393 -0.1284544
Audoen 4 -0.09025728 0.12487851 0.0008711459 0.14372464 0.07917982 0.15751722 -0.05298428 0.059893884 0.0049791485 -0.13506125 -0.067692816 0.06681218 -0.2657658 0.0587557 -0.14367862 0.17474782 -0.06926718 -0.09223465 -0.16702579 -0.02816427 -0.03461794 -0.15041633 -0.16842505 -0.1259867 -0.2448193 0.021731831 0.068576306 -0.01690234 0.122182995 -0.02955722 0.15621704 -0.14410983 0.049523555 -0.18432623 0.16572504 -0.13308592 -0.10777541 0.065414466 -0.20505808 -0.0026979165 -0.1655784 -0.16746765 0.14782108 0.095989436 0.16328134 0.018008703 -0.25125325 0.20974748 0.07165511 0.20602234 -0.06390759 -0.042927984 -0.0842869 0.1460114 -0.020646673 0.0034168146 0.024338415 0.15799907 -0.042962227 0.07880548 0.020170977 0.19022806 0.009505913 -0.12753385
Libushe 1 -0.08865255 0.12573339 0.00056991266 0.14512914 0.07845936 0.15644279 -0.05484715 0.059017688 0.004869564 -0.13364634 -0.069848016 0.064706855 -0.26429462 0.05780786 -0.1449284 0.1723412 -0.06843661 -0.093424186 -0.16838822 -0.027525261 -0.034287244 -0.15027903 -0.1696115 -0.12538208 -0.24290317 0.02192042 0.07142337 -0.017471256 0.12342452 -0.02974168 0.15753157 -0.14310253 0.0469128 -0.18308899 0.1671336 -0.13288392 -0.11003288 0.06793281 -0.20447448 -0.0038318594 -0.16421087 -0.16818522 0.14904244 0.09864235 0.16425148 0.014496363 -0.24996582 0.20918897 0.07077531 0.20579536 -0.062471624 -0.04247112 -0.086449504 0.14672616 -0.020753011 0.0031829732 0.022726182 0.15920123 -0.04317517 0.080644816 0.01984262 0.18959093 0.01036693 -0.12864964
Baron 23 -0.09039097 0.12453824 0.001040631 0.14376427 0.07951311 0.15775067 -0.052991886 0.060190547 0.0051238122 -0.1356611 -0.06793225 0.067037225 -0.2655782 0.05889863 -0.14341486 0.17482887 -0.069047734 -0.09168436 -0.16684365 -0.02794658 -0.035092317 -0.15020679 -0.16849159 -0.12624402 -0.24518079 0.021209253 0.06863155 -0.016878748 0.1217634 -0.029406082 0.15611745 -0.1443987 0.04977076 -0.18466376 0.16563335 -0.13333687 -0.10791739 0.06557235 -0.20532273 -0.0027316397 -0.16575989 -0.16745545 0.14764574 0.09603232 0.16277981 0.018499631 -0.2511171 0.2100533 0.07155473 0.20565921 -0.06422917 -0.042811837 -0.08389739 0.14552662 -0.020605458 0.0035875796 0.024673909 0.15808667 -0.043031983 0.078579605 0.020111457 0.19010387 0.009028221 -0.12732162
Nohorn 1 -0.08865255 0.12573339 0.00056991266 0.14512914 0.07845936 0.15644279 -0.05484715 0.059017688 0.004869564 -0.13364634 -0.069848016 0.064706855 -0.26429462 0.05780786 -0.1449284 0.1723412 -0.06843661 -0.093424186 -0.16838822 -0.027525261 -0.034287244 -0.15027903 -0.1696115 -0.12538208 -0.24290317 0.02192042 0.07142337 -0.017471256 0.12342452 -0.02974168 0.15753157 -0.14310253 0.0469128 -0.18308899 0.1671336 -0.13288392 -0.11003288 0.06793281 -0.20447448 -0.0038318594 -0.16421087 -0.16818522 0.14904244 0.09864235 0.16425148 0.014496363 -0.24996582 0.20918897 0.07077531 0.20579536 -0.062471624 -0.04247112 -0.086449504 0.14672616 -0.020753011 0.0031829732 0.022726182 0.15920123 -0.04317517 0.080644816 0.01984262 0.18959093 0.01036693 -0.12864964
Haxo 2 -0.0922417 0.12458636 0.0027138556 0.14176813 0.079487346 0.16039796 -0.05137363 0.059184138 0.004475407 -0.13735561 -0.06412946 0.07036505 -0.26736608 0.06013523 -0.1442812 0.17766581 -0.0716584 -0.09160623 -0.16771187 -0.02982594 -0.03349694 -0.15036316 -0.16559298 -0.12653117 -0.24520619 0.0231817 0.06584917 -0.018084515 0.11977342 -0.027884405 0.1520948 -0.14617619 0.051729914 -0.18374756 0.16625418 -0.13058412 -0.105388716 0.061951414 -0.20564088 0.00020568285 -0.16837168 -0.16749889 0.14615309 0.092222124 0.16488911 0.022227893 -0.2532736 0.20890908 0.07507376 0.20521301 -0.06405396 -0.04618732 -0.08402912 0.1438377 -0.0232796 0.005612372 0.026861928 0.15428334 -0.043126713 0.078385994 0.019997498 0.19112985 0.009951469 -0.12494671
Pavetta 28 -0.09092159 0.12441725 0.0015804417 0.14329602 0.079721525 0.15863064 -0.05258552 0.060043402 0.005045049 -0.13643132 -0.06692126 0.06812705 -0.2659753 0.05931588 -0.14356367 0.1756858 -0.06964222 -0.09147884 -0.16699584 -0.028351478 -0.034851685 -0.15014155 -0.1677259 -0.12637804 -0.24533123 0.021520136 0.06794594 -0.017257385 0.12103492 -0.028886052 0.15489845 -0.14510739 0.05044111 -0.18452431 0.16583085 -0.13263531 -0.10733934 0.06464289 -0.20554285 -0.0019004974 -0.16657378 -0.16746543 0.14721087 0.095043875 0.1631422 0.019761786 -0.2516944 0.20984869 0.072578736 0.20533285 -0.064280614 -0.043713257 -0.08374847 0.14474447 -0.021411605 0.0042840154 0.025407093 0.15705204 -0.043169905 0.0784801 0.020040667 0.1902795 0.009165068 -0.1264832
Calanthe 51 -0.090253815 0.12487433 0.0009279682 0.14404285 0.079323836 0.15755002 -0.053130556 0.059799638 0.005094683 -0.13536428 -0.068159394 0.06687677 -0.26557934 0.05887472 -0.14385122 0.17448333 -0.06905347 -0.09205027 -0.16728653 -0.028018063 -0.034814302 -0.15026686 -0.16866395 -0.12609029 -0.24469142 0.02141461 0.06896784 -0.016969686 0.12199021 -0.02942358 0.15627818 -0.14421813 0.049443193 -0.18428548 0.16590263 -0.13295096 -0.108064994 0.06570811 -0.20512888 -0.0028614018 -0.16560812 -0.167486 0.14779174 0.09624508 0.16304064 0.018025955 -0.2509406 0.20976374 0.07147485 0.20569 -0.0637239 -0.043027766 -0.08438969 0.14566445 -0.020679966 0.0035233845 0.024382634 0.15806432 -0.04310151 0.07899568 0.019967575 0.1902995 0.0094794165 -0.1275178
17 4 -0.05893549 -0.020332353 -0.15009394 0.25645193 -0.14459048 0.12700441 0.15929514 0.034491684 -0.16208506 0.049644765 -0.106903955 -0.03752557 -0.14879104 0.2244088 -0.10911549 0.03356249 0.1633536 -0.02135127 0.0038660013 -0.0940981 -0.067476235 -0.1275422 0.026942791 -0.08322359 0.10048676 -0.005784239 -0.19585954 -0.060044315 0.19880442 -0.28581953 -0.031156398 0.0642233 0.1999571 0.12949045 -0.07128317 0.02278651 -0.0020922406 0.0074077942 -0.0625802 -0.06614548 0.08508643 0.053921945 0.07995242 0.13615562 0.15470597 0.10122581 0.08128254 0.05854406 -0.12895979 -0.1573533 -0.1121883 0.12100674 0.2702662 -0.13581836 0.06940587 -0.004655593 0.029658766 -0.0647786 -0.28893158 0.06446243 -0.13063812 0.13753435 0.08680741 -0.15181683
Rainfarn 5 -0.09015228 0.12464202 0.0012699252 0.14400111 0.07946864 0.15773232 -0.05348202 0.059902143 0.0050862795 -0.13549507 -0.068214945 0.06675454 -0.26527584 0.05869553 -0.14376915 0.17443459 -0.06892587 -0.09195647 -0.16718414 -0.027908744 -0.03490743 -0.15020624 -0.16853464 -0.12607147 -0.24472694 0.021496762 0.069312304 -0.01730217 0.12187065 -0.029215837 0.15594107 -0.14450136 0.049176447 -0.18426701 0.16601203 -0.13306312 -0.10842423 0.06599646 -0.20533583 -0.0027246936 -0.16571417 -0.16776267 0.14790161 0.096451506 0.16329092 0.017965997 -0.2510504 0.20982605 0.071824916 0.2054466 -0.06396282 -0.04293864 -0.08446303 0.14535518 -0.02098225 0.0038787508 0.024535146 0.15798604 -0.04316548 0.078913644 0.020123195 0.18994857 0.009351859 -0.12721708
Windhalm 2 -0.09059364 0.12355941 0.0012477768 0.14396767 0.08045659 0.15766503 -0.05316292 0.061136648 0.00560772 -0.13639301 -0.0686143 0.06698687 -0.26517162 0.058854442 -0.14233187 0.17488587 -0.068038285 -0.09064971 -0.16569057 -0.027329315 -0.03622771 -0.15003212 -0.16890302 -0.12651192 -0.24627404 0.020227212 0.06892222 -0.016739214 0.121346794 -0.029351287 0.15625001 -0.14504087 0.05015601 -0.18567695 0.164744 -0.13446178 -0.10831683 0.06607263 -0.20601349 -0.0030823443 -0.16586354 -0.16744645 0.14761254 0.09636066 0.16150622 0.01930211 -0.2509853 0.21088986 0.07123912 0.2051834 -0.06539888 -0.041775145 -0.08268044 0.14472076 -0.020059515 0.0037071074 0.025177065 0.15859824 -0.0431686 0.07743411 0.020463599 0.18968667 0.008035404 -0.1269003
Eist 10 -0.08999615 0.124878965 0.0005521885 0.14407922 0.07926235 0.15695271 -0.053260997 0.060035206 0.0050785183 -0.13474952 -0.068351105 0.066291794 -0.2655009 0.05852379 -0.1434463 0.17417479 -0.06875476 -0.0923825 -0.16687143 -0.02793302 -0.03479127 -0.15048 -0.16890362 -0.12597147 -0.24482428 0.021529933 0.068971194 -0.01664205 0.12254761 -0.029956281 0.1569068 -0.14386769 0.0491773 -0.18445492 0.16553375 -0.13353221 -0.10824298 0.06591712 -0.20496282 -0.003199056 -0.16513287 -0.1674414 0.14807814 0.09663097 0.16287664 0.017383777 -0.2509451 0.2098721 0.07104325 0.20613806 -0.06397066 -0.042427737 -0.08424315 0.14623146 -0.02023981 0.0030437193 0.023978848 0.15873928 -0.043046996 0.07878098 0.020220285 0.1900412 0.009470585 -0.12784807
7 45 -0.058921367 -0.015959116 -0.15337761 0.25402018 -0.1453515 0.122475825 0.1573663 0.0326138 -0.16156033 0.05131038 -0.11163563 -0.034936618 -0.14887637 0.22781965 -0.107015185 0.03322805 0.16219714 -0.0190585 0.006595725 -0.090996146 -0.06655144 -0.12854718 0.029623834 -0.08470373 0.0968519 -0.00499242 -0.19718853 -0.0621567 0.20135984 -0.2808543 -0.031573474 0.064820305 0.2037429 0.13023752 -0.07406037 0.021894988 -0.001965912 0.009408412 -0.062984556 -0.06059 0.082076125 0.052710738 0.08037983 0.1323004 0.15996699 0.10314226 0.07716278 0.05634558 -0.12994245 -0.1561523 -0.10611037 0.11850683 0.27334157 -0.13979183 0.065657265 -0.0020565386 0.025623731 -0.06464632 -0.29020327 0.06384439 -0.12991259 0.1358151 0.08098907 -0.15903191
Crach 20 -0.09081647 0.124553464 0.0011065721 0.1433524 0.079604276 0.15816742 -0.052402172 0.06015954 0.005032094 -0.1360501 -0.06710132 0.06782489 -0.26606825 0.059295744 -0.14337158 0.17549585 -0.06952775 -0.09164434 -0.1668046 -0.02833314 -0.03490196 -0.15028735 -0.16804333 -0.12632039 -0.24541207 0.021402776 0.06782095 -0.016812593 0.121345185 -0.029318873 0.1555634 -0.14466658 0.05046855 -0.1846795 0.16553272 -0.13299511 -0.107166655 0.064667635 -0.20536852 -0.0022268512 -0.16624488 -0.16725068 0.14733514 0.095198855 0.1627984 0.019464413 -0.25148642 0.20994198 0.07198123 0.205683 -0.06432071 -0.043378443 -0.08359059 0.14528956 -0.020888012 0.0037600275 0.025101172 0.15753277 -0.043051075 0.078368805 0.020043055 0.1904165 0.0091189835 -0.12695532
Draig 4 -0.09045482 0.12517051 0.0016420238 0.14346083 0.07898007 0.15843385 -0.05311491 0.05910594 0.004672883 -0.1355125 -0.066994436 0.0675417 -0.26585296 0.058976557 -0.1446171 0.1750184 -0.07005346 -0.092523076 -0.16806434 -0.02867804 -0.03389497 -0.1503339 -0.1676165 -0.12596735 -0.24407545 0.02255298 0.06864211 -0.017779397 0.12160931 -0.028815495 0.15482634 -0.14465165 0.04932555 -0.18343389 0.16670807 -0.13174523 -0.107719965 0.064947635 -0.20507511 -0.0018132427 -0.16630542 -0.16785634 0.14761032 0.09544036 0.1645843 0.01836369 -0.25164112 0.20906681 0.07293073 0.20552167 -0.06326818 -0.044332992 -0.08524656 0.1452943 -0.02201818 0.004398047 0.024796164 0.15675561 -0.043154612 0.07952216 0.019921754 0.19037656 0.010160063 -0.12680896
Drogodar 4 -0.08865255 0.12573339 0.00056991266 0.14512914 0.07845936 0.15644279 -0.05484715 0.059017688 0.004869564 -0.13364634 -0.069848016 0.064706855 -0.26429462 0.05780786 -0.1449284 0.1723412 -0.06843661 -0.093424186 -0.16838822 -0.027525261 -0.034287244 -0.15027903 -0.1696115 -0.12538208 -0.24290317 0.02192042 0.07142337 -0.017471256 0.12342452 -0.02974168 0.15753157 -0.14310253 0.0469128 -0.18308899 0.1671336 -0.13288392 -0.11003288 0.06793281 -0.20447448 -0.0038318594 -0.16421087 -0.16818522 0.14904244 0.09864235 0.16425148 0.014496363 -0.24996582 0.20918897 0.07077531 0.20579536 -0.062471624 -0.04247112 -0.086449504 0.14672616 -0.020753011 0.0031829732 0.022726182 0.15920123 -0.04317517 0.080644816 0.01984262 0.18959093 0.01036693 -0.12864964
Vissegerd 25 -0.089743875 0.12497948 0.0005668989 0.14445095 0.07909693 0.1568352 -0.0536332 0.05984309 0.005228416 -0.13461697 -0.06879021 0.06600793 -0.2652487 0.058494058 -0.14370428 0.1738685 -0.068620786 -0.09242749 -0.16713262 -0.02760467 -0.034910586 -0.15036298 -0.16915242 -0.12592153 -0.24446405 0.021305993 0.06954629 -0.016760264 0.12274547 -0.029843293 0.15714507 -0.143696 0.048765674 -0.18431178 0.16583116 -0.13351385 -0.10860907 0.066477425 -0.20491517 -0.0034891416 -0.16484709 -0.16749486 0.14820962 0.09716668 0.16294408 0.016823344 -0.25060096 0.20979078 0.07089535 0.20599021 -0.06362478 -0.04223796 -0.08457942 0.14634182 -0.020133492 0.0030320182 0.023712927 0.15884 -0.043140486 0.079132766 0.020115053 0.18998787 0.009518262 -0.12812608
Mousesack 11 -0.09116416 0.12426393 0.0011432243 0.14343123 0.07989366 0.1583956 -0.05217473 0.060327124 0.0052819275 -0.13639827 -0.06705795 0.068008676 -0.26632366 0.05946621 -0.14292541 0.17594114 -0.06923963 -0.09095191 -0.16640511 -0.028122822 -0.03526931 -0.15004478 -0.16797408 -0.12644736 -0.24597846 0.020800672 0.067520045 -0.016743284 0.12084938 -0.029073207 0.15543455 -0.14501303 0.050902948 -0.18493994 0.16522123 -0.13334058 -0.10703173 0.064507954 -0.20544165 -0.0020987447 -0.16643669 -0.16722257 0.14700025 0.09497891 0.16214123 0.020210208 -0.25159687 0.21045946 0.07165287 0.20559953 -0.064496525 -0.043083217 -0.08287586 0.14499766 -0.020454068 0.0037448984 0.02538802 0.15774511 -0.04300906 0.07807013 0.020138368 0.19043472 0.00863206 -0.12673491
10 20 -0.05856901 -0.017808495 -0.15342985 0.25404963 -0.14612955 0.12211115 0.156598 0.031970125 -0.16303976 0.052216075 -0.10928252 -0.03520297 -0.14959434 0.22746125 -0.10726379 0.034029786 0.1639393 -0.022298828 0.006658931 -0.09264844 -0.0675629 -0.12806587 0.02885252 -0.0844003 0.0963302 -0.005432566 -0.19661094 -0.06087291 0.20079187 -0.28071156 -0.02946726 0.06463988 0.20274411 0.12920071 -0.07354316 0.023850273 -0.00016243123 0.008767565 -0.06347937 -0.062270455 0.08181524 0.053247727 0.07984657 0.13230218 0.15880358 0.106562346 0.07732552 0.056852914 -0.13035549 -0.15598182 -0.107805155 0.1194685 0.27220458 -0.13907515 0.065861106 -0.0019221678 0.027254451 -0.06465504 -0.29042935 0.06323578 -0.12886062 0.1369496 0.08242427 -0.15798251
Roegner 7 -0.09067497 0.1250857 0.0015232832 0.14344111 0.07912612 0.15855582 -0.05271977 0.059337825 0.0048199357 -0.13591893 -0.06709233 0.067826465 -0.26602086 0.059273317 -0.14450474 0.1751912 -0.07001338 -0.092110224 -0.16789982 -0.028731545 -0.034223642 -0.15025064 -0.16775715 -0.12616959 -0.24433073 0.022112293 0.068361886 -0.017545015 0.121211946 -0.028729226 0.15497364 -0.14468081 0.049820557 -0.18376365 0.16650656 -0.13183165 -0.10741625 0.06475091 -0.20516959 -0.0018405005 -0.16651611 -0.16775066 0.14745834 0.09515799 0.16396837 0.018927356 -0.2513928 0.20938537 0.07265854 0.2053883 -0.063419424 -0.04432957 -0.084841914 0.14508504 -0.02169173 0.0042121625 0.024947228 0.15677223 -0.04301125 0.07934248 0.019732118 0.19056585 0.009824369 -0.12683351
Sir 28 -0.09012388 0.1250125 0.0011303384 0.1438505 0.07909788 0.1577039 -0.053310607 0.05957691 0.0048990785 -0.13511732 -0.06781809 0.066785365 -0.26554808 0.05870706 -0.14409822 0.17451298 -0.069342546 -0.09239572 -0.16749838 -0.028197229 -0.034427963 -0.15034199 -0.16834234 -0.12593271 -0.24438728 0.021944888 0.06903226 -0.01728545 0.1220975 -0.029304385 0.15591277 -0.144228 0.049125724 -0.18392988 0.16620967 -0.13267842 -0.10811835 0.06565548 -0.20505197 -0.002571463 -0.1656654 -0.16770987 0.14790754 0.09620025 0.16376083 0.017726317 -0.25119227 0.20950918 0.0719563 0.20575413 -0.0635815 -0.043282773 -0.08482507 0.14576732 -0.021110052 0.0037546323 0.024331806 0.1577718 -0.043076716 0.0792274 0.020056246 0.19015412 0.009757655 -0.12739097
Rumplestelt 1 -0.08865255 0.12573339 0.00056991266 0.14512914 0.07845936 0.15644279 -0.05484715 0.059017688 0.004869564 -0.13364634 -0.069848016 0.064706855 -0.26429462 0.05780786 -0.1449284 0.1723412 -0.06843661 -0.093424186 -0.16838822 -0.027525261 -0.034287244 -0.15027903 -0.1696115 -0.12538208 -0.24290317 0.02192042 0.07142337 -0.017471256 0.12342452 -0.02974168 0.15753157 -0.14310253 0.0469128 -0.18308899 0.1671336 -0.13288392 -0.11003288 0.06793281 -0.20447448 -0.0038318594 -0.16421087 -0.16818522 0.14904244 0.09864235 0.16425148 0.014496363 -0.24996582 0.20918897 0.07077531 0.20579536 -0.062471624 -0.04247112 -0.086449504 0.14672616 -0.020753011 0.0031829732 0.022726182 0.15920123 -0.04317517 0.080644816 0.01984262 0.18959093 0.01036693 -0.12864964
Nettly 2 -0.09198265 0.12238746 0.00077797496 0.1427979 0.081360705 0.15779114 -0.051158685 0.06278856 0.0060224873 -0.13732938 -0.06714365 0.06834928 -0.26650214 0.059569605 -0.1401148 0.17698675 -0.0680688 -0.08915329 -0.16325608 -0.027449 -0.0372742 -0.1502216 -0.168491 -0.12711045 -0.2488845 0.019213289 0.06599544 -0.015289894 0.12065433 -0.029902564 0.15629454 -0.14547727 0.05295476 -0.1877692 0.1623191 -0.13597745 -0.10609297 0.064007774 -0.2065386 -0.0028324127 -0.16647068 -0.16630647 0.14657213 0.09423735 0.15920046 0.022455806 -0.2518342 0.2120866 0.07082899 0.20586957 -0.06746123 -0.040818557 -0.07954134 0.14469373 -0.01857765 0.0029590663 0.026326621 0.15860747 -0.042754594 0.07486233 0.021037076 0.19013701 0.006518484 -0.12648371
Dhun 3 -0.0924848 0.12379189 0.0010463311 0.14235084 0.080222666 0.15873976 -0.050289057 0.0607833 0.005735533 -0.13725464 -0.06554755 0.06992305 -0.2678704 0.060453925 -0.14194332 0.17764425 -0.070049435 -0.09092837 -0.16537748 -0.028666476 -0.035353623 -0.15071835 -0.16707973 -0.1271336 -0.24716023 0.021095764 0.0649239 -0.015798671 0.12045489 -0.029708201 0.15497597 -0.14541678 0.053074423 -0.1861513 0.16362183 -0.13357995 -0.10465664 0.06202799 -0.20566663 -0.001885744 -0.1670921 -0.16621219 0.14620025 0.09289345 0.16106921 0.02245302 -0.25226372 0.21027017 0.072423525 0.20617238 -0.06552326 -0.04331293 -0.08120343 0.14491655 -0.019757703 0.0031626923 0.026404455 0.15678371 -0.043063976 0.07627651 0.020321047 0.19126649 0.008432185 -0.12614639
Lille 6 -0.09067442 0.12465275 0.0012546404 0.14322565 0.0792801 0.15832007 -0.052650545 0.059938464 0.0048209163 -0.13594492 -0.06696975 0.06774506 -0.26590854 0.059135064 -0.14356568 0.1754679 -0.06984427 -0.09174289 -0.16721976 -0.028228397 -0.034672316 -0.15014696 -0.1677695 -0.12641086 -0.24520382 0.021546623 0.06780584 -0.016911853 0.12155045 -0.029345194 0.15541685 -0.14449096 0.050162256 -0.18443727 0.16594854 -0.13285592 -0.10738431 0.06482632 -0.20518917 -0.0021802764 -0.16607028 -0.16725364 0.14715591 0.095314756 0.16330428 0.01905047 -0.25164193 0.20969564 0.072081216 0.20577447 -0.06405489 -0.043555718 -0.08398754 0.14556228 -0.02119169 0.0039122426 0.025069628 0.1575156 -0.04308546 0.07878433 0.02002151 0.19025148 0.009140398 -0.12706818
Little 20 -0.089903384 0.12507468 0.0007400311 0.14418332 0.07896426 0.15728755 -0.05345746 0.05962995 0.004966671 -0.13482253 -0.06849497 0.06618539 -0.26536718 0.05858393 -0.14390263 0.17408298 -0.0689541 -0.09221886 -0.16747244 -0.027829029 -0.034711193 -0.15019949 -0.16878958 -0.12598409 -0.2444441 0.021390203 0.069319904 -0.01693374 0.12228989 -0.029585382 0.15670823 -0.14378165 0.048833035 -0.18402696 0.16613469 -0.13323295 -0.10844221 0.066225484 -0.2048296 -0.0030642678 -0.16517761 -0.1676362 0.14794208 0.09680651 0.16325672 0.017152943 -0.25076246 0.2098155 0.07096337 0.20591943 -0.06345305 -0.042720824 -0.084736176 0.14624947 -0.02043037 0.00327021 0.023977151 0.15863693 -0.042972893 0.0793892 0.02000718 0.19009756 0.009408305 -0.12797113
Galarr 4 -0.09005678 0.124582395 0.000100249934 0.14398368 0.07937695 0.15659542 -0.052851904 0.06067985 0.0052852454 -0.13460556 -0.06838896 0.06608048 -0.26566985 0.05853291 -0.1427354 0.17447151 -0.06847863 -0.09194319 -0.16598175 -0.02764958 -0.035339754 -0.15049386 -0.16922803 -0.12600191 -0.24555509 0.02090998 0.068508245 -0.01602474 0.122752644 -0.030297965 0.15760258 -0.14356329 0.049719926 -0.1852125 0.16473654 -0.13442224 -0.10782731 0.06587913 -0.20503427 -0.0035824892 -0.1648459 -0.16707347 0.14802699 0.096535355 0.16197304 0.017653132 -0.25085706 0.21042125 0.07037714 0.20651624 -0.06454491 -0.041521583 -0.08332446 0.14672372 -0.019274507 0.0024354835 0.023879869 0.15923727 -0.042768426 0.078086205 0.020419532 0.1900733 0.008851458 -0.12825456
Torque 4 -0.090083785 0.1249718 0.0012957826 0.14368363 0.07897282 0.15818983 -0.05341708 0.059524763 0.004687185 -0.13568404 -0.067688316 0.06716112 -0.2652537 0.05885288 -0.14413929 0.17463076 -0.06971995 -0.09209512 -0.16800395 -0.027941935 -0.03453538 -0.14994897 -0.16804102 -0.12632512 -0.2444467 0.021549098 0.06884669 -0.01720169 0.121859364 -0.029332476 0.15567964 -0.14418297 0.04917789 -0.18388072 0.16677053 -0.13264467 -0.10832143 0.06579385 -0.2049702 -0.002488577 -0.16563831 -0.16751142 0.14743935 0.096307404 0.1638067 0.017815672 -0.2512015 0.20939793 0.07185688 0.20554438 -0.06341278 -0.04364265 -0.08492226 0.14570034 -0.021518098 0.0040431386 0.02462991 0.15788066 -0.043255083 0.079696305 0.019783305 0.18995136 0.009388528 -0.12739782
Vanadain 4 -0.089555554 0.12545463 0.0011059688 0.14429809 0.078721374 0.15744162 -0.053982213 0.059063066 0.004771329 -0.13458224 -0.06842274 0.06612562 -0.26507938 0.058393426 -0.14477584 0.17368342 -0.06924647 -0.092975624 -0.16822985 -0.028102223 -0.03409184 -0.15030964 -0.16861762 -0.12567738 -0.24349445 0.022237157 0.07003428 -0.017625695 0.12251956 -0.029279228 0.15618233 -0.14388011 0.048120145 -0.1832653 0.16692439 -0.13231741 -0.10887878 0.06644169 -0.20477913 -0.0028226539 -0.16526161 -0.16802435 0.14832957 0.097043484 0.16442138 0.016430294 -0.25080878 0.20913233 0.0718545 0.20566288 -0.06287122 -0.043402936 -0.08584988 0.14601336 -0.021386022 0.0037905644 0.023761634 0.15798183 -0.043165807 0.08008522 0.019882606 0.18998776 0.010263719 -0.12773205
Toruviel 7 -0.091290906 0.12457995 0.0011148623 0.14320913 0.07958726 0.15840842 -0.051758125 0.06004634 0.005303653 -0.13640405 -0.06688243 0.06844462 -0.26667288 0.059741754 -0.14340869 0.17594069 -0.06978329 -0.09155896 -0.16680084 -0.02856297 -0.034906127 -0.15041323 -0.16781844 -0.12659058 -0.24549453 0.021398216 0.06716825 -0.016652739 0.12098108 -0.02924524 0.15543008 -0.14479285 0.05108443 -0.18488596 0.16525091 -0.13278565 -0.10643784 0.06392852 -0.20534502 -0.002160045 -0.16656026 -0.1670993 0.14706416 0.09452747 0.16242048 0.020128164 -0.2514298 0.20992644 0.07213595 0.20571402 -0.064274505 -0.04362804 -0.08328414 0.14513318 -0.020542985 0.0035092677 0.025341718 0.15713954 -0.042976964 0.0781148 0.01989269 0.19084218 0.009113753 -0.12681729
Filavandrel 4 -0.091158 0.12377755 0.00073421095 0.1435192 0.08029985 0.15783614 -0.05188104 0.061334096 0.005654479 -0.13667251 -0.067957215 0.06773852 -0.26609528 0.05950322 -0.14225434 0.17564455 -0.06859023 -0.09034558 -0.16546163 -0.027870355 -0.036259655 -0.15012598 -0.16880725 -0.12675293 -0.24664618 0.019954827 0.06752716 -0.016048262 0.120896414 -0.029441124 0.15650246 -0.14473552 0.051405787 -0.18610188 0.16427566 -0.13430408 -0.106958665 0.06488306 -0.20583248 -0.0028753479 -0.16624153 -0.16698715 0.14719078 0.09515008 0.16073948 0.020430306 -0.25089708 0.21117547 0.07086825 0.20554107 -0.06543358 -0.04210642 -0.08199072 0.14499317 -0.019411327 0.0030496456 0.02530952 0.15833002 -0.042711042 0.077162355 0.02012881 0.19040124 0.0078039356 -0.12715591
Aen 15 -0.09021591 0.12500226 0.001013627 0.14396535 0.07905463 0.15750849 -0.053299606 0.059580322 0.005035479 -0.13503718 -0.06777885 0.06685375 -0.2656877 0.058806635 -0.14395079 0.17462237 -0.06932756 -0.092344515 -0.16739744 -0.028052418 -0.03450295 -0.1503574 -0.16842617 -0.1260037 -0.24446377 0.021758111 0.06883017 -0.01707477 0.12227926 -0.029400203 0.15610956 -0.14412828 0.049246468 -0.18406147 0.16606848 -0.13276541 -0.10801914 0.0656146 -0.20500124 -0.002706267 -0.16549923 -0.16749248 0.14777792 0.09620535 0.16354838 0.017783592 -0.25119162 0.2095095 0.07178317 0.20587434 -0.06353831 -0.043124545 -0.08465541 0.14594449 -0.020882918 0.0036131253 0.024257421 0.15784624 -0.043181673 0.07916499 0.020082526 0.19025022 0.0097415345 -0.12757573
Field 13 -0.0901264 0.12484168 0.00077962625 0.1438766 0.07923497 0.15737246 -0.053186953 0.059956364 0.004974176 -0.13512181 -0.068031944 0.06668115 -0.26551735 0.05868007 -0.14354537 0.17445597 -0.06907615 -0.09221385 -0.16710305 -0.027967107 -0.034751274 -0.15033193 -0.16858359 -0.1261255 -0.24485563 0.021505771 0.068744175 -0.016750444 0.12226827 -0.02978082 0.156481 -0.14402345 0.049351647 -0.18438315 0.16579106 -0.13330887 -0.10812933 0.06572406 -0.20500246 -0.0029317592 -0.16535915 -0.16740556 0.14780726 0.09637658 0.1630569 0.017738782 -0.25109908 0.20977856 0.07131415 0.20598155 -0.06391426 -0.04279819 -0.084282294 0.14602984 -0.020593636 0.0033405218 0.024275525 0.1584394 -0.043101124 0.07891916 0.020114863 0.19004801 0.009376372 -0.12764774
Yennefer 99 -0.091109954 0.12429609 0.00089983793 0.14344099 0.07969597 0.15785363 -0.052310247 0.060247373 0.0052561434 -0.13607645 -0.06762711 0.067564994 -0.26627448 0.05931476 -0.14269711 0.1755208 -0.069144465 -0.09111078 -0.16633144 -0.027966453 -0.03531074 -0.1502767 -0.16813593 -0.12651603 -0.24597289 0.020775557 0.06758222 -0.01639323 0.121266596 -0.029544493 0.156067 -0.1445735 0.050587118 -0.18507335 0.16488643 -0.13381898 -0.107053794 0.064716294 -0.20536856 -0.0026522637 -0.16601263 -0.16713333 0.14709345 0.09534839 0.16199784 0.01960358 -0.25139278 0.21035342 0.07113925 0.2058909 -0.06462482 -0.042658076 -0.082870536 0.14559975 -0.019913765 0.003252264 0.025156736 0.15827371 -0.043033388 0.07776221 0.020241603 0.19056062 0.008502033 -0.12723003
22 4 -0.059973553 -0.016011732 -0.15312576 0.25416532 -0.14731309 0.1223917 0.15748177 0.031928644 -0.16197462 0.051009845 -0.10953397 -0.034998294 -0.148963 0.22784533 -0.105549395 0.032893866 0.16358076 -0.020259866 0.0058748177 -0.09106951 -0.06700268 -0.12869975 0.029037952 -0.08443224 0.09708134 -0.0068060975 -0.19657566 -0.062040344 0.20166142 -0.28006995 -0.031048864 0.06510732 0.20294553 0.13112986 -0.07446253 0.024186987 -0.0013136709 0.008267704 -0.06217982 -0.06146581 0.083093114 0.05243105 0.079985894 0.13196468 0.15903983 0.104638174 0.07752293 0.05536052 -0.13029921 -0.15516935 -0.10644917 0.11988063 0.27223846 -0.13904484 0.06600247 -0.001081211 0.026371108 -0.06534404 -0.2906785 0.06418458 -0.1296173 0.13648663 0.08138861 -0.1587871
Errdil 5 -0.0899372 0.12505072 0.0008109026 0.14400698 0.079036504 0.15730388 -0.053357407 0.05971922 0.0049572787 -0.13477957 -0.06812457 0.06639174 -0.26547414 0.0585667 -0.14393 0.1742682 -0.069101736 -0.09247349 -0.16729994 -0.028036736 -0.03455214 -0.15039036 -0.16866402 -0.12586701 -0.24443847 0.021769768 0.06914645 -0.017016301 0.12243254 -0.029594408 0.15648152 -0.1439098 0.04900185 -0.18408059 0.16600841 -0.13304684 -0.108228005 0.06591882 -0.20494337 -0.0029247513 -0.16530651 -0.16761284 0.14806683 0.09652101 0.16347702 0.017306354 -0.25099823 0.20963785 0.07147984 0.20597897 -0.06362101 -0.042837024 -0.08472029 0.14615583 -0.020668147 0.0033700762 0.024016181 0.15824108 -0.043005243 0.07917416 0.0201055 0.19010252 0.009678225 -0.12775831
Vratimir 3 -0.09198256 0.12420271 0.0016861932 0.14212629 0.0797573 0.15918319 -0.051201787 0.060237397 0.0048839473 -0.13676026 -0.0650635 0.069395654 -0.26726207 0.05984352 -0.14303651 0.17731322 -0.070613354 -0.09122585 -0.16633485 -0.029142315 -0.03446238 -0.15047997 -0.16667853 -0.12656276 -0.24620917 0.022087945 0.06576441 -0.016915979 0.12054375 -0.028874598 0.15395589 -0.14546047 0.0519963 -0.18494572 0.16495109 -0.13237761 -0.10546743 0.062576614 -0.20562755 -0.0009738045 -0.16741005 -0.16698833 0.14644076 0.09295838 0.16315943 0.02175566 -0.25276804 0.20982614 0.07337644 0.20588993 -0.06490942 -0.044316176 -0.08275343 0.14480036 -0.021452071 0.004304381 0.02625287 0.1559482 -0.04287218 0.07743401 0.0203307 0.19094057 0.009079751 -0.1259189
15 10 -0.057141908 -0.017747147 -0.1532348 0.25370446 -0.14576457 0.1221559 0.15830904 0.032133985 -0.16278964 0.05234594 -0.109111905 -0.03553316 -0.14972569 0.22819394 -0.107634656 0.033260163 0.16338791 -0.020793865 0.0062785307 -0.09272426 -0.067158945 -0.12767014 0.028614523 -0.084156536 0.09585359 -0.005545391 -0.1975584 -0.060220405 0.20091823 -0.28198454 -0.02858851 0.06551745 0.20264947 0.12938824 -0.0729882 0.022895418 0.00007323164 0.00832652 -0.063465394 -0.062200334 0.08152118 0.052316513 0.08069771 0.13216843 0.15901428 0.10527038 0.07820873 0.05651007 -0.12944989 -0.15536103 -0.10733558 0.11834698 0.27191287 -0.1394605 0.06651611 -0.0029387632 0.02702001 -0.0634029 -0.2906227 0.064588614 -0.12814699 0.13688378 0.08241952 -0.15853499
Chireadan 7 -0.09081613 0.12430801 0.0001956055 0.14394756 0.07961755 0.15689112 -0.052294593 0.06083822 0.005687316 -0.13543266 -0.06794439 0.067145646 -0.2662658 0.05927969 -0.14239685 0.17532289 -0.06869654 -0.091169864 -0.16572636 -0.027589377 -0.035769034 -0.15036088 -0.16908707 -0.12650041 -0.24607286 0.020209247 0.06753024 -0.015664691 0.122188576 -0.030006986 0.15734743 -0.14390326 0.05079489 -0.1857531 0.1643799 -0.13428637 -0.10708992 0.065162696 -0.20524426 -0.0033943215 -0.16525891 -0.16659582 0.14731348 0.095731705 0.16113478 0.019137759 -0.2509079 0.2106556 0.07038912 0.20629805 -0.064700566 -0.041731995 -0.08250501 0.14626393 -0.019015962 0.0024899424 0.02441666 0.15876035 -0.042947385 0.07768063 0.020251527 0.19053331 0.008464293 -0.12809277
King 48 -0.089751855 0.12505566 0.0008021258 0.14421546 0.07904736 0.15717399 -0.053621054 0.059706353 0.0049950792 -0.13470279 -0.068489194 0.06612602 -0.26523027 0.058448937 -0.14398539 0.17395997 -0.068889044 -0.09250066 -0.1673715 -0.02788214 -0.034642417 -0.15034105 -0.16886318 -0.12583101 -0.24430582 0.02166968 0.06955537 -0.017078683 0.12252923 -0.029602043 0.1566606 -0.14385402 0.048706755 -0.18402942 0.1661156 -0.13313547 -0.108574875 0.066309914 -0.20494655 -0.0031080078 -0.16514902 -0.16770789 0.14821331 0.09690634 0.16345955 0.016945906 -0.2508059 0.20965998 0.07132835 0.2058802 -0.063554235 -0.042680327 -0.08487536 0.14614457 -0.020633535 0.003363108 0.023871249 0.15845238 -0.043051124 0.07930567 0.020086234 0.18997373 0.009670561 -0.12785515
Beau 24 -0.08955909 0.12520063 0.0008368457 0.14441493 0.07897211 0.15707907 -0.053924482 0.059495486 0.004950806 -0.1345684 -0.06876877 0.0659164 -0.26502022 0.058328778 -0.144228 0.17358904 -0.06880319 -0.09273389 -0.16768107 -0.027861094 -0.034506485 -0.15033616 -0.16896005 -0.12576997 -0.24396327 0.021806654 0.06997391 -0.017236974 0.122641705 -0.029598383 0.15671054 -0.14380525 0.04829563 -0.1837576 0.16639975 -0.13296996 -0.108944416 0.06661279 -0.20486337 -0.003190157 -0.16503192 -0.1678546 0.14837015 0.09725787 0.1636982 0.01648164 -0.2506683 0.20949608 0.071319304 0.20578521 -0.06330126 -0.042785257 -0.08527763 0.14611717 -0.020815834 0.0034334857 0.023701614 0.15855078 -0.04315247 0.07962826 0.020017197 0.18988071 0.009891174 -0.12789837
23 3 -0.059481796 -0.018748662 -0.15191948 0.25527468 -0.14723496 0.12350958 0.15818796 0.032284517 -0.16358659 0.05053145 -0.10700528 -0.03644287 -0.14938319 0.22629255 -0.10652492 0.03259196 0.16453953 -0.022534044 0.0053029996 -0.09338962 -0.06760177 -0.1278541 0.028107457 -0.08344247 0.09829856 -0.0071196295 -0.19542603 -0.060329616 0.20102683 -0.28236324 -0.029345071 0.06462375 0.20150839 0.13094588 -0.07276447 0.025194285 -0.00050286413 0.007658251 -0.06263517 -0.06443459 0.08360164 0.05315294 0.080127895 0.13316566 0.15649195 0.1052461 0.07906881 0.05645244 -0.13037339 -0.1550532 -0.10941113 0.120727725 0.2711484 -0.13598734 0.06688259 -0.002841441 0.028391479 -0.065242305 -0.29011652 0.06454872 -0.12974925 0.13711451 0.0841148 -0.15537892
Triss 53 -0.09046915 0.124478996 0.0007950468 0.14377107 0.079544894 0.15752067 -0.052847527 0.060322646 0.0051946114 -0.13546674 -0.067838036 0.066992596 -0.26576003 0.058901496 -0.14304215 0.17498694 -0.06891399 -0.09162923 -0.16650946 -0.027833179 -0.035179578 -0.15025784 -0.16853468 -0.12624404 -0.245502 0.021035444 0.06830326 -0.01655694 0.1219181 -0.029668108 0.15638717 -0.14429016 0.049980987 -0.18487422 0.16529192 -0.13370489 -0.10774912 0.065455586 -0.2052339 -0.0028735322 -0.16555873 -0.16724865 0.14754753 0.09600364 0.16242713 0.01859018 -0.2512384 0.21019739 0.07120348 0.20595329 -0.06435831 -0.042476516 -0.08347845 0.1458005 -0.020220865 0.0032976873 0.024604538 0.15843001 -0.04306136 0.07832207 0.020245643 0.19012219 0.008897126 -0.12746347
Laurelnose 4 -0.08935623 0.12516014 0.00033509568 0.14455901 0.078919545 0.1565219 -0.053850524 0.059849806 0.005077488 -0.13412832 -0.06911975 0.065394804 -0.26498693 0.05817141 -0.1438345 0.1734094 -0.06845883 -0.092685364 -0.167188 -0.02758791 -0.034814104 -0.15038912 -0.16942279 -0.12569423 -0.24423343 0.0214156 0.069967106 -0.016748324 0.12309079 -0.030020349 0.15756989 -0.14333545 0.04831717 -0.18415399 0.16593808 -0.13365544 -0.10893208 0.0669072 -0.20475803 -0.0037072448 -0.1645313 -0.16763236 0.14853738 0.097590625 0.1631152 0.016074976 -0.2504159 0.20980884 0.07057749 0.20615947 -0.06350936 -0.041997116 -0.084888555 0.14672755 -0.02001414 0.0028092915 0.023303421 0.15922208 -0.042972576 0.079366975 0.020131426 0.18983549 0.009609393 -0.1284544
Neville 4 -0.089555554 0.12545463 0.0011059688 0.14429809 0.078721374 0.15744162 -0.053982213 0.059063066 0.004771329 -0.13458224 -0.06842274 0.06612562 -0.26507938 0.058393426 -0.14477584 0.17368342 -0.06924647 -0.092975624 -0.16822985 -0.028102223 -0.03409184 -0.15030964 -0.16861762 -0.12567738 -0.24349445 0.022237157 0.07003428 -0.017625695 0.12251956 -0.029279228 0.15618233 -0.14388011 0.048120145 -0.1832653 0.16692439 -0.13231741 -0.10887878 0.06644169 -0.20477913 -0.0028226539 -0.16526161 -0.16802435 0.14832957 0.097043484 0.16442138 0.016430294 -0.25080878 0.20913233 0.0718545 0.20566288 -0.06287122 -0.043402936 -0.08584988 0.14601336 -0.021386022 0.0037905644 0.023761634 0.15798183 -0.043165807 0.08008522 0.019882606 0.18998776 0.010263719 -0.12773205
Eskel 8 -0.09000897 0.1249084 0.001037537 0.14420028 0.079284064 0.15760642 -0.05343242 0.059785187 0.0051091607 -0.13539244 -0.068557255 0.06659104 -0.26525313 0.05876917 -0.14406858 0.1741377 -0.068910345 -0.09203423 -0.16745348 -0.02795622 -0.034913868 -0.15016955 -0.16881444 -0.12606476 -0.24441618 0.021349398 0.06951208 -0.017199244 0.12188041 -0.029222177 0.15633035 -0.14419785 0.049062915 -0.18415938 0.16620536 -0.13293098 -0.1084741 0.06617824 -0.20517327 -0.0029114655 -0.1655988 -0.16778979 0.14801943 0.09662709 0.16315599 0.017641671 -0.25063917 0.20985341 0.07146351 0.20542924 -0.06363635 -0.042993624 -0.08470469 0.14550918 -0.020769065 0.003607105 0.024248 0.15815268 -0.043041676 0.07926636 0.0198622 0.1900808 0.009413066 -0.12754741
Vesemir 14 -0.09040407 0.12450406 0.0006498748 0.14413087 0.07975614 0.1572627 -0.053096075 0.05996479 0.0053584385 -0.13567144 -0.0681535 0.066918306 -0.26548854 0.059069917 -0.14324816 0.17439903 -0.06884853 -0.09202246 -0.16680014 -0.027927252 -0.03524837 -0.15026392 -0.16897571 -0.12636991 -0.24524845 0.021074392 0.068646036 -0.016687125 0.12187738 -0.029718833 0.15664801 -0.14434859 0.049547907 -0.18452187 0.16554739 -0.13335593 -0.10810935 0.06551581 -0.20525517 -0.0028481074 -0.16555177 -0.16728967 0.14776456 0.0963879 0.16228619 0.01849612 -0.2507664 0.21015196 0.07109291 0.20558941 -0.064306885 -0.042889524 -0.084037766 0.14560065 -0.020345606 0.0034780428 0.024605915 0.15852894 -0.04315793 0.078645766 0.020177076 0.19012691 0.009004895 -0.12754676
Dennis 8 -0.08994183 0.12476481 0.0008900021 0.14413923 0.07932034 0.15728848 -0.05349569 0.059986614 0.0051089814 -0.13504295 -0.068463296 0.066330716 -0.2652544 0.058544494 -0.14365707 0.17418389 -0.06875359 -0.09213756 -0.16703574 -0.027796293 -0.034938335 -0.15028876 -0.1688443 -0.12596919 -0.24470846 0.021403242 0.069375895 -0.017004117 0.12228663 -0.029552411 0.15655684 -0.14409342 0.049029842 -0.184358 0.16583504 -0.13338184 -0.1084772 0.06620987 -0.20515482 -0.003077584 -0.16531084 -0.16764489 0.14807707 0.096747324 0.16308317 0.017454214 -0.250869 0.20989732 0.07133248 0.2057597 -0.06392257 -0.04252635 -0.084427565 0.14587018 -0.020526858 0.0034309835 0.024145428 0.15845238 -0.043067858 0.078924 0.02016241 0.18993697 0.009353746 -0.12765683
25 6 -0.060096696 -0.018834146 -0.15090215 0.25583518 -0.14792624 0.12421346 0.15838939 0.032654427 -0.16355036 0.050359376 -0.106262386 -0.037150566 -0.149391 0.22507176 -0.10671982 0.03213823 0.16490756 -0.023285348 0.00509458 -0.09400383 -0.06762285 -0.12795173 0.028334022 -0.08266862 0.09918709 -0.0072017387 -0.19433841 -0.059355576 0.20165896 -0.28275147 -0.029337313 0.06466681 0.20134048 0.1312523 -0.07205206 0.02572657 -0.00076077966 0.007174628 -0.06278526 -0.06520481 0.08423269 0.053207293 0.080444776 0.1340608 0.15516573 0.10590902 0.07967469 0.056788202 -0.13077505 -0.15504144 -0.109826334 0.12075195 0.27124378 -0.13419643 0.067029946 -0.0038123417 0.029165076 -0.06572543 -0.28986362 0.06477563 -0.13043173 0.13692442 0.08514059 -0.15363818
24 4 -0.059245594 -0.014753941 -0.15225376 0.25510514 -0.14625174 0.12376135 0.15833203 0.033247028 -0.16115843 0.050825045 -0.10963543 -0.03676252 -0.14980164 0.22719648 -0.105119474 0.03144421 0.16280563 -0.018648524 0.0053766863 -0.09019203 -0.066799216 -0.1298834 0.029509455 -0.08324945 0.09803401 -0.007709177 -0.1966563 -0.06196247 0.20223016 -0.2803624 -0.032722704 0.06477841 0.20238549 0.13287051 -0.073005415 0.0223473 -0.0008383602 0.007611424 -0.06143262 -0.06271818 0.084301144 0.051520474 0.080345236 0.13160497 0.15787324 0.10201105 0.07928752 0.05484732 -0.13011944 -0.15383817 -0.10787036 0.12013752 0.27325806 -0.13712324 0.0654067 -0.001246148 0.026224399 -0.066235125 -0.2903088 0.06526412 -0.13035552 0.13661724 0.083085775 -0.15825248
Istredd 4 -0.09198743 0.12316623 0.0024448906 0.14365244 0.08167061 0.15888575 -0.05150746 0.06179357 0.005384527 -0.13860133 -0.066905536 0.068319 -0.26639012 0.060309753 -0.14203824 0.17583847 -0.06854392 -0.090077795 -0.16550978 -0.027891936 -0.0367904 -0.15079579 -0.16751835 -0.12698242 -0.24725626 0.020210793 0.06817466 -0.016201774 0.12006332 -0.029730354 0.15449159 -0.1463506 0.051555425 -0.18535092 0.16410549 -0.13377358 -0.107176 0.0639661 -0.2064582 -0.0020091326 -0.16719432 -0.16620263 0.14596374 0.09510479 0.16193989 0.022243638 -0.25216135 0.21021637 0.07197176 0.20441352 -0.06607718 -0.04347479 -0.08118771 0.1430013 -0.021669237 0.004448534 0.026094079 0.15659602 -0.042886417 0.075980484 0.021001363 0.19111528 0.008708714 -0.12601824
Herbolth 3 -0.092142016 0.12428996 0.00049475173 0.14311564 0.07998359 0.1587602 -0.051339664 0.060485993 0.005394488 -0.13833994 -0.0683739 0.06899866 -0.26625162 0.060624283 -0.14288312 0.17602949 -0.06962963 -0.08926269 -0.16648856 -0.028385656 -0.03609966 -0.14962889 -0.16812651 -0.12764432 -0.24637449 0.018873325 0.06666191 -0.015812399 0.1193352 -0.02889983 0.15643874 -0.1445483 0.0520709 -0.18578385 0.16502231 -0.13356154 -0.10605564 0.064004764 -0.20584773 -0.002749526 -0.16700098 -0.16718267 0.14630842 0.094462864 0.15990551 0.021674003 -0.25020012 0.21118793 0.07040985 0.20487276 -0.06497653 -0.043470003 -0.081842326 0.14455205 -0.019316994 0.003078755 0.026027268 0.15827852 -0.042945996 0.0776015 0.018959977 0.19138534 0.0071622194 -0.12744464
Seven 17 -0.08919667 0.12539876 0.0005855432 0.14466615 0.07873801 0.15671594 -0.054174956 0.05942028 0.004944324 -0.13409412 -0.06917035 0.06536479 -0.2648066 0.05811705 -0.14437856 0.17316067 -0.06863802 -0.092971504 -0.16778712 -0.027690653 -0.034489397 -0.1503389 -0.16928981 -0.12559916 -0.2436697 0.02175751 0.07041165 -0.017167492 0.12305525 -0.029764175 0.15723304 -0.14339592 0.047858026 -0.1836327 0.16652274 -0.13311446 -0.10924394 0.06709972 -0.20468076 -0.0035357836 -0.16460983 -0.16788816 0.14863789 0.09777179 0.16375767 0.015694352 -0.25037742 0.20946853 0.070936546 0.20593672 -0.06305434 -0.04246755 -0.08557435 0.14655994 -0.020554371 0.0031501027 0.023241585 0.15892504 -0.04307788 0.079912275 0.01998805 0.18980049 0.009986219 -0.1283426
Dandelion 93 -0.09070556 0.12435044 0.00047379753 0.1437054 0.080071084 0.15754502 -0.052119832 0.060754083 0.0054570604 -0.13589989 -0.067605324 0.06761804 -0.2660752 0.059317943 -0.14264555 0.17529538 -0.06873219 -0.091741614 -0.16591547 -0.028079504 -0.03546409 -0.150524 -0.16870172 -0.12625751 -0.24591574 0.020967377 0.067831606 -0.016220028 0.12159084 -0.029991327 0.15651993 -0.14456828 0.05087314 -0.18538995 0.16465367 -0.13389453 -0.107125945 0.06475063 -0.2054267 -0.0028909633 -0.16590703 -0.16696008 0.14777003 0.0955693 0.16150953 0.019391008 -0.2511441 0.21037409 0.07134094 0.20592387 -0.06484972 -0.04242125 -0.08272463 0.14535443 -0.019923484 0.003003655 0.024802357 0.15835844 -0.04315742 0.0776686 0.020144848 0.1903124 0.008953752 -0.12707585
74 1 -0.059690204 -0.019431693 -0.15106297 0.2559612 -0.14797503 0.1241912 0.15921436 0.032635882 -0.16425681 0.049623813 -0.10558401 -0.03749306 -0.14926532 0.22526065 -0.10628665 0.03191864 0.1650331 -0.023345808 0.0049358085 -0.09420004 -0.067594565 -0.12755595 0.027809002 -0.082519434 0.09944942 -0.007845892 -0.19442056 -0.059527103 0.20126712 -0.2833409 -0.028848127 0.064473785 0.20092317 0.13174747 -0.072097994 0.026178278 -0.0005625249 0.007098252 -0.06235587 -0.06556752 0.08459789 0.053161234 0.080415964 0.13397169 0.15482332 0.10528509 0.0799896 0.056529555 -0.13030665 -0.15483645 -0.1103515 0.121127754 0.27068073 -0.13378243 0.06743926 -0.0037944147 0.029018907 -0.0652497 -0.28991836 0.065354235 -0.13022968 0.13733837 0.08534731 -0.15336785
88 1 -0.059496623 -0.01745516 -0.15404163 0.2550456 -0.1463437 0.120705664 0.15758368 0.03209487 -0.16388735 0.048747066 -0.11224094 -0.033713 -0.14873233 0.22854178 -0.10551224 0.030990422 0.16137472 -0.017980846 0.0073297466 -0.09060033 -0.0671229 -0.12744252 0.02940232 -0.08534586 0.09752008 -0.005361495 -0.19497955 -0.063683376 0.20185618 -0.28105158 -0.03225403 0.06361265 0.20356514 0.13398312 -0.07485283 0.022583853 -0.003375942 0.009876507 -0.06180951 -0.061773263 0.08245109 0.052120276 0.08217262 0.13048212 0.16052563 0.10107221 0.075767465 0.054925855 -0.13187416 -0.153607 -0.106675975 0.119564675 0.2737127 -0.13672148 0.06427495 -0.0016472224 0.024189053 -0.06465687 -0.2903826 0.06546525 -0.13173038 0.13355757 0.07949572 -0.15994851
Gar 20 -0.08985075 0.12506396 0.000972623 0.14412041 0.079052955 0.15739608 -0.05358823 0.059598878 0.004947971 -0.13486284 -0.06829324 0.06634523 -0.26528767 0.058526535 -0.14410946 0.17409717 -0.06905373 -0.092492566 -0.16751204 -0.02799237 -0.034535788 -0.15032323 -0.16867045 -0.12585644 -0.24424596 0.021802617 0.06947961 -0.017232465 0.12235956 -0.029444212 0.1563397 -0.14401194 0.04876488 -0.18391529 0.16624942 -0.13289739 -0.108497895 0.06614378 -0.20498599 -0.0028996887 -0.1653453 -0.16776189 0.14812745 0.096714586 0.16365872 0.017155603 -0.25092274 0.20956217 0.07160609 0.2057743 -0.06349928 -0.04295749 -0.0849687 0.14595626 -0.020894574 0.003571999 0.024030598 0.15817411 -0.043086078 0.0793651 0.020052278 0.19001625 0.009748213 -0.12766281
Dudu 2 -0.09337576 0.12289922 0.00009616587 0.14220664 0.08023237 0.15775217 -0.049759895 0.061490446 0.0055675847 -0.13608506 -0.065999225 0.06792853 -0.2686694 0.059932783 -0.13923012 0.17834255 -0.06868366 -0.088260494 -0.16338333 -0.027675062 -0.036398824 -0.15006301 -0.16733241 -0.12724781 -0.24979992 0.018954156 0.06357483 -0.014431337 0.119932756 -0.03011716 0.15639478 -0.14477487 0.05340233 -0.18699825 0.16152814 -0.13665347 -0.10423243 0.06232399 -0.20514098 -0.0020226317 -0.1664271 -0.16593376 0.14486645 0.09280335 0.1590467 0.023485115 -0.25280082 0.21276775 0.068575196 0.20759167 -0.06657463 -0.04077268 -0.078673646 0.1468204 -0.016709564 0.0019089412 0.02662941 0.15969416 -0.04191043 0.074817345 0.021564968 0.19151819 0.0057333126 -0.12737408
Vimme 2 -0.09005678 0.124582395 0.000100249934 0.14398368 0.07937695 0.15659542 -0.052851904 0.06067985 0.0052852454 -0.13460556 -0.06838896 0.06608048 -0.26566985 0.05853291 -0.1427354 0.17447151 -0.06847863 -0.09194319 -0.16598175 -0.02764958 -0.035339754 -0.15049386 -0.16922803 -0.12600191 -0.24555509 0.02090998 0.068508245 -0.01602474 0.122752644 -0.030297965 0.15760258 -0.14356329 0.049719926 -0.1852125 0.16473654 -0.13442224 -0.10782731 0.06587913 -0.20503427 -0.0035824892 -0.1648459 -0.16707347 0.14802699 0.096535355 0.16197304 0.017653132 -0.25085706 0.21042125 0.07037714 0.20651624 -0.06454491 -0.041521583 -0.08332446 0.14672372 -0.019274507 0.0024354835 0.023879869 0.15923727 -0.042768426 0.078086205 0.020419532 0.1900733 0.008851458 -0.12825456
Vespula 1 -0.09251312 0.12135593 0.0019253431 0.14277185 0.08243462 0.15884964 -0.051466007 0.06324102 0.0063445373 -0.13910715 -0.0673642 0.06925088 -0.2659853 0.05988698 -0.13970138 0.17738883 -0.06762373 -0.087853596 -0.16295338 -0.027126845 -0.038159538 -0.1497494 -0.16815422 -0.12761158 -0.24958614 0.018529175 0.06640462 -0.016003178 0.11924012 -0.028953891 0.15493116 -0.14694461 0.053387243 -0.18822059 0.1623151 -0.13600752 -0.10657493 0.064196676 -0.20750332 -0.0023320937 -0.16747664 -0.16666771 0.1461474 0.09405599 0.15872243 0.024103247 -0.25194484 0.21254043 0.07168593 0.20452249 -0.06831053 -0.041069206 -0.07889165 0.14268082 -0.019361231 0.004230357 0.02762194 0.1579574 -0.043151725 0.07420493 0.021079693 0.18973714 0.005701959 -0.12512068
Sword 10 -0.08904244 0.12530103 0.00070548605 0.14489967 0.07886028 0.15669023 -0.054511387 0.059442583 0.0050172773 -0.1341982 -0.06960264 0.06516407 -0.26447508 0.05801827 -0.14441192 0.17285341 -0.06835826 -0.09287113 -0.16785197 -0.027486602 -0.034675967 -0.15023252 -0.16947307 -0.12561044 -0.24358195 0.021582225 0.07092455 -0.017325195 0.12301138 -0.029664177 0.1572783 -0.14349292 0.047562294 -0.18361005 0.16665892 -0.13320202 -0.1096918 0.0675621 -0.20478618 -0.0036820418 -0.16454454 -0.16804071 0.14875935 0.09818794 0.16370562 0.015457717 -0.2501745 0.20953314 0.07086942 0.20567693 -0.063058235 -0.04233275 -0.08569741 0.14632793 -0.02061472 0.0032878532 0.023216758 0.1590837 -0.04317468 0.080004275 0.019967185 0.1896137 0.009900859 -0.12830226
Agloval 6 -0.09251329 0.122323215 0.0007729072 0.14289978 0.081631675 0.15819824 -0.05074383 0.06277858 0.006445107 -0.13802674 -0.06599025 0.06977399 -0.26712555 0.060328603 -0.13987103 0.17813931 -0.068454795 -0.08889744 -0.16307828 -0.027295118 -0.037375174 -0.1500331 -0.16814193 -0.12730283 -0.24922886 0.018685514 0.06492411 -0.015032468 0.120441906 -0.02968978 0.15574268 -0.14597137 0.054093692 -0.1879852 0.16233732 -0.13552725 -0.10545086 0.06309792 -0.20655937 -0.0024514834 -0.16669494 -0.16560002 0.14594308 0.09355064 0.1586263 0.023804793 -0.25228533 0.2119246 0.07128186 0.20574868 -0.06722548 -0.041199632 -0.07875575 0.14419833 -0.018786097 0.0032217882 0.026665173 0.15801553 -0.043367594 0.07485902 0.0208526 0.19034751 0.006721658 -0.1260802
Teleri 2 -0.09045482 0.12517051 0.0016420238 0.14346083 0.07898007 0.15843385 -0.05311491 0.05910594 0.004672883 -0.1355125 -0.066994436 0.0675417 -0.26585296 0.058976557 -0.1446171 0.1750184 -0.07005346 -0.092523076 -0.16806434 -0.02867804 -0.03389497 -0.1503339 -0.1676165 -0.12596735 -0.24407545 0.02255298 0.06864211 -0.017779397 0.12160931 -0.028815495 0.15482634 -0.14465165 0.04932555 -0.18343389 0.16670807 -0.13174523 -0.107719965 0.064947635 -0.20507511 -0.0018132427 -0.16630542 -0.16785634 0.14761032 0.09544036 0.1645843 0.01836369 -0.25164112 0.20906681 0.07293073 0.20552167 -0.06326818 -0.044332992 -0.08524656 0.1452943 -0.02201818 0.004398047 0.024796164 0.15675561 -0.043154612 0.07952216 0.019921754 0.19037656 0.010160063 -0.12680896
Essi 6 -0.0899605 0.12373662 -0.0011781806 0.14476912 0.08247126 0.15710703 -0.051644884 0.06279852 0.006291665 -0.1368757 -0.06799727 0.06832056 -0.2653819 0.060065117 -0.1408587 0.17523202 -0.06661843 -0.09141587 -0.1633677 -0.027186766 -0.037596866 -0.15040635 -0.17037691 -0.12543324 -0.24765399 0.018782534 0.06858371 -0.014964531 0.12097758 -0.03087229 0.15786871 -0.1453079 0.052698147 -0.18681392 0.16358107 -0.13589145 -0.10738441 0.06535556 -0.20619336 -0.0037193154 -0.16567428 -0.1661701 0.14895254 0.096952684 0.1578404 0.020780724 -0.250315 0.21173368 0.07006833 0.20521685 -0.066260904 -0.040683225 -0.07984135 0.14378145 -0.019031394 0.0022994513 0.024439534 0.16026032 -0.04421706 0.07637151 0.01979591 0.18952271 0.008306962 -0.12643749
29 3 -0.057925206 -0.018017493 -0.1541163 0.25643948 -0.14854354 0.12026402 0.1611357 0.03077378 -0.16780339 0.04518064 -0.110437825 -0.032249797 -0.14758544 0.22921236 -0.10328444 0.02905386 0.16172116 -0.017325224 0.008457167 -0.09129664 -0.06829298 -0.12659928 0.02803673 -0.08439195 0.096398175 -0.006207318 -0.1931213 -0.06303996 0.2025596 -0.2821295 -0.030711243 0.062423956 0.20045188 0.1362613 -0.076477885 0.02435402 -0.0029189717 0.010130581 -0.060041405 -0.063032225 0.084525645 0.051920615 0.08472642 0.12876678 0.1600727 0.100398965 0.075123 0.05408271 -0.13348849 -0.15271693 -0.10695165 0.11986531 0.2731258 -0.13298595 0.06395986 -0.002167043 0.023004504 -0.06275055 -0.29061347 0.06764004 -0.13258903 0.13379227 0.08000715 -0.15847473
Duke 8 -0.08990681 0.12516713 0.0009885636 0.144012 0.07895095 0.15748012 -0.05348349 0.059478734 0.0048752585 -0.13482235 -0.06805808 0.0664692 -0.26542374 0.058574818 -0.14422786 0.17421639 -0.06925714 -0.09260556 -0.16762857 -0.02813337 -0.03435504 -0.15036365 -0.16852207 -0.1258326 -0.24415797 0.021984598 0.06930561 -0.017264102 0.122351825 -0.029418355 0.1562004 -0.14399563 0.04882206 -0.18379658 0.16632545 -0.13270225 -0.10832759 0.065928385 -0.20491952 -0.0027602983 -0.16542073 -0.16774677 0.148076 0.0965169 0.1638521 0.017219564 -0.2510321 0.20944083 0.071755126 0.20584354 -0.06338968 -0.043165654 -0.08506878 0.14601302 -0.021016447 0.0036037085 0.024050126 0.15799116 -0.04306421 0.07944571 0.02002688 0.19010878 0.009884866 -0.12763354
Zelest 4 -0.09128758 0.1248771 0.0017022217 0.14300431 0.079363145 0.1591397 -0.051988527 0.059531793 0.0048808893 -0.1366857 -0.06645002 0.0687465 -0.26652738 0.059786074 -0.14433771 0.1759842 -0.07038518 -0.09157215 -0.16768974 -0.029058913 -0.03437091 -0.15019682 -0.16735817 -0.12646332 -0.244807 0.021939173 0.06745403 -0.017445669 0.12045596 -0.028431987 0.15440246 -0.14508507 0.050793353 -0.18409099 0.16624339 -0.1316073 -0.106606536 0.06385481 -0.20538366 -0.001356191 -0.16719215 -0.16758347 0.14698128 0.094142415 0.16358405 0.02031637 -0.25161693 0.20958665 0.07299083 0.20521283 -0.06372986 -0.044791 -0.084234774 0.14456518 -0.02176247 0.004376394 0.02557721 0.15616786 -0.042897128 0.07892431 0.019609002 0.19089775 0.00952054 -0.12638742
Veverka 1 -0.0922417 0.12458636 0.0027138556 0.14176813 0.079487346 0.16039796 -0.05137363 0.059184138 0.004475407 -0.13735561 -0.06412946 0.07036505 -0.26736608 0.06013523 -0.1442812 0.17766581 -0.0716584 -0.09160623 -0.16771187 -0.02982594 -0.03349694 -0.15036316 -0.16559298 -0.12653117 -0.24520619 0.0231817 0.06584917 -0.018084515 0.11977342 -0.027884405 0.1520948 -0.14617619 0.051729914 -0.18374756 0.16625418 -0.13058412 -0.105388716 0.061951414 -0.20564088 0.00020568285 -0.16837168 -0.16749889 0.14615309 0.092222124 0.16488911 0.022227893 -0.2532736 0.20890908 0.07507376 0.20521301 -0.06405396 -0.04618732 -0.08402912 0.1438377 -0.0232796 0.005612372 0.026861928 0.15428334 -0.043126713 0.078385994 0.019997498 0.19112985 0.009951469 -0.12494671
Braenn 7 -0.09318449 0.12335583 0.0019005345 0.14232783 0.08035261 0.1587496 -0.050931834 0.058832537 0.0067661307 -0.1380497 -0.06564387 0.07133637 -0.26905504 0.060982354 -0.14118487 0.17756832 -0.070889845 -0.091946706 -0.1658912 -0.028118651 -0.03517157 -0.15142572 -0.16573209 -0.12722704 -0.24728115 0.021639833 0.064349756 -0.016074806 0.12091904 -0.029817656 0.15399738 -0.14613347 0.052704215 -0.1853135 0.1632047 -0.13360184 -0.104457684 0.06079258 -0.20559242 -0.002167156 -0.16703077 -0.16585974 0.14586829 0.09313536 0.16140388 0.022428907 -0.25290665 0.20843084 0.07368019 0.20626529 -0.06513543 -0.043349694 -0.081200875 0.14494453 -0.019166427 0.0029828085 0.0266129 0.15661147 -0.044738926 0.074940465 0.02078976 0.19199525 0.008958069 -0.12545067
18 6 -0.05904501 -0.018146643 -0.15206145 0.25535405 -0.14671373 0.12349642 0.15879543 0.032832764 -0.16316421 0.050162412 -0.10870335 -0.035840683 -0.1491031 0.22613996 -0.10670557 0.032459535 0.16321257 -0.020910472 0.005972333 -0.092619665 -0.0674532 -0.12809889 0.028313253 -0.08358539 0.0981786 -0.0060179043 -0.19543676 -0.06083345 0.20127335 -0.28270912 -0.030370057 0.06463193 0.20205586 0.13123037 -0.073197834 0.023533937 -0.0016335768 0.008174566 -0.062349617 -0.06357191 0.08362305 0.05268721 0.08114261 0.13337952 0.15716955 0.1038529 0.078795426 0.05672382 -0.13050146 -0.15552643 -0.10846634 0.119309984 0.27176797 -0.13636824 0.06676117 -0.0032093304 0.027300335 -0.06465654 -0.2899728 0.06498227 -0.1303487 0.13602225 0.083742574 -0.1558771
Freixenet 6 -0.09144072 0.123971194 0.0012020814 0.14307164 0.079971865 0.1586985 -0.052327935 0.060510606 0.005117665 -0.13748117 -0.06762076 0.06844388 -0.2657475 0.059720244 -0.14269616 0.1759111 -0.06953278 -0.090163775 -0.16652781 -0.027913192 -0.035687406 -0.1497386 -0.16775307 -0.12718418 -0.2462967 0.019993493 0.06728106 -0.01644008 0.120409146 -0.029172631 0.15560128 -0.14489876 0.051103096 -0.18538348 0.1653443 -0.13367726 -0.107070334 0.06464929 -0.20579292 -0.0024498955 -0.16651247 -0.16716547 0.14654502 0.0950978 0.16152894 0.020597799 -0.25125545 0.21054202 0.07142614 0.20516263 -0.065017685 -0.043213017 -0.082543366 0.14476852 -0.020483801 0.0038933991 0.025941517 0.15804568 -0.043282084 0.07781677 0.019776693 0.19040734 0.0077611585 -0.12690672
Eithn 7 -0.09209018 0.123952724 0.0011881508 0.14337477 0.07979141 0.1577033 -0.051851254 0.059418306 0.006463693 -0.13660796 -0.06687437 0.06938523 -0.26781556 0.06027774 -0.14188507 0.17648582 -0.069889314 -0.091822125 -0.16607626 -0.027573515 -0.035383254 -0.1510237 -0.16727528 -0.12687506 -0.24638069 0.02095207 0.06598283 -0.015870368 0.12182215 -0.029896416 0.15561584 -0.14502272 0.051584266 -0.18538034 0.1639099 -0.13384123 -0.1057753 0.06301113 -0.20534264 -0.0029900996 -0.16595657 -0.16613051 0.14650385 0.094646305 0.16146028 0.020483905 -0.2519569 0.20916243 0.07216125 0.20630178 -0.06448474 -0.042482313 -0.08199715 0.14576279 -0.019014318 0.0026998208 0.02540496 0.1575666 -0.04419244 0.0764069 0.020529984 0.1914012 0.008985549 -0.12686671
13 6 -0.05945679 -0.01869626 -0.15074041 0.25588623 -0.1436453 0.1276575 0.15802869 0.034081887 -0.16067183 0.050200433 -0.10812356 -0.03683094 -0.14856476 0.2247133 -0.10943669 0.034600247 0.16337243 -0.02040543 0.00391014 -0.09332472 -0.067000054 -0.12834634 0.027255932 -0.08461901 0.09983074 -0.005276405 -0.19732647 -0.06148022 0.19893113 -0.28418493 -0.032566123 0.064318895 0.19993183 0.12809528 -0.072777584 0.02221599 -0.002530636 0.0087392265 -0.0625878 -0.06403384 0.084530905 0.054565348 0.078293085 0.13607487 0.15625697 0.10120578 0.0804522 0.058841042 -0.12860073 -0.15851147 -0.11073332 0.12101266 0.27062884 -0.1384107 0.069410115 -0.003433932 0.028725045 -0.06572552 -0.28896382 0.06298835 -0.13028109 0.13828716 0.085414596 -0.15280549
Ciri 173 -0.0911467 0.12446597 0.00091353606 0.14351282 0.07973492 0.15814577 -0.052047286 0.060146287 0.0054020807 -0.13638458 -0.067257084 0.068204105 -0.2663188 0.059694245 -0.14318104 0.17565377 -0.069401875 -0.091459006 -0.16672112 -0.028289031 -0.03515198 -0.1502455 -0.16815555 -0.12670735 -0.24566746 0.020975504 0.06742162 -0.01649076 0.12105335 -0.029431196 0.15583158 -0.14471616 0.05086953 -0.18495727 0.16528112 -0.13313581 -0.106874 0.064368784 -0.20532034 -0.0024078542 -0.16624957 -0.16705352 0.14707752 0.09505592 0.16199602 0.019939693 -0.25119928 0.21013904 0.071617626 0.20565346 -0.06435219 -0.04335834 -0.08319203 0.14515322 -0.020368423 0.0034842917 0.02527685 0.15776893 -0.043135114 0.07821949 0.019912547 0.190604 0.00886506 -0.12700489
35 1 -0.055817775 -0.016079819 -0.15415685 0.25312722 -0.14419253 0.12133439 0.158425 0.032706577 -0.16228013 0.052639343 -0.11241732 -0.035088584 -0.14920574 0.22856928 -0.10837948 0.033592105 0.16148494 -0.019113531 0.008322431 -0.091745645 -0.06638213 -0.12766276 0.029804762 -0.08440922 0.09491287 -0.0031497655 -0.19821541 -0.060597613 0.20139018 -0.28150013 -0.029331049 0.06514222 0.20422177 0.12868324 -0.07356815 0.020457061 -0.00080218946 0.009768181 -0.064086445 -0.059172247 0.080287725 0.052320775 0.081371546 0.13197605 0.16087982 0.10451889 0.07675926 0.057397418 -0.12907015 -0.15680608 -0.10506198 0.11575313 0.2739942 -0.14096253 0.065684974 -0.0038848547 0.02476897 -0.062117297 -0.29053423 0.06447449 -0.12859082 0.13601954 0.08086213 -0.1600992
Venzlav 5 -0.08979834 0.12512526 0.0011506107 0.14397407 0.07887084 0.15784185 -0.0537036 0.059423883 0.004723706 -0.13527772 -0.068120904 0.06667084 -0.2650643 0.0586444 -0.14429842 0.17417441 -0.0694639 -0.09236179 -0.16808234 -0.02785885 -0.034486063 -0.15001635 -0.16835669 -0.12613764 -0.24414018 0.021623565 0.06936269 -0.017255764 0.122173525 -0.029414589 0.15605147 -0.1439682 0.04872529 -0.18372405 0.16684468 -0.13269372 -0.10866473 0.06622227 -0.2048729 -0.0027572743 -0.16535433 -0.1676477 0.14776133 0.09677531 0.16389716 0.017151928 -0.25095665 0.20935804 0.071641214 0.20559646 -0.06322511 -0.04340873 -0.08522851 0.14590684 -0.021365266 0.0038711305 0.024249364 0.15814623 -0.043239497 0.07988674 0.01979535 0.189881 0.009584308 -0.12764937
21 4 -0.060048055 -0.010622201 -0.15260977 0.25398248 -0.14648367 0.12286252 0.1575439 0.032217823 -0.16007686 0.052560233 -0.111929536 -0.035866335 -0.14886913 0.22883563 -0.105357975 0.031442966 0.16144018 -0.017836696 0.0055020996 -0.08944533 -0.064884216 -0.1306129 0.029936587 -0.08382128 0.09769894 -0.006152594 -0.19879574 -0.061584543 0.20289299 -0.27904877 -0.032719634 0.06561799 0.20434658 0.13009326 -0.073899165 0.021563612 -0.0018498994 0.008847141 -0.06261328 -0.058746513 0.08384047 0.052492872 0.0793115 0.1310267 0.16011722 0.10406143 0.077991664 0.055741422 -0.12994994 -0.15564169 -0.103782035 0.119030654 0.2741894 -0.14064108 0.06529388 -0.0007812143 0.024866253 -0.06542385 -0.28928253 0.062610716 -0.12944761 0.13688096 0.080690935 -0.1600151
Guy 3 -0.08865255 0.12573339 0.00056991266 0.14512914 0.07845936 0.15644279 -0.05484715 0.059017688 0.004869564 -0.13364634 -0.069848016 0.064706855 -0.26429462 0.05780786 -0.1449284 0.1723412 -0.06843661 -0.093424186 -0.16838822 -0.027525261 -0.034287244 -0.15027903 -0.1696115 -0.12538208 -0.24290317 0.02192042 0.07142337 -0.017471256 0.12342452 -0.02974168 0.15753157 -0.14310253 0.0469128 -0.18308899 0.1671336 -0.13288392 -0.11003288 0.06793281 -0.20447448 -0.0038318594 -0.16421087 -0.16818522 0.14904244 0.09864235 0.16425148 0.014496363 -0.24996582 0.20918897 0.07077531 0.20579536 -0.062471624 -0.04247112 -0.086449504 0.14672616 -0.020753011 0.0031829732 0.022726182 0.15920123 -0.04317517 0.080644816 0.01984262 0.18959093 0.01036693 -0.12864964
Yurga 7 -0.09264253 0.12423978 0.0028688535 0.14140771 0.07989057 0.16079782 -0.05078406 0.05919449 0.004627852 -0.13792157 -0.06357313 0.07113841 -0.26769724 0.06046484 -0.14363903 0.17812093 -0.07171599 -0.091887526 -0.1673682 -0.030177934 -0.0335982 -0.15076561 -0.16506651 -0.12667446 -0.24560244 0.023852535 0.06496489 -0.018248012 0.1194521 -0.028473347 0.15174828 -0.14667167 0.052594077 -0.18406205 0.16547497 -0.13058868 -0.10500152 0.060824107 -0.20569517 0.00036560284 -0.16898032 -0.16731112 0.14629282 0.0913856 0.16443524 0.02292991 -0.25382408 0.20874168 0.07603544 0.20537537 -0.06473646 -0.04635206 -0.083561644 0.14330965 -0.023292856 0.0056171287 0.027270723 0.15379053 -0.04348649 0.07741902 0.020221274 0.19123536 0.010170962 -0.12397773
27 3 -0.058445167 -0.01891826 -0.1524391 0.25396526 -0.14231272 0.12206833 0.15761837 0.03489529 -0.1610413 0.050599724 -0.115612306 -0.03483219 -0.14865342 0.22881782 -0.10947697 0.033819348 0.15808776 -0.016782088 0.0060217124 -0.09070571 -0.066783376 -0.12736301 0.030312715 -0.0832091 0.09867992 -0.0018978728 -0.19536601 -0.061523907 0.19801037 -0.2858749 -0.033415917 0.06330265 0.20631671 0.12998432 -0.070614524 0.017139077 -0.0041789724 0.00920495 -0.06471305 -0.063822895 0.08161718 0.05297011 0.08389579 0.132262 0.16062254 0.096293956 0.07713315 0.056206033 -0.13020507 -0.15642303 -0.10960607 0.11806537 0.27519453 -0.13948064 0.064722195 -0.0030884554 0.026848126 -0.06312152 -0.28825745 0.063351944 -0.13215269 0.13176863 0.08220219 -0.15926039
Visenna 2 -0.093778394 0.123493284 0.00163797 0.14169066 0.079839386 0.1595983 -0.05002527 0.05991951 0.0049554864 -0.13699862 -0.064607844 0.0693931 -0.2688656 0.060379367 -0.14111856 0.17889816 -0.07026186 -0.08884463 -0.16547385 -0.028704884 -0.0349558 -0.14991032 -0.16572896 -0.12721945 -0.24833244 0.020598073 0.0637117 -0.0161867 0.11879518 -0.028636124 0.15362608 -0.14587031 0.05301059 -0.18522872 0.16350749 -0.13398309 -0.10413009 0.061395455 -0.20519178 -0.00025343234 -0.16789475 -0.16672465 0.14445674 0.09171279 0.16166568 0.024196904 -0.2535972 0.21142364 0.07113213 0.20660718 -0.06530115 -0.043586105 -0.08059954 0.1453981 -0.019454056 0.0038716225 0.027547052 0.15722023 -0.04229864 0.076256916 0.021068243 0.1918308 0.007042175 -0.12593463
58 1 -0.059690204 -0.019431693 -0.15106297 0.2559612 -0.14797503 0.1241912 0.15921436 0.032635882 -0.16425681 0.049623813 -0.10558401 -0.03749306 -0.14926532 0.22526065 -0.10628665 0.03191864 0.1650331 -0.023345808 0.0049358085 -0.09420004 -0.067594565 -0.12755595 0.027809002 -0.082519434 0.09944942 -0.007845892 -0.19442056 -0.059527103 0.20126712 -0.2833409 -0.028848127 0.064473785 0.20092317 0.13174747 -0.072097994 0.026178278 -0.0005625249 0.007098252 -0.06235587 -0.06556752 0.08459789 0.053161234 0.080415964 0.13397169 0.15482332 0.10528509 0.0799896 0.056529555 -0.13030665 -0.15483645 -0.1103515 0.121127754 0.27068073 -0.13378243 0.06743926 -0.0037944147 0.029018907 -0.0652497 -0.28991836 0.065354235 -0.13022968 0.13733837 0.08534731 -0.15336785
48 1 -0.055817775 -0.016079819 -0.15415685 0.25312722 -0.14419253 0.12133439 0.158425 0.032706577 -0.16228013 0.052639343 -0.11241732 -0.035088584 -0.14920574 0.22856928 -0.10837948 0.033592105 0.16148494 -0.019113531 0.008322431 -0.091745645 -0.06638213 -0.12766276 0.029804762 -0.08440922 0.09491287 -0.0031497655 -0.19821541 -0.060597613 0.20139018 -0.28150013 -0.029331049 0.06514222 0.20422177 0.12868324 -0.07356815 0.020457061 -0.00080218946 0.009768181 -0.064086445 -0.059172247 0.080287725 0.052320775 0.081371546 0.13197605 0.16087982 0.10451889 0.07675926 0.057397418 -0.12907015 -0.15680608 -0.10506198 0.11575313 0.2739942 -0.14096253 0.065684974 -0.0038848547 0.02476897 -0.062117297 -0.29053423 0.06447449 -0.12859082 0.13601954 0.08086213 -0.1600992
19 5 -0.059254963 -0.015900455 -0.15320727 0.25399032 -0.14622934 0.12251476 0.15685888 0.03195764 -0.16181079 0.051969737 -0.10997789 -0.03510939 -0.14935298 0.2278577 -0.10651621 0.03331246 0.16340333 -0.020479172 0.00621726 -0.091357306 -0.066965386 -0.12896484 0.02929665 -0.0846079 0.09655593 -0.00593297 -0.19728225 -0.061745696 0.20152877 -0.2799558 -0.030877529 0.06488731 0.20298582 0.12986033 -0.07410052 0.023339212 -0.0007428409 0.008860499 -0.06294121 -0.061338946 0.0823585 0.05292515 0.07967185 0.13179415 0.15939489 0.10517916 0.07739293 0.056086853 -0.13024625 -0.15569094 -0.1065402 0.119612016 0.27262267 -0.13965844 0.06575694 -0.0012073846 0.026653258 -0.06543833 -0.2904097 0.06317025 -0.12928945 0.13689914 0.08160559 -0.1587318
16 5 -0.056554787 -0.016355246 -0.1541372 0.25351647 -0.14462593 0.121211305 0.15826021 0.03258495 -0.16260514 0.051862024 -0.11238451 -0.03481423 -0.14911433 0.22856879 -0.1078084 0.033072494 0.16146645 -0.018887408 0.008124072 -0.09151859 -0.06653175 -0.12762152 0.029724926 -0.0845984 0.09543641 -0.0035921903 -0.19757257 -0.06121611 0.20148781 -0.2814166 -0.029916301 0.06483773 0.20409492 0.12974606 -0.0738267 0.020882878 -0.0013169688 0.009790061 -0.06363245 -0.059693757 0.080722176 0.052281823 0.08153355 0.13168016 0.16081253 0.10383184 0.076562576 0.056904357 -0.1296338 -0.1561697 -0.10538709 0.116518 0.27394393 -0.14011739 0.06540441 -0.0034374036 0.024653528 -0.062626585 -0.2905103 0.06467406 -0.12922157 0.13553013 0.08059061 -0.16007258
20 4 -0.05890755 -0.017352542 -0.15251842 0.25470543 -0.14694877 0.1228543 0.15854108 0.032437615 -0.16302492 0.05063743 -0.10871609 -0.03599269 -0.1490699 0.22701901 -0.106396325 0.032499284 0.16356681 -0.02104328 0.006040255 -0.09241437 -0.06706874 -0.12791732 0.028690761 -0.08360103 0.097625874 -0.006443823 -0.19601981 -0.060725193 0.20149001 -0.2818304 -0.029809637 0.06487809 0.20246503 0.13108099 -0.07331575 0.024057103 -0.001033194 0.008065146 -0.06258526 -0.06255246 0.08314614 0.052589346 0.080641456 0.1327886 0.15774189 0.104590476 0.078375764 0.056211416 -0.13005735 -0.15533532 -0.10768031 0.119389184 0.27207386 -0.1372575 0.066531494 -0.0029199752 0.026890216 -0.06444847 -0.29038486 0.06498659 -0.12974218 0.13658944 0.08279113 -0.15699884
Sheldon 4 -0.089555554 0.12545463 0.0011059688 0.14429809 0.078721374 0.15744162 -0.053982213 0.059063066 0.004771329 -0.13458224 -0.06842274 0.06612562 -0.26507938 0.058393426 -0.14477584 0.17368342 -0.06924647 -0.092975624 -0.16822985 -0.028102223 -0.03409184 -0.15030964 -0.16861762 -0.12567738 -0.24349445 0.022237157 0.07003428 -0.017625695 0.12251956 -0.029279228 0.15618233 -0.14388011 0.048120145 -0.1832653 0.16692439 -0.13231741 -0.10887878 0.06644169 -0.20477913 -0.0028226539 -0.16526161 -0.16802435 0.14832957 0.097043484 0.16442138 0.016430294 -0.25080878 0.20913233 0.0718545 0.20566288 -0.06287122 -0.043402936 -0.08584988 0.14601336 -0.021386022 0.0037905644 0.023761634 0.15798183 -0.043165807 0.08008522 0.019882606 0.18998776 0.010263719 -0.12773205
Donimir 2 -0.09045482 0.12517051 0.0016420238 0.14346083 0.07898007 0.15843385 -0.05311491 0.05910594 0.004672883 -0.1355125 -0.066994436 0.0675417 -0.26585296 0.058976557 -0.1446171 0.1750184 -0.07005346 -0.092523076 -0.16806434 -0.02867804 -0.03389497 -0.1503339 -0.1676165 -0.12596735 -0.24407545 0.02255298 0.06864211 -0.017779397 0.12160931 -0.028815495 0.15482634 -0.14465165 0.04932555 -0.18343389 0.16670807 -0.13174523 -0.107719965 0.064947635 -0.20507511 -0.0018132427 -0.16630542 -0.16785634 0.14761032 0.09544036 0.1645843 0.01836369 -0.25164112 0.20906681 0.07293073 0.20552167 -0.06326818 -0.044332992 -0.08524656 0.1452943 -0.02201818 0.004398047 0.024796164 0.15675561 -0.043154612 0.07952216 0.019921754 0.19037656 0.010160063 -0.12680896
Rience 32 -0.09055131 0.12472613 0.00072588626 0.1438495 0.07923654 0.15744537 -0.052804388 0.0599214 0.005142207 -0.13524969 -0.06792151 0.06683457 -0.26598403 0.05897243 -0.14323254 0.17491308 -0.069066145 -0.09169568 -0.16685145 -0.027849719 -0.03497025 -0.15026936 -0.16848563 -0.12624243 -0.24524607 0.02107842 0.068282016 -0.016536387 0.121932976 -0.029658718 0.15649708 -0.14407104 0.049764927 -0.1845757 0.16540943 -0.13357076 -0.10761802 0.06539449 -0.20499277 -0.0028807498 -0.16547604 -0.16723809 0.147427 0.09601736 0.16261083 0.018373098 -0.2511459 0.21008635 0.07092271 0.20608881 -0.063964754 -0.042600714 -0.083742715 0.14615493 -0.020026743 0.003149693 0.024492785 0.1584788 -0.042976268 0.07858027 0.020190934 0.19041692 0.008999433 -0.12774484
68 2 -0.06045488 -0.016054586 -0.15376365 0.25380728 -0.14663567 0.12176576 0.15620904 0.031537298 -0.16167907 0.051602136 -0.11080641 -0.034033123 -0.14911908 0.22825265 -0.1057826 0.033894718 0.16316745 -0.02026095 0.0061172866 -0.090436116 -0.06721174 -0.12899853 0.029404052 -0.085119076 0.09619656 -0.005971116 -0.19672039 -0.062793285 0.20130935 -0.2793183 -0.03158999 0.06494184 0.20372179 0.13031635 -0.0750516 0.023447407 -0.0012138586 0.009020007 -0.06273727 -0.061150618 0.08203218 0.052757442 0.079824895 0.13143755 0.16028343 0.10473348 0.076672345 0.05541108 -0.13075231 -0.15544042 -0.10618174 0.1197139 0.2727401 -0.14055188 0.065211155 -0.00016294161 0.026268287 -0.065695256 -0.29046327 0.06299731 -0.12960187 0.13595158 0.08069856 -0.1599683
Lambert 7 -0.09153159 0.12368008 0.0014829773 0.14317277 0.0801996 0.15841709 -0.052594744 0.059904434 0.005341468 -0.13714308 -0.06656853 0.06850586 -0.26594755 0.059652396 -0.14265996 0.17581218 -0.06982287 -0.09125141 -0.16667219 -0.028156418 -0.0353288 -0.14996342 -0.16773707 -0.12725526 -0.24631861 0.021123288 0.06685562 -0.016879538 0.12089937 -0.029316558 0.15506525 -0.14537667 0.050585393 -0.18474267 0.16544306 -0.13292673 -0.10735321 0.06400689 -0.2056454 -0.0016740329 -0.16652356 -0.16696127 0.14648291 0.0948633 0.16233698 0.020795457 -0.25180373 0.21019709 0.07217836 0.20524329 -0.06508753 -0.043968722 -0.08345916 0.14477271 -0.021189248 0.004565615 0.026190158 0.15745312 -0.043318637 0.0780743 0.020489248 0.19012253 0.008261505 -0.12648611
64 1 -0.055817775 -0.016079819 -0.15415685 0.25312722 -0.14419253 0.12133439 0.158425 0.032706577 -0.16228013 0.052639343 -0.11241732 -0.035088584 -0.14920574 0.22856928 -0.10837948 0.033592105 0.16148494 -0.019113531 0.008322431 -0.091745645 -0.06638213 -0.12766276 0.029804762 -0.08440922 0.09491287 -0.0031497655 -0.19821541 -0.060597613 0.20139018 -0.28150013 -0.029331049 0.06514222 0.20422177 0.12868324 -0.07356815 0.020457061 -0.00080218946 0.009768181 -0.064086445 -0.059172247 0.080287725 0.052320775 0.081371546 0.13197605 0.16087982 0.10451889 0.07675926 0.057397418 -0.12907015 -0.15680608 -0.10506198 0.11575313 0.2739942 -0.14096253 0.065684974 -0.0038848547 0.02476897 -0.062117297 -0.29053423 0.06447449 -0.12859082 0.13601954 0.08086213 -0.1600992
44 3 -0.05930159 -0.014818023 -0.15409625 0.2538905 -0.14652652 0.12145594 0.15750323 0.03158166 -0.16211715 0.05099241 -0.11238803 -0.03351649 -0.14872995 0.22790727 -0.10561885 0.0330177 0.16208427 -0.018733205 0.007670394 -0.090103164 -0.06680136 -0.12920003 0.02990204 -0.08513854 0.09553088 -0.0048454283 -0.19668923 -0.06287443 0.20270965 -0.27924237 -0.03177344 0.06486207 0.20411436 0.1308698 -0.07587612 0.022126177 -0.0020914536 0.010174147 -0.062397968 -0.05949402 0.0817631 0.052213512 0.0810095 0.13137643 0.16102831 0.10444259 0.07604154 0.0557848 -0.13106394 -0.15579899 -0.10418878 0.11744401 0.27375686 -0.13999878 0.06472163 -0.0011761232 0.024347398 -0.06481144 -0.2905545 0.06393583 -0.13008457 0.13509126 0.07996396 -0.16022232
34 3 -0.05858533 -0.016386911 -0.15315752 0.25464854 -0.14668432 0.1223954 0.15848579 0.03196376 -0.16317095 0.050582875 -0.1103315 -0.034774076 -0.14895035 0.2269522 -0.10619676 0.03237471 0.16283995 -0.019978637 0.0072502317 -0.09180514 -0.06706604 -0.12854081 0.029138131 -0.08433136 0.096551836 -0.0053691524 -0.19616815 -0.061501577 0.2024481 -0.28095594 -0.030443516 0.06470219 0.20284072 0.13102672 -0.07457609 0.022963487 -0.0015976466 0.009453338 -0.06242511 -0.06130771 0.0824801 0.05247618 0.081118256 0.13226429 0.1590623 0.10477487 0.07733484 0.056455266 -0.13083802 -0.15561838 -0.10603178 0.11799047 0.27286088 -0.13769539 0.065652564 -0.002644245 0.02555452 -0.06450916 -0.29039922 0.064703815 -0.1300271 0.13579652 0.081833355 -0.15783848
Vanielle 3 -0.08865255 0.12573339 0.00056991266 0.14512914 0.07845936 0.15644279 -0.05484715 0.059017688 0.004869564 -0.13364634 -0.069848016 0.064706855 -0.26429462 0.05780786 -0.1449284 0.1723412 -0.06843661 -0.093424186 -0.16838822 -0.027525261 -0.034287244 -0.15027903 -0.1696115 -0.12538208 -0.24290317 0.02192042 0.07142337 -0.017471256 0.12342452 -0.02974168 0.15753157 -0.14310253 0.0469128 -0.18308899 0.1671336 -0.13288392 -0.11003288 0.06793281 -0.20447448 -0.0038318594 -0.16421087 -0.16818522 0.14904244 0.09864235 0.16425148 0.014496363 -0.24996582 0.20918897 0.07077531 0.20579536 -0.062471624 -0.04247112 -0.086449504 0.14672616 -0.020753011 0.0031829732 0.022726182 0.15920123 -0.04317517 0.080644816 0.01984262 0.18959093 0.01036693 -0.12864964
56 1 -0.055817775 -0.016079819 -0.15415685 0.25312722 -0.14419253 0.12133439 0.158425 0.032706577 -0.16228013 0.052639343 -0.11241732 -0.035088584 -0.14920574 0.22856928 -0.10837948 0.033592105 0.16148494 -0.019113531 0.008322431 -0.091745645 -0.06638213 -0.12766276 0.029804762 -0.08440922 0.09491287 -0.0031497655 -0.19821541 -0.060597613 0.20139018 -0.28150013 -0.029331049 0.06514222 0.20422177 0.12868324 -0.07356815 0.020457061 -0.00080218946 0.009768181 -0.064086445 -0.059172247 0.080287725 0.052320775 0.081371546 0.13197605 0.16087982 0.10451889 0.07675926 0.057397418 -0.12907015 -0.15680608 -0.10506198 0.11575313 0.2739942 -0.14096253 0.065684974 -0.0038848547 0.02476897 -0.062117297 -0.29053423 0.06447449 -0.12859082 0.13601954 0.08086213 -0.1600992
Ori 10 -0.09060695 0.12504928 0.0014500835 0.1435305 0.07912095 0.15830334 -0.052841928 0.059270665 0.0049284436 -0.13566299 -0.06714073 0.067701004 -0.26603973 0.059160635 -0.14429145 0.1751205 -0.0698854 -0.092435315 -0.16777982 -0.028535742 -0.0341629 -0.1504078 -0.16773956 -0.12614061 -0.24436468 0.022255674 0.06839104 -0.017444476 0.1215846 -0.029066045 0.15513487 -0.14464088 0.04964979 -0.18379849 0.16631193 -0.13210806 -0.10747843 0.06478408 -0.20509012 -0.0020868653 -0.1662127 -0.16762617 0.14754052 0.09542241 0.16395983 0.018573198 -0.25149384 0.20920335 0.072646014 0.2056097 -0.06345334 -0.04403271 -0.08478291 0.14533149 -0.0215102 0.0040555964 0.024842039 0.1570088 -0.043212846 0.07917619 0.019919176 0.1904774 0.009965949 -0.12687925
