263 64
Source 2 -0.09547148 0.14592743 -0.15795298 -0.10733316 0.18524198 -0.17356959 -0.07997122 0.21427232 0.17009383 -0.043542646 -0.16146895 0.02502869 -0.11676049 0.116612256 0.055155225 0.0017071017 0.07989544 0.187885 0.10100386 0.09954328 -0.04512748 0.07216692 0.13946332 0.112816945 0.13697894 -0.0651801 0.19395854 -0.061213642 0.044105314 -0.18196262 0.20165835 -0.15660678 0.100131065 -0.11324689 0.20625587 -0.036824204 0.007338677 0.040755678 0.032181982 -0.10589451 -0.06792893 -0.0046066944 0.18266068 0.030957762 -0.19847077 -0.010665032 0.06274474 0.040458284 -0.20191671 -0.010267182 0.077259235 -0.02629053 0.20463504 0.17517693 0.18122143 0.11126865 0.11790283 0.0937428 -0.026656626 -0.16833486 0.0029301844 0.03955169 0.18929048 -0.20860471
Velerad 1 -0.08883623 0.12613094 0.0009949252 0.14521393 0.07834092 0.15754832 -0.05469917 0.0576751 0.0045523737 -0.13379864 -0.06867548 0.06488786 -0.26424518 0.05797495 -0.1460781 0.17277093 -0.069404386 -0.09416222 -0.16951154 -0.027590213 -0.033967946 -0.15006 -0.16858612 -0.124892436 -0.24212466 0.022473969 0.071085244 -0.017978946 0.1231128 -0.029244978 0.15645754 -0.14365779 0.04703086 -0.18170717 0.16820939 -0.13136251 -0.11013478 0.06703711 -0.20438546 -0.0031632318 -0.16488361 -0.16846946 0.14861657 0.09805407 0.16540365 0.014736429 -0.25096136 0.20878722 0.07150659 0.20557295 -0.061171263 -0.043930404 -0.087148316 0.14649393 -0.021974035 0.0038444386 0.022842484 0.15807354 -0.042895533 0.08169147 0.020028403 0.18958658 0.0109831765 -0.12811285
1 1365 0.03020874 -0.044787377 -0.024216985 -0.11795801 -0.02687652 -0.07529621 -0.05302667 0.2695204 -0.114554085 0.0862245 0.17192736 0.0094968965 -0.08560572 0.031643044 -0.05040475 -0.061743453 -0.0028860564 0.029801764 0.056056257 -0.15269278 0.082348704 0.06442639 0.07670492 -0.03338286 0.016745005 -0.20781295 -0.28193992 -0.0353414 0.0642053 0.0077165165 0.11467177 0.031979207 0.12137745 0.06783523 -0.13106827 0.048647664 -0.070272535 -0.32353997 -0.19015375 0.1898712 0.09669384 -0.024279518 0.082716554 0.30064678 0.13785887 -0.18946153 -0.020947168 0.016782 -0.05907925 -0.10851695 0.15727246 -0.059547357 0.12421849 -0.055157084 -0.22187427 -0.2427436 0.0728108 -0.03911941 -0.07377411 0.25574404 0.0005560024 -0.0046032676 0.12755762 -0.019054072
Geralt 202 -0.09091619 0.1250588 0.0010533853 0.1438986 0.07980336 0.15976377 -0.051170357 0.058399215 0.004829639 -0.13721874 -0.06560227 0.06865837 -0.26648384 0.06009594 -0.14430587 0.17596924 -0.07078119 -0.092448145 -0.16854471 -0.028101869 -0.035125837 -0.14984953 -0.1671309 -0.1257895 -0.24493289 0.020881167 0.06714626 -0.01669189 0.12035783 -0.029369669 0.15456071 -0.14519489 0.05138313 -0.183124 0.16669326 -0.1315727 -0.10690142 0.06320249 -0.2048865 -0.0015444193 -0.1671196 -0.16670622 0.14648364 0.09473788 0.16283913 0.02052211 -0.25230044 0.20941064 0.07172404 0.20554562 -0.06246892 -0.04548094 -0.08346404 0.14483398 -0.021833083 0.003811604 0.025231952 0.15709873 -0.042970598 0.07940327 0.01979848 0.19084574 0.009642126 -0.12648831
5 70 0.030255634 -0.04548455 -0.024504744 -0.1170284 -0.028025761 -0.076948784 -0.053168386 0.26797998 -0.11387992 0.087385796 0.1713213 0.011222497 -0.08583985 0.030743107 -0.050196625 -0.063764416 -0.004558739 0.030856552 0.054636408 -0.15404163 0.08174993 0.06197705 0.0795943 -0.03365065 0.02159765 -0.20721215 -0.28190497 -0.03712985 0.06553625 0.008877848 0.113729954 0.033553697 0.12076358 0.06813868 -0.12970494 0.04915816 -0.06622728 -0.32482713 -0.19097227 0.19250156 0.0929683 -0.02461458 0.082379535 0.30097815 0.13547558 -0.18755081 -0.01780046 0.01517949 -0.05976338 -0.10577704 0.15481466 -0.05991398 0.12516142 -0.05480249 -0.22394325 -0.24363522 0.07283353 -0.037417836 -0.073870994 0.2567844 -0.0023990388 -0.006395978 0.12871356 -0.015016659
Foltest 31 -0.08944324 0.12568475 0.0011475935 0.14469601 0.07874426 0.15805468 -0.053959724 0.05807531 0.004646868 -0.13452013 -0.067933224 0.06574064 -0.2646918 0.058345076 -0.14556693 0.1736568 -0.06969493 -0.09367893 -0.16900752 -0.027716774 -0.034267735 -0.1500632 -0.16817114 -0.12520131 -0.24297146 0.022246147 0.07001536 -0.01771149 0.122555114 -0.029225001 0.15594554 -0.14413886 0.04810057 -0.18227825 0.16767383 -0.13150874 -0.10934611 0.06612061 -0.20467824 -0.002798804 -0.16543682 -0.16816853 0.14809966 0.097082265 0.1648739 0.01616754 -0.2514392 0.20905145 0.07177334 0.20555638 -0.061774492 -0.044122014 -0.08620764 0.14608715 -0.021970682 0.003940482 0.023566995 0.15769838 -0.042792905 0.0809546 0.020141775 0.18973608 0.010480062 -0.12760894
4 131 0.030402504 -0.04433466 -0.023729073 -0.11729634 -0.026706891 -0.07545355 -0.052568924 0.26855025 -0.11486582 0.087765776 0.17201161 0.008932551 -0.08650405 0.031736232 -0.049355846 -0.06236649 -0.004005954 0.029779188 0.05437393 -0.15294242 0.082392074 0.06341874 0.078365065 -0.034716547 0.020484438 -0.20745198 -0.28140435 -0.03672762 0.06496431 0.008157658 0.11431136 0.03350037 0.1202737 0.0679679 -0.13060573 0.0486788 -0.067531854 -0.32438478 -0.19007123 0.19060253 0.09498345 -0.025438096 0.08154161 0.30099756 0.13635403 -0.18907234 -0.01870954 0.014689377 -0.05949161 -0.106496945 0.15591536 -0.06031775 0.12558666 -0.055253435 -0.22308782 -0.24329378 0.07437947 -0.0378592 -0.07405587 0.25641423 -0.0023458141 -0.005014237 0.1285963 -0.016825663
Adda 2 -0.08883623 0.12613094 0.0009949252 0.14521393 0.07834092 0.15754832 -0.05469917 0.0576751 0.0045523737 -0.13379864 -0.06867548 0.06488786 -0.26424518 0.05797495 -0.1460781 0.17277093 -0.069404386 -0.09416222 -0.16951154 -0.027590213 -0.033967946 -0.15006 -0.16858612 -0.124892436 -0.24212466 0.022473969 0.071085244 -0.017978946 0.1231128 -0.029244978 0.15645754 -0.14365779 0.04703086 -0.18170717 0.16820939 -0.13136251 -0.11013478 0.06703711 -0.20438546 -0.0031632318 -0.16488361 -0.16846946 0.14861657 0.09805407 0.16540365 0.014736429 -0.25096136 0.20878722 0.07150659 0.20557295 -0.061171263 -0.043930404 -0.087148316 0.14649393 -0.021974035 0.0038444386 0.022842484 0.15807354 -0.042895533 0.08169147 0.020028403 0.18958658 0.0109831765 -0.12811285
Ostrit 3 -0.089774236 0.12592527 0.000926244 0.14502561 0.078956656 0.1584558 -0.05301244 0.057950217 0.004899032 -0.13531901 -0.067820884 0.0662279 -0.26550224 0.05899693 -0.14577544 0.17375207 -0.06978459 -0.09311904 -0.16924039 -0.027974654 -0.03474795 -0.14989178 -0.16828984 -0.12526286 -0.24302332 0.021588378 0.06961077 -0.017390333 0.12166668 -0.028947443 0.15604047 -0.14418791 0.04893067 -0.18219334 0.1676534 -0.13107091 -0.10898723 0.06547204 -0.20447035 -0.0025331276 -0.16596174 -0.16794394 0.14770706 0.096545555 0.16404597 0.0171331 -0.2510778 0.20942877 0.07117264 0.20541883 -0.06132174 -0.044639528 -0.085796885 0.14562596 -0.021474369 0.003465881 0.023406457 0.15755771 -0.042476628 0.08110792 0.019702395 0.19036283 0.010438514 -0.12768899
2 462 0.030300744 -0.044391207 -0.02396541 -0.11769668 -0.027151791 -0.07620982 -0.053028684 0.26858616 -0.11437405 0.086865984 0.17161494 0.009761499 -0.08590392 0.031179385 -0.050068818 -0.06276026 -0.003570997 0.029735055 0.05510788 -0.1533407 0.08263725 0.0635003 0.078207135 -0.033278402 0.01892996 -0.20725976 -0.28225195 -0.035846528 0.064405724 0.007814037 0.11396284 0.03256225 0.12104699 0.06757078 -0.13104269 0.049046494 -0.068075426 -0.32427198 -0.19061744 0.19093148 0.095129654 -0.024357367 0.08296941 0.3014154 0.13675997 -0.1887787 -0.019092832 0.015979663 -0.059102695 -0.106943876 0.155735 -0.05988461 0.12484762 -0.05496941 -0.22293031 -0.24280487 0.073037066 -0.038064517 -0.07406804 0.2558403 -0.0014047939 -0.0055386717 0.12788256 -0.017617263
Yennefer 109 -0.090687774 0.12552164 0.0012119678 0.14410625 0.07936779 0.15933342 -0.052104324 0.05815138 0.004929008 -0.13620056 -0.066051714 0.068003766 -0.2662249 0.059613492 -0.14515835 0.17542541 -0.07049967 -0.09315354 -0.16879879 -0.02819895 -0.034402814 -0.1499907 -0.16711149 -0.12570456 -0.2439636 0.021831114 0.06788703 -0.017177828 0.12102251 -0.029151633 0.15476832 -0.14508055 0.05026573 -0.18272355 0.16718683 -0.13111015 -0.10757395 0.06376829 -0.20473869 -0.0018206951 -0.16649915 -0.16736725 0.1468581 0.095115684 0.16388822 0.018985141 -0.25220284 0.20909056 0.07214918 0.20555443 -0.06193586 -0.04531464 -0.08460109 0.14507622 -0.022073418 0.0039995704 0.024711382 0.156911 -0.042931788 0.08032724 0.01985964 0.19042586 0.010357654 -0.1266344
Nenneke 22 -0.09048079 0.12493951 0.0011376635 0.14394379 0.079584286 0.15885541 -0.052292675 0.059001323 0.0049332837 -0.13599704 -0.0666716 0.06746732 -0.26542294 0.059173025 -0.14437139 0.17522536 -0.0700167 -0.09290343 -0.16814509 -0.02787132 -0.03499554 -0.15002884 -0.16761903 -0.12582338 -0.24476536 0.021301746 0.06781582 -0.016764566 0.12158408 -0.029595917 0.15529783 -0.14489803 0.050383404 -0.18348797 0.1665989 -0.13196343 -0.10797281 0.0644076 -0.205009 -0.0023709259 -0.16631176 -0.16729034 0.14714718 0.09548305 0.16326416 0.018794952 -0.2522575 0.20954779 0.071679756 0.20560074 -0.06269303 -0.044391647 -0.08405408 0.14533913 -0.021788409 0.0037013206 0.024713146 0.15761617 -0.04265538 0.079684004 0.020204106 0.18991388 0.009524873 -0.12674277
12 22 0.031065663 -0.04564465 -0.024301598 -0.1163387 -0.02860003 -0.07806579 -0.052959796 0.26661977 -0.11422392 0.088799514 0.17074141 0.011583167 -0.08632956 0.030140892 -0.049836267 -0.06529586 -0.005372908 0.031399503 0.053281106 -0.1553226 0.08159365 0.059667416 0.08176844 -0.03358774 0.025344847 -0.20708147 -0.28201312 -0.03750343 0.06636779 0.0093791755 0.11257937 0.034634102 0.1202337 0.067835346 -0.1291203 0.049858727 -0.062227104 -0.3261516 -0.1918255 0.19430503 0.0903879 -0.024957685 0.08203942 0.30191958 0.13335195 -0.18599555 -0.014734738 0.013591414 -0.05969892 -0.10307747 0.15216146 -0.060569737 0.12659022 -0.054826815 -0.22554435 -0.2439776 0.073027425 -0.03559636 -0.07434954 0.256306 -0.004798257 -0.007738166 0.1300012 -0.011930448
8 35 0.030678803 -0.04459879 -0.02301968 -0.1169144 -0.028521841 -0.075989515 -0.053545337 0.26805523 -0.115295686 0.087278366 0.17250864 0.009386349 -0.08713125 0.03135764 -0.05025925 -0.06339502 -0.004553517 0.029731462 0.053679902 -0.15374604 0.0818588 0.062592335 0.07941355 -0.033472393 0.021020502 -0.20783484 -0.28237522 -0.03708614 0.06519961 0.007976127 0.11294156 0.033899255 0.12053144 0.06859104 -0.12994978 0.049151428 -0.06599549 -0.32514566 -0.18971439 0.19164138 0.094286285 -0.024523009 0.08150952 0.30130175 0.13561282 -0.18797384 -0.01710662 0.0143739935 -0.059307236 -0.10482377 0.15440243 -0.060164765 0.12587255 -0.054565165 -0.22425729 -0.24314989 0.07330662 -0.03679022 -0.07382293 0.2561141 -0.0034923796 -0.005804863 0.12851411 -0.01559578
Roach 12 -0.09014631 0.12553975 0.00096523046 0.1436208 0.07882991 0.15873061 -0.052451283 0.058614362 0.0044812714 -0.13505006 -0.06623401 0.06694104 -0.26566827 0.05884672 -0.14510238 0.17515224 -0.07067303 -0.09337322 -0.16838428 -0.028303657 -0.03425592 -0.15021698 -0.16744488 -0.12531139 -0.24395648 0.022218706 0.06796145 -0.017103363 0.12217477 -0.029385535 0.15538628 -0.1442834 0.049864896 -0.18286848 0.16701904 -0.13141297 -0.107659854 0.064374335 -0.20472585 -0.0021600937 -0.16611935 -0.16753939 0.14748591 0.09529636 0.16448034 0.017978689 -0.25229678 0.20916185 0.07216501 0.206037 -0.062340766 -0.044559468 -0.08499503 0.1462314 -0.021952895 0.0036695125 0.024152672 0.15695754 -0.042323526 0.08014962 0.020198356 0.19017014 0.010109118 -0.12728824
3 255 0.029767385 -0.04446431 -0.023755588 -0.117598586 -0.02687019 -0.075757906 -0.052861232 0.2687315 -0.11442444 0.08743152 0.17171456 0.008846807 -0.08639993 0.03167662 -0.04911925 -0.062722564 -0.0034788963 0.029400414 0.0546379 -0.1525819 0.082376644 0.06377971 0.07813778 -0.03403534 0.019902408 -0.20705877 -0.2817405 -0.036600847 0.06479631 0.0075807828 0.114255436 0.033197008 0.12063368 0.068037964 -0.13103679 0.049154814 -0.06830083 -0.32447022 -0.18960613 0.19008435 0.09555559 -0.025085907 0.08255444 0.3009502 0.13697214 -0.18953598 -0.018935371 0.014974074 -0.059687823 -0.106695324 0.15587363 -0.060297627 0.1251011 -0.055155355 -0.22303796 -0.24293475 0.07424777 -0.038565062 -0.07448546 0.25643465 -0.002225812 -0.0048949155 0.12767807 -0.017637044
Two 34 -0.08955463 0.1257527 0.0009402466 0.14429452 0.07864184 0.15819947 -0.05339752 0.058296986 0.0044932086 -0.13456261 -0.067314416 0.06606002 -0.26499784 0.058479782 -0.14541472 0.17412567 -0.070108324 -0.09366625 -0.16883849 -0.027926158 -0.034232736 -0.15012906 -0.16797858 -0.12517065 -0.24326628 0.022207739 0.06926671 -0.017375533 0.12258963 -0.029410202 0.15591656 -0.14397563 0.04870174 -0.182461 0.16749929 -0.13152948 -0.10873837 0.06557458 -0.20459375 -0.0026466309 -0.16555437 -0.1678645 0.14794745 0.09654252 0.16477278 0.016596543 -0.25170398 0.2090492 0.07175949 0.20585164 -0.061893534 -0.04421807 -0.08582626 0.14639197 -0.021919142 0.0037027497 0.023610381 0.15755396 -0.04257979 0.08076456 0.020115603 0.18988127 0.010376137 -0.1276939
14 12 0.031242697 -0.044498973 -0.024396624 -0.11660409 -0.027276987 -0.07727269 -0.05256326 0.26668888 -0.114383504 0.0896389 0.17105012 0.0108425 -0.086662084 0.030807002 -0.049617514 -0.06475982 -0.005253966 0.030732887 0.052918334 -0.15477315 0.0819869 0.0603818 0.08150857 -0.035013203 0.025426552 -0.20640059 -0.28131822 -0.037669234 0.066591404 0.009221581 0.11295612 0.03506624 0.11906184 0.068337016 -0.13041362 0.0497789 -0.06257014 -0.32610413 -0.19129227 0.19316655 0.090840794 -0.025618237 0.08138416 0.30177745 0.13318364 -0.18688126 -0.015713876 0.01215591 -0.059282795 -0.10294516 0.15291692 -0.060625196 0.1276346 -0.055765044 -0.22560842 -0.24384552 0.07348825 -0.035441324 -0.074985445 0.25634176 -0.0051121567 -0.006579904 0.13061294 -0.012506717
Nivellen 1 -0.08957095 0.12577213 -0.0020631992 0.14226994 0.08088814 0.159749 -0.047296014 0.058872215 0.001612423 -0.14232284 -0.061284274 0.074296996 -0.2665298 0.064941004 -0.13887702 0.17888634 -0.07291001 -0.09253066 -0.1692246 -0.028534224 -0.03651826 -0.15000072 -0.1678865 -0.12330376 -0.24733591 0.01568162 0.0651307 -0.013171586 0.116454 -0.031262398 0.15291075 -0.14467415 0.055989247 -0.18330227 0.16608335 -0.13611752 -0.101088114 0.06086862 -0.20620766 0.00046896073 -0.1689179 -0.16172509 0.14650624 0.09567284 0.16020815 0.027075464 -0.2512113 0.20811103 0.06746636 0.2051928 -0.063583404 -0.04783945 -0.077641405 0.1459556 -0.022603186 0.005146478 0.028649237 0.15995593 -0.04701161 0.07521575 0.017305965 0.19372767 0.009369355 -0.12794079
11 19 0.030437905 -0.046947125 -0.023835557 -0.11546654 -0.026660182 -0.07638617 -0.050978087 0.26742437 -0.11386979 0.08979557 0.17015477 0.011531811 -0.08604347 0.031454124 -0.046358466 -0.0648868 -0.0065239165 0.030386262 0.052138016 -0.15572554 0.081185296 0.05798858 0.08010189 -0.034340348 0.026786555 -0.20936416 -0.2790622 -0.037152566 0.06860363 0.011083149 0.115462765 0.03453391 0.12066214 0.068141915 -0.12724727 0.049152005 -0.062102243 -0.3261211 -0.19282325 0.19439566 0.089100555 -0.028423572 0.080698684 0.30088013 0.13409232 -0.184467 -0.012542554 0.0145410225 -0.06238515 -0.1015824 0.15459755 -0.062090438 0.12709364 -0.055699646 -0.22448269 -0.24522491 0.075748056 -0.037888095 -0.07295109 0.2568191 -0.0023986285 -0.009171564 0.13119227 -0.011697567
Fenne 1 -0.08883623 0.12613094 0.0009949252 0.14521393 0.07834092 0.15754832 -0.05469917 0.0576751 0.0045523737 -0.13379864 -0.06867548 0.06488786 -0.26424518 0.05797495 -0.1460781 0.17277093 -0.069404386 -0.09416222 -0.16951154 -0.027590213 -0.033967946 -0.15006 -0.16858612 -0.124892436 -0.24212466 0.022473969 0.071085244 -0.017978946 0.1231128 -0.029244978 0.15645754 -0.14365779 0.04703086 -0.18170717 0.16820939 -0.13136251 -0.11013478 0.06703711 -0.20438546 -0.0031632318 -0.16488361 -0.16846946 0.14861657 0.09805407 0.16540365 0.014736429 -0.25096136 0.20878722 0.07150659 0.20557295 -0.061171263 -0.043930404 -0.087148316 0.14649393 -0.021974035 0.0038444386 0.022842484 0.15807354 -0.042895533 0.08169147 0.020028403 0.18958658 0.0109831765 -0.12811285
Asse 7 -0.08989464 0.12587583 0.0013167503 0.14419328 0.07863856 0.15875658 -0.053349897 0.05777817 0.004485627 -0.13488665 -0.06669083 0.06670081 -0.26538602 0.058728103 -0.1458396 0.17451675 -0.070547655 -0.093761064 -0.16924007 -0.028222308 -0.033768445 -0.1500797 -0.16739956 -0.12521335 -0.242984 0.022644542 0.069064215 -0.017835645 0.12215119 -0.028974975 0.15507363 -0.14443626 0.04876642 -0.18200184 0.16788007 -0.13076292 -0.10849668 0.0649763 -0.20457259 -0.002060988 -0.16596907 -0.16798915 0.14766572 0.096024826 0.16530997 0.017128486 -0.25204697 0.20867826 0.07252743 0.2056595 -0.061584417 -0.04502201 -0.08609653 0.14587106 -0.0225524 0.0042236047 0.023946447 0.15684669 -0.042807635 0.08104552 0.020030675 0.19008651 0.010804156 -0.12716152
Vereena 2 -0.091224834 0.12417054 0.0018450969 0.14344913 0.080127425 0.15951274 -0.052195325 0.05912265 0.0050787614 -0.13681589 -0.06620202 0.06815182 -0.26571777 0.05939628 -0.14403786 0.17596455 -0.07019904 -0.09212714 -0.16760197 -0.027846899 -0.035294656 -0.14995515 -0.16702741 -0.12623458 -0.24535891 0.021486275 0.06736886 -0.01715992 0.120716296 -0.029009309 0.15432686 -0.1458088 0.050887298 -0.18389839 0.16617158 -0.1319897 -0.1074834 0.06380127 -0.20566918 -0.0018058111 -0.16703755 -0.16745077 0.14655727 0.0945959 0.16324867 0.020277226 -0.2526485 0.2098617 0.07256901 0.20516285 -0.06355401 -0.044636898 -0.083576165 0.14446765 -0.022042952 0.004505938 0.025852526 0.15669988 -0.042729713 0.07881792 0.020498578 0.19001044 0.00894183 -0.12591927
Hereward 4 -0.090603545 0.12475257 0.0009007676 0.14398645 0.079779886 0.1587489 -0.051770855 0.05940422 0.00509532 -0.13621813 -0.0670577 0.06711045 -0.26579466 0.059298772 -0.14417996 0.1751087 -0.069799416 -0.09211934 -0.16759568 -0.027859984 -0.035775855 -0.15001166 -0.16805845 -0.12582353 -0.24507809 0.02082849 0.06774826 -0.01644744 0.121200815 -0.029412068 0.15589187 -0.14469695 0.050855715 -0.18392776 0.16603142 -0.13232404 -0.10770317 0.06438763 -0.20517676 -0.0025090897 -0.16652758 -0.16728972 0.14706838 0.09519796 0.16251218 0.019290755 -0.25175014 0.21032867 0.07105631 0.20559864 -0.06308269 -0.04395877 -0.083627 0.14541513 -0.02082538 0.0032002553 0.024578074 0.15755378 -0.04204609 0.07915442 0.020185856 0.19028388 0.008923603 -0.12716848
Falwick 5 -0.09066826 0.12515382 0.001068419 0.14292662 0.079134755 0.1594849 -0.05156364 0.0590019 0.0043042093 -0.13615374 -0.06506143 0.06825285 -0.26601195 0.05942956 -0.14440773 0.17623809 -0.07136599 -0.09286344 -0.16822086 -0.028275788 -0.034624647 -0.15002619 -0.16678932 -0.12577422 -0.24492519 0.021662788 0.06650389 -0.01651883 0.12149135 -0.029620312 0.15467636 -0.14464325 0.051206823 -0.18341039 0.16680591 -0.13166375 -0.10675848 0.06335861 -0.2048856 -0.0016596444 -0.1666476 -0.16678359 0.14662685 0.09437577 0.16394141 0.019612577 -0.25288218 0.20921974 0.0722202 0.20604646 -0.06278102 -0.045055594 -0.0838904 0.14594047 -0.022294892 0.0038530082 0.025070293 0.15675184 -0.042476755 0.07960667 0.02007697 0.19023895 0.009455667 -0.1268477
6 48 0.03086195 -0.04487957 -0.024046874 -0.11704247 -0.027021134 -0.07612802 -0.05272461 0.26795918 -0.11483991 0.08825 0.17112382 0.009746519 -0.0864141 0.031563576 -0.049197447 -0.06360311 -0.0041693617 0.03001927 0.054163527 -0.15405792 0.08231656 0.061784998 0.079316325 -0.034269646 0.021945711 -0.20749544 -0.28141975 -0.036451448 0.06558421 0.008424281 0.11382978 0.03396687 0.11987446 0.067819245 -0.13028899 0.04955075 -0.06565317 -0.3250398 -0.19086687 0.19177262 0.092895485 -0.025508802 0.081967436 0.3012968 0.13542338 -0.18780363 -0.016669853 0.01397415 -0.05960127 -0.104721576 0.15461019 -0.060536694 0.12630817 -0.05544431 -0.22391994 -0.24353945 0.074208945 -0.03758281 -0.07423775 0.25642905 -0.0028274897 -0.006020357 0.12927173 -0.015354895
Caldemeyn 4 -0.09056579 0.12565288 0.0012865245 0.14434852 0.0789424 0.15878806 -0.05287038 0.057833597 0.004775289 -0.13558377 -0.06634288 0.0674252 -0.2657907 0.059369046 -0.14532153 0.17518945 -0.0706176 -0.09310763 -0.16896921 -0.027786514 -0.034380674 -0.15014488 -0.16733022 -0.12566444 -0.24343261 0.021910274 0.06821977 -0.017306812 0.12171782 -0.029212035 0.15505862 -0.14471084 0.04974286 -0.1826469 0.16738422 -0.13097905 -0.10785292 0.06454682 -0.2047823 -0.0021002137 -0.1661552 -0.16743763 0.14693385 0.09558303 0.16436093 0.01833752 -0.25218034 0.20898043 0.07222023 0.20558445 -0.061739676 -0.045104906 -0.085191734 0.1456646 -0.022276357 0.004158749 0.024494385 0.15652938 -0.04319721 0.0804406 0.019893765 0.19038868 0.010366849 -0.12717578
9 21 0.030130504 -0.045334186 -0.024862396 -0.11720663 -0.027156642 -0.07684496 -0.052373998 0.2677658 -0.11430346 0.0887867 0.17060421 0.010386956 -0.08585537 0.031014916 -0.04924654 -0.06380297 -0.004996861 0.030611506 0.053856526 -0.1538751 0.08234775 0.061864074 0.079571135 -0.03459501 0.02293278 -0.20737955 -0.28118068 -0.036816 0.06549666 0.008640687 0.11409125 0.03372044 0.12011673 0.06832355 -0.13046862 0.04997876 -0.06517725 -0.32476667 -0.19114244 0.19234285 0.09209347 -0.025152298 0.08289062 0.30107236 0.13462734 -0.18794435 -0.017271763 0.014283301 -0.059312716 -0.10455053 0.15467569 -0.059766278 0.12618852 -0.055829912 -0.22424707 -0.24406448 0.073319696 -0.037664603 -0.074894965 0.25655988 -0.002968139 -0.0066682003 0.12913026 -0.014768978
Stregobor 6 -0.090277284 0.12509891 0.0013213851 0.14431019 0.079497576 0.1584024 -0.05309054 0.058777113 0.0047807107 -0.13548844 -0.06736503 0.066795014 -0.26512706 0.058636237 -0.1447315 0.17438745 -0.0696606 -0.09315273 -0.16840163 -0.027978057 -0.03464723 -0.15014556 -0.16790012 -0.12580514 -0.24410468 0.02193254 0.06860105 -0.01718646 0.121875346 -0.029457953 0.1554204 -0.14492837 0.04945876 -0.18311903 0.16692355 -0.13161924 -0.10883454 0.06504599 -0.20496128 -0.002433656 -0.16618437 -0.16776204 0.1474935 0.09598772 0.16379763 0.017911173 -0.2520854 0.20944946 0.07184057 0.20543335 -0.06256943 -0.044434816 -0.084949695 0.14516684 -0.022110716 0.0039019913 0.024411159 0.15762283 -0.042794283 0.08008661 0.02025543 0.18967523 0.0099456245 -0.12674496
Fredefalk 2 -0.09007049 0.12583251 0.0013703821 0.14402226 0.07868768 0.15895697 -0.053124674 0.05779499 0.004474474 -0.13506715 -0.066359624 0.067002565 -0.26557454 0.05885327 -0.14579892 0.17480665 -0.070737764 -0.093693614 -0.16919377 -0.028327487 -0.03373498 -0.15008204 -0.16720076 -0.12526606 -0.2431257 0.02267283 0.068726934 -0.017811649 0.12199016 -0.028929789 0.154842 -0.14456514 0.049055386 -0.1820498 0.16782413 -0.13066216 -0.108222984 0.064632416 -0.20460251 -0.0018772597 -0.16614896 -0.16790804 0.14750633 0.09568601 0.1652933 0.017527075 -0.25222635 0.20865878 0.072697125 0.20567262 -0.0616529 -0.045203675 -0.08592069 0.14576632 -0.022648659 0.004286776 0.024130302 0.15664124 -0.042792723 0.08093735 0.02003093 0.19016865 0.010774249 -0.12700216
Renfri 7 -0.09062589 0.12479472 0.0009547149 0.14352266 0.079624906 0.15855409 -0.051949512 0.05960025 0.0047260635 -0.13570717 -0.06652464 0.06725611 -0.2656076 0.058867335 -0.14401756 0.17532237 -0.07005612 -0.092749745 -0.16750951 -0.02817554 -0.035055906 -0.15029196 -0.16774492 -0.12586556 -0.24514621 0.021566043 0.06718081 -0.016425986 0.12183217 -0.029827539 0.15557101 -0.14476669 0.05080706 -0.18397868 0.16603588 -0.13217036 -0.1076455 0.064117655 -0.20509721 -0.002371157 -0.16644236 -0.16722344 0.14720373 0.09493291 0.16305152 0.019036457 -0.25248054 0.2098753 0.07163636 0.20590223 -0.06333768 -0.044110384 -0.08373591 0.14560688 -0.021552436 0.0033567233 0.024702605 0.15749885 -0.042232215 0.079126164 0.020414775 0.18988095 0.009253811 -0.12684076
Nohorn 4 -0.08883623 0.12613094 0.0009949252 0.14521393 0.07834092 0.15754832 -0.05469917 0.0576751 0.0045523737 -0.13379864 -0.06867548 0.06488786 -0.26424518 0.05797495 -0.1460781 0.17277093 -0.069404386 -0.09416222 -0.16951154 -0.027590213 -0.033967946 -0.15006 -0.16858612 -0.124892436 -0.24212466 0.022473969 0.071085244 -0.017978946 0.1231128 -0.029244978 0.15645754 -0.14365779 0.04703086 -0.18170717 0.16820939 -0.13136251 -0.11013478 0.06703711 -0.20438546 -0.0031632318 -0.16488361 -0.16846946 0.14861657 0.09805407 0.16540365 0.014736429 -0.25096136 0.20878722 0.07150659 0.20557295 -0.061171263 -0.043930404 -0.087148316 0.14649393 -0.021974035 0.0038444386 0.022842484 0.15807354 -0.042895533 0.08169147 0.020028403 0.18958658 0.0109831765 -0.12811285
Civril 4 -0.08990346 0.124911696 0.0009523172 0.14413328 0.0793211 0.15807436 -0.053038016 0.059200108 0.0048354995 -0.135083 -0.067701295 0.066107914 -0.26486206 0.058534518 -0.14441258 0.17437954 -0.06951694 -0.09290536 -0.1678056 -0.027572714 -0.035192158 -0.15014361 -0.16828714 -0.12555052 -0.24441342 0.021493552 0.068856865 -0.016889593 0.122290164 -0.029636351 0.1562107 -0.14430489 0.04943266 -0.18357013 0.1664549 -0.13254781 -0.108568095 0.06556403 -0.20512097 -0.0029817936 -0.16572532 -0.16769037 0.14775625 0.09633314 0.16353682 0.017493809 -0.2516725 0.20985554 0.07130953 0.20572217 -0.06297219 -0.04342861 -0.08464393 0.14607176 -0.02120098 0.0034843236 0.024155973 0.15794674 -0.042361923 0.07959523 0.020431137 0.189709 0.009332524 -0.1274913
Tavik 3 -0.08883623 0.12613094 0.0009949252 0.14521393 0.07834092 0.15754832 -0.05469917 0.0576751 0.0045523737 -0.13379864 -0.06867548 0.06488786 -0.26424518 0.05797495 -0.1460781 0.17277093 -0.069404386 -0.09416222 -0.16951154 -0.027590213 -0.033967946 -0.15006 -0.16858612 -0.124892436 -0.24212466 0.022473969 0.071085244 -0.017978946 0.1231128 -0.029244978 0.15645754 -0.14365779 0.04703086 -0.18170717 0.16820939 -0.13136251 -0.11013478 0.06703711 -0.20438546 -0.0031632318 -0.16488361 -0.16846946 0.14861657 0.09805407 0.16540365 0.014736429 -0.25096136 0.20878722 0.07150659 0.20557295 -0.061171263 -0.043930404 -0.087148316 0.14649393 -0.021974035 0.0038444386 0.022842484 0.15807354 -0.042895533 0.08169147 0.020028403 0.18958658 0.0109831765 -0.12811285
Fifteen 3 -0.089487076 0.12560968 0.00062160334 0.14415103 0.07868574 0.15787467 -0.053102322 0.058821656 0.004526878 -0.13434142 -0.06747969 0.065746546 -0.2649646 0.05835736 -0.1450273 0.1741388 -0.069911614 -0.09352805 -0.16829331 -0.027886484 -0.03455945 -0.15025178 -0.16829823 -0.12512061 -0.24368054 0.021957159 0.06901747 -0.016960463 0.12286169 -0.029712958 0.15646738 -0.14368735 0.049010597 -0.18295349 0.16696699 -0.13205412 -0.1085358 0.0656252 -0.20464917 -0.0029688627 -0.16540876 -0.16773069 0.14809795 0.09648346 0.16427292 0.01657902 -0.2516209 0.20940372 0.071327195 0.20610586 -0.062303297 -0.043637946 -0.085369706 0.14679264 -0.021346476 0.0032180655 0.023444967 0.15786086 -0.042224832 0.08030713 0.020253034 0.18984981 0.010003637 -0.12800239
Audoen 3 -0.09048014 0.12573054 0.0014955123 0.14362216 0.078801714 0.15942341 -0.052598763 0.05783381 0.004448418 -0.13548733 -0.065586336 0.06770616 -0.26601237 0.059144888 -0.14570297 0.17548177 -0.07118084 -0.09353554 -0.16908449 -0.028572692 -0.033656657 -0.15008642 -0.16673565 -0.12538812 -0.24345458 0.02273867 0.067939445 -0.017755529 0.12161352 -0.02882415 0.1543004 -0.14486472 0.049729288 -0.1821604 0.16769238 -0.13042611 -0.107583545 0.063829534 -0.2046708 -0.0014485483 -0.16656744 -0.16771756 0.1471333 0.09489473 0.16525325 0.018456979 -0.25264302 0.20861185 0.07309255 0.20570177 -0.06181223 -0.045627218 -0.08550976 0.1455209 -0.022873094 0.004434142 0.024559112 0.15616067 -0.0427576 0.080684364 0.020031378 0.19035892 0.010704392 -0.12662941
Libushe 1 -0.09129679 0.12552297 0.0017457181 0.14281785 0.07902748 0.16035159 -0.05154547 0.057909768 0.0043961788 -0.13632374 -0.06403792 0.06911135 -0.2668804 0.059726384 -0.14550687 0.1768269 -0.07206489 -0.093216725 -0.16886105 -0.029062254 -0.03349904 -0.15009081 -0.16580062 -0.12562862 -0.24410525 0.022869688 0.06636255 -0.01764278 0.12085674 -0.028612044 0.15321279 -0.14545968 0.05107558 -0.18237634 0.16742404 -0.12995027 -0.10630162 0.062222 -0.20480146 -0.0005911214 -0.1673996 -0.16733178 0.14638305 0.093309484 0.16516836 0.02031617 -0.25346905 0.20851193 0.07388124 0.20575412 -0.062129084 -0.046472948 -0.08468547 0.14502583 -0.02332128 0.004728734 0.025415985 0.15519507 -0.042686127 0.08017607 0.020031687 0.19073391 0.01056437 -0.12588027
Baron 27 -0.089635774 0.12577584 0.0011490658 0.14456241 0.07873988 0.1583168 -0.05365945 0.05793684 0.004662186 -0.1347069 -0.067471005 0.066147305 -0.2650322 0.058565855 -0.14565669 0.17400211 -0.06998249 -0.09372675 -0.16908886 -0.027849464 -0.03411232 -0.1500755 -0.16788322 -0.12522982 -0.24297298 0.022347165 0.06964306 -0.017706525 0.122353375 -0.029191267 0.15568624 -0.14425263 0.04839678 -0.1822141 0.16770965 -0.13128269 -0.10897633 0.06563503 -0.20460638 -0.0025668931 -0.16559172 -0.16806303 0.14788629 0.09669589 0.16492239 0.016544957 -0.2516175 0.20892683 0.07197915 0.20561856 -0.06165823 -0.044449158 -0.08608424 0.1459991 -0.022069585 0.00398977 0.023707833 0.15743561 -0.042833507 0.08098529 0.020060638 0.18990314 0.010622628 -0.12746447
Iola 16 -0.08971999 0.12556005 0.0007780067 0.1441487 0.07885288 0.15804304 -0.053014167 0.058782 0.0045433156 -0.13462009 -0.06730655 0.06610304 -0.26509613 0.058441546 -0.14500438 0.17425737 -0.06994786 -0.09350333 -0.16837972 -0.028017784 -0.034471165 -0.15025094 -0.16813372 -0.12528409 -0.24375361 0.022031525 0.06877222 -0.016999267 0.122618996 -0.029665733 0.15613955 -0.14400017 0.049196884 -0.1829393 0.16700107 -0.13181084 -0.1085398 0.06533504 -0.20466474 -0.0027527804 -0.16565327 -0.16770636 0.14792429 0.09623697 0.16420802 0.016965045 -0.25182337 0.20934644 0.071512915 0.20598291 -0.06230663 -0.043970823 -0.08528248 0.14638186 -0.021630213 0.0033688198 0.02366719 0.15773684 -0.042362176 0.08031589 0.020223446 0.18983603 0.010088436 -0.12765174
Haxo 4 -0.09051876 0.12475984 0.0011400278 0.14353439 0.07949285 0.15877542 -0.052249607 0.05925885 0.004796454 -0.13571447 -0.06654191 0.06716392 -0.2655212 0.058972474 -0.14426993 0.17539378 -0.07018219 -0.092669085 -0.16764316 -0.027940778 -0.035074968 -0.15015149 -0.16759095 -0.12573472 -0.24490888 0.021592515 0.0676762 -0.016805569 0.12172627 -0.029478146 0.15539964 -0.14475556 0.050443962 -0.18373767 0.16625875 -0.1321949 -0.107609876 0.06436025 -0.20522523 -0.0023387307 -0.16635457 -0.16740613 0.147198 0.095147036 0.16347818 0.01888885 -0.25229976 0.20978697 0.0719033 0.2057677 -0.06321173 -0.04406434 -0.08402829 0.14570488 -0.021537837 0.0037054147 0.024799416 0.15722728 -0.04230962 0.07921646 0.020431982 0.18999606 0.009227828 -0.12693326
Pavetta 31 -0.09023588 0.12557901 0.0011636375 0.14402857 0.07899083 0.15876219 -0.052730486 0.058333237 0.004562492 -0.13536406 -0.06650846 0.06710636 -0.26558632 0.058937836 -0.14521375 0.17487091 -0.07047587 -0.0933446 -0.1687827 -0.028194359 -0.03426136 -0.15012269 -0.16747671 -0.12551673 -0.24371886 0.022129482 0.06823865 -0.017235307 0.12190245 -0.029308546 0.15519813 -0.144572 0.04965562 -0.18266688 0.16731828 -0.13114744 -0.108128525 0.06455017 -0.20469198 -0.002098692 -0.16620246 -0.16758204 0.14734124 0.09557345 0.16440582 0.017992035 -0.25221017 0.20907126 0.07211702 0.20572455 -0.062048458 -0.04490066 -0.08520195 0.1457084 -0.022260832 0.003897269 0.024245145 0.15703863 -0.042703792 0.08046084 0.020037206 0.19010048 0.010290651 -0.12705953
Calanthe 47 -0.08991525 0.1255097 0.0010913403 0.14427888 0.07902604 0.15891275 -0.05263616 0.05814071 0.0045654248 -0.13554427 -0.06681332 0.06698384 -0.2655884 0.058821913 -0.1452078 0.17455529 -0.07040357 -0.09324178 -0.1689899 -0.028135527 -0.03437386 -0.14992796 -0.16779874 -0.12536977 -0.24375498 0.021845857 0.0687509 -0.017407058 0.12182773 -0.029249595 0.1552276 -0.14443277 0.04943314 -0.18242285 0.16743715 -0.13116221 -0.108289465 0.06486575 -0.2045728 -0.0020859393 -0.16626142 -0.16749758 0.14762117 0.09600535 0.16413398 0.017950565 -0.25186977 0.20901158 0.07198673 0.2056986 -0.062012047 -0.04489556 -0.085363634 0.14562866 -0.022106964 0.0036751048 0.024070408 0.15737247 -0.042773955 0.080479935 0.019952556 0.19022958 0.010243718 -0.12708756
17 4 0.027746253 -0.045351412 -0.021992205 -0.111732684 -0.031091046 -0.07821267 -0.051829714 0.26824865 -0.114647545 0.08830945 0.17194192 0.015234968 -0.08553802 0.029451601 -0.04683838 -0.06514419 -0.008087323 0.028554067 0.04892976 -0.15854396 0.08280683 0.05517519 0.08191993 -0.031368867 0.025592053 -0.20543185 -0.28411674 -0.039309602 0.066876136 0.015979076 0.11237917 0.038527664 0.120957635 0.06639205 -0.122661285 0.04771791 -0.060109515 -0.32657373 -0.19086304 0.19920981 0.09091982 -0.027084209 0.07535047 0.30335912 0.1319624 -0.17862031 -0.009547826 0.017045526 -0.06382107 -0.10197349 0.15225443 -0.06478172 0.12608564 -0.051603377 -0.22946243 -0.24333131 0.074471354 -0.03549087 -0.068500094 0.25703144 -0.002399794 -0.012185162 0.13400269 -0.007302335
Rainfarn 7 -0.08985227 0.12510128 0.001373512 0.14455208 0.07926603 0.15827504 -0.05372056 0.05847047 0.00487562 -0.13516603 -0.06792664 0.06615154 -0.26471803 0.05853865 -0.14499816 0.17402154 -0.06948044 -0.093137175 -0.16851828 -0.027527407 -0.034794074 -0.15000013 -0.16809836 -0.12555791 -0.24369705 0.021853697 0.06963837 -0.017559484 0.12206931 -0.029201599 0.1557082 -0.14463378 0.048658114 -0.1828691 0.1671621 -0.13192657 -0.10917057 0.06587793 -0.20506564 -0.0027551095 -0.1657599 -0.16805486 0.14776331 0.096758686 0.16421074 0.017105931 -0.25157467 0.20944673 0.07177656 0.20531881 -0.06239783 -0.043972183 -0.085461505 0.14555013 -0.021821594 0.0040962226 0.024195544 0.1577045 -0.042831965 0.080268346 0.020297201 0.18967052 0.009876835 -0.12718213
Eist 9 -0.090854734 0.12520735 0.00093600055 0.14319314 0.07928572 0.1593059 -0.05141617 0.05887055 0.0047646933 -0.13591939 -0.065322146 0.0680369 -0.2664366 0.059485745 -0.14461403 0.17619692 -0.07099698 -0.09297989 -0.1679092 -0.028341828 -0.03454892 -0.1502376 -0.16692267 -0.12566283 -0.2447413 0.021922044 0.06672288 -0.016700048 0.12143669 -0.029515298 0.15496694 -0.14476788 0.05113688 -0.18347742 0.16640337 -0.13158713 -0.10659631 0.06313624 -0.20486988 -0.0018317187 -0.16658162 -0.16709174 0.14676929 0.09421724 0.16369274 0.019537557 -0.25268814 0.20938578 0.07229681 0.20611334 -0.06274417 -0.044847324 -0.083828144 0.14580582 -0.021674855 0.0036171605 0.024882833 0.15662555 -0.042317685 0.0794479 0.020167796 0.19046916 0.009747442 -0.12681542
7 45 0.030953553 -0.04534132 -0.02470982 -0.11700234 -0.027818397 -0.07781569 -0.053044263 0.26682302 -0.11386992 0.088681504 0.17053035 0.011213544 -0.0857913 0.030123405 -0.05017024 -0.06433997 -0.0050252085 0.031701803 0.05413453 -0.15455073 0.08228461 0.06076203 0.080698274 -0.034011364 0.024520004 -0.2070289 -0.28162304 -0.036911543 0.06555393 0.009144718 0.113183685 0.033873644 0.12076737 0.06780543 -0.13014305 0.04957612 -0.063753925 -0.32537425 -0.19189996 0.19330606 0.090900734 -0.024656082 0.08284934 0.3018197 0.13407505 -0.18684894 -0.016728556 0.01394247 -0.059269723 -0.10452495 0.15330924 -0.059757598 0.12606226 -0.055319007 -0.22463998 -0.24421258 0.072827764 -0.03642367 -0.074625805 0.25636205 -0.0040089735 -0.0072000637 0.12960678 -0.013521547
Crach 22 -0.09007631 0.12560141 0.0011122427 0.14440164 0.079035275 0.15875126 -0.052845344 0.058096025 0.004824681 -0.13537644 -0.06699192 0.06672766 -0.2656442 0.05905355 -0.1453811 0.17452018 -0.07018961 -0.09321985 -0.16890158 -0.027970226 -0.034504086 -0.15000872 -0.16767582 -0.12538028 -0.24351612 0.021920133 0.06888456 -0.017405 0.12167761 -0.02912971 0.15550089 -0.14446147 0.049307797 -0.18247724 0.16736326 -0.13129304 -0.10840617 0.064845756 -0.20459592 -0.0022440613 -0.1660789 -0.1677898 0.14738505 0.095963396 0.16430464 0.017701183 -0.25176013 0.2092372 0.07177626 0.20563456 -0.0617953 -0.04470635 -0.0853056 0.14566511 -0.021776402 0.0038216563 0.023985097 0.15728648 -0.042595685 0.08060294 0.019980699 0.19028835 0.010291066 -0.12727252
Draig 4 -0.09007049 0.12583251 0.0013703821 0.14402226 0.07868768 0.15895697 -0.053124674 0.05779499 0.004474474 -0.13506715 -0.066359624 0.067002565 -0.26557454 0.05885327 -0.14579892 0.17480665 -0.070737764 -0.093693614 -0.16919377 -0.028327487 -0.03373498 -0.15008204 -0.16720076 -0.12526606 -0.2431257 0.02267283 0.068726934 -0.017811649 0.12199016 -0.028929789 0.154842 -0.14456514 0.049055386 -0.1820498 0.16782413 -0.13066216 -0.108222984 0.064632416 -0.20460251 -0.0018772597 -0.16614896 -0.16790804 0.14750633 0.09568601 0.1652933 0.017527075 -0.25222635 0.20865878 0.072697125 0.20567262 -0.0616529 -0.045203675 -0.08592069 0.14576632 -0.022648659 0.004286776 0.024130302 0.15664124 -0.042792723 0.08093735 0.02003093 0.19016865 0.010774249 -0.12700216
Drogodar 2 -0.09007049 0.12583251 0.0013703821 0.14402226 0.07868768 0.15895697 -0.053124674 0.05779499 0.004474474 -0.13506715 -0.066359624 0.067002565 -0.26557454 0.05885327 -0.14579892 0.17480665 -0.070737764 -0.093693614 -0.16919377 -0.028327487 -0.03373498 -0.15008204 -0.16720076 -0.12526606 -0.2431257 0.02267283 0.068726934 -0.017811649 0.12199016 -0.028929789 0.154842 -0.14456514 0.049055386 -0.1820498 0.16782413 -0.13066216 -0.108222984 0.064632416 -0.20460251 -0.0018772597 -0.16614896 -0.16790804 0.14750633 0.09568601 0.1652933 0.017527075 -0.25222635 0.20865878 0.072697125 0.20567262 -0.0616529 -0.045203675 -0.08592069 0.14576632 -0.022648659 0.004286776 0.024130302 0.15664124 -0.042792723 0.08093735 0.02003093 0.19016865 0.010774249 -0.12700216
Ravix 1 -0.09129679 0.12552297 0.0017457181 0.14281785 0.07902748 0.16035159 -0.05154547 0.057909768 0.0043961788 -0.13632374 -0.06403792 0.06911135 -0.2668804 0.059726384 -0.14550687 0.1768269 -0.07206489 -0.093216725 -0.16886105 -0.029062254 -0.03349904 -0.15009081 -0.16580062 -0.12562862 -0.24410525 0.022869688 0.06636255 -0.01764278 0.12085674 -0.028612044 0.15321279 -0.14545968 0.05107558 -0.18237634 0.16742404 -0.12995027 -0.10630162 0.062222 -0.20480146 -0.0005911214 -0.1673996 -0.16733178 0.14638305 0.093309484 0.16516836 0.02031617 -0.25346905 0.20851193 0.07388124 0.20575412 -0.062129084 -0.046472948 -0.08468547 0.14502583 -0.02332128 0.004728734 0.025415985 0.15519507 -0.042686127 0.08017607 0.020031687 0.19073391 0.01056437 -0.12588027
Vissegerd 21 -0.08985523 0.12548174 0.00094639004 0.14412178 0.078934714 0.15824762 -0.053027328 0.058668148 0.0045882184 -0.13483362 -0.067176834 0.06632643 -0.26516223 0.058549885 -0.14504012 0.1744027 -0.07002162 -0.09342242 -0.16843824 -0.028010838 -0.034455758 -0.15019867 -0.16796221 -0.12535512 -0.24377085 0.022061897 0.06874489 -0.017138714 0.122402266 -0.029513298 0.15585957 -0.14421093 0.049241595 -0.18288855 0.16705918 -0.13169804 -0.10848573 0.06520356 -0.2047426 -0.002598772 -0.16579682 -0.16773874 0.14778829 0.0961154 0.16427813 0.017228015 -0.25190106 0.20930487 0.07172648 0.20585719 -0.06230954 -0.04415006 -0.0852702 0.1461473 -0.021783046 0.003587219 0.023880322 0.15755087 -0.042463887 0.08029849 0.02022217 0.18987377 0.01008723 -0.12744772
10 20 0.030951368 -0.046410754 -0.026029278 -0.11618305 -0.028342504 -0.079222925 -0.05311759 0.2654197 -0.11254428 0.089437 0.16959015 0.014259364 -0.08499324 0.02911569 -0.05101714 -0.066296816 -0.0056962646 0.033156965 0.053965624 -0.15603378 0.08133304 0.058213323 0.082686834 -0.03422635 0.027277198 -0.20590875 -0.28136894 -0.037714276 0.06709883 0.010481873 0.11283447 0.0347944 0.12028946 0.06802412 -0.12922953 0.04956784 -0.061275057 -0.32636946 -0.19329399 0.19594355 0.08788422 -0.02457628 0.08269225 0.30206585 0.13205926 -0.18441369 -0.015493508 0.013418829 -0.059945386 -0.10326369 0.15184 -0.059774805 0.12650123 -0.05548068 -0.22622322 -0.2448029 0.07128118 -0.035161406 -0.07438892 0.25697047 -0.004176099 -0.008821481 0.131367 -0.010265981
Mousesack 8 -0.09107798 0.12514459 0.0010029852 0.1432036 0.07950478 0.15932612 -0.051103067 0.059187867 0.0046440936 -0.13622905 -0.06535107 0.068229325 -0.26652426 0.059439503 -0.144455 0.17609103 -0.0709151 -0.09268772 -0.16788866 -0.028733931 -0.03470428 -0.15023507 -0.16708115 -0.1258212 -0.24503548 0.02174239 0.06627279 -0.016477782 0.121200934 -0.029464189 0.15483858 -0.14496237 0.05159933 -0.18357703 0.16631117 -0.13127133 -0.10674982 0.06289778 -0.20487165 -0.001608603 -0.16705401 -0.16700727 0.14671394 0.09384096 0.16328412 0.020104682 -0.25284857 0.20960443 0.0721186 0.20597021 -0.06288573 -0.04512994 -0.08362367 0.14534578 -0.021905402 0.0034419203 0.024893755 0.1566385 -0.042120237 0.07937672 0.020127563 0.19045632 0.009618853 -0.1265498
Roegner 6 -0.09002113 0.12492899 0.0014366056 0.14444096 0.07941979 0.1583953 -0.05355715 0.058602717 0.0049294713 -0.13539322 -0.067801446 0.06636181 -0.26479542 0.058632284 -0.14481737 0.17422904 -0.06949274 -0.09296581 -0.16835183 -0.027516788 -0.03493158 -0.14998934 -0.16801617 -0.12566815 -0.2439578 0.021750193 0.06939684 -0.017489472 0.12189472 -0.029194208 0.15558244 -0.14479567 0.048929073 -0.18306176 0.16698663 -0.13201985 -0.109009266 0.06568436 -0.2051779 -0.0026870703 -0.16590504 -0.16798484 0.14762028 0.09654225 0.164011 0.017500777 -0.25167552 0.20955552 0.07182117 0.20527534 -0.06260192 -0.043978903 -0.08517987 0.14539202 -0.021796068 0.004138167 0.024420936 0.15764213 -0.04282114 0.0800307 0.020341894 0.18968347 0.009692381 -0.12702629
Sir 20 -0.089500204 0.12580799 0.000939578 0.14437945 0.078600824 0.15811922 -0.053508744 0.058227535 0.0045175725 -0.13442467 -0.06744325 0.06590927 -0.26497015 0.058411058 -0.14552282 0.17399876 -0.07003328 -0.09373712 -0.16886957 -0.027944967 -0.034164544 -0.15015426 -0.16804248 -0.12510835 -0.24312733 0.022301268 0.069447905 -0.017470608 0.122664124 -0.029361278 0.15597874 -0.1439446 0.04852952 -0.18237245 0.16753627 -0.13146482 -0.10884271 0.06568095 -0.2045711 -0.0026900026 -0.16550103 -0.16797012 0.14805147 0.09663777 0.16486321 0.016402919 -0.2516399 0.20902802 0.07178368 0.20584455 -0.061825726 -0.04418118 -0.08598045 0.1464114 -0.021894224 0.003695309 0.023500152 0.15754957 -0.042563267 0.08084303 0.020130426 0.18988138 0.010479809 -0.1277311
Rumplestelt 1 -0.09129679 0.12552297 0.0017457181 0.14281785 0.07902748 0.16035159 -0.05154547 0.057909768 0.0043961788 -0.13632374 -0.06403792 0.06911135 -0.2668804 0.059726384 -0.14550687 0.1768269 -0.07206489 -0.093216725 -0.16886105 -0.029062254 -0.03349904 -0.15009081 -0.16580062 -0.12562862 -0.24410525 0.022869688 0.06636255 -0.01764278 0.12085674 -0.028612044 0.15321279 -0.14545968 0.05107558 -0.18237634 0.16742404 -0.12995027 -0.10630162 0.062222 -0.20480146 -0.0005911214 -0.1673996 -0.16733178 0.14638305 0.093309484 0.16516836 0.02031617 -0.25346905 0.20851193 0.07388124 0.20575412 -0.062129084 -0.046472948 -0.08468547 0.14502583 -0.02332128 0.004728734 0.025415985 0.15519507 -0.042686127 0.08017607 0.020031687 0.19073391 0.01056437 -0.12588027
Windhalm 3 -0.08883623 0.12613094 0.0009949252 0.14521393 0.07834092 0.15754832 -0.05469917 0.0576751 0.0045523737 -0.13379864 -0.06867548 0.06488786 -0.26424518 0.05797495 -0.1460781 0.17277093 -0.069404386 -0.09416222 -0.16951154 -0.027590213 -0.033967946 -0.15006 -0.16858612 -0.124892436 -0.24212466 0.022473969 0.071085244 -0.017978946 0.1231128 -0.029244978 0.15645754 -0.14365779 0.04703086 -0.18170717 0.16820939 -0.13136251 -0.11013478 0.06703711 -0.20438546 -0.0031632318 -0.16488361 -0.16846946 0.14861657 0.09805407 0.16540365 0.014736429 -0.25096136 0.20878722 0.07150659 0.20557295 -0.061171263 -0.043930404 -0.087148316 0.14649393 -0.021974035 0.0038444386 0.022842484 0.15807354 -0.042895533 0.08169147 0.020028403 0.18958658 0.0109831765 -0.12811285
Akerspaark 6 -0.08883623 0.12613094 0.0009949252 0.14521393 0.07834092 0.15754832 -0.05469917 0.0576751 0.0045523737 -0.13379864 -0.06867548 0.06488786 -0.26424518 0.05797495 -0.1460781 0.17277093 -0.069404386 -0.09416222 -0.16951154 -0.027590213 -0.033967946 -0.15006 -0.16858612 -0.124892436 -0.24212466 0.022473969 0.071085244 -0.017978946 0.1231128 -0.029244978 0.15645754 -0.14365779 0.04703086 -0.18170717 0.16820939 -0.13136251 -0.11013478 0.06703711 -0.20438546 -0.0031632318 -0.16488361 -0.16846946 0.14861657 0.09805407 0.16540365 0.014736429 -0.25096136 0.20878722 0.07150659 0.20557295 -0.061171263 -0.043930404 -0.087148316 0.14649393 -0.021974035 0.0038444386 0.022842484 0.15807354 -0.042895533 0.08169147 0.020028403 0.18958658 0.0109831765 -0.12811285
Nettly 3 -0.091125034 0.12520088 0.001122128 0.14254963 0.07914129 0.15973923 -0.05099834 0.05897649 0.004422621 -0.13602118 -0.064386055 0.06856047 -0.26671416 0.059523407 -0.14464247 0.17683806 -0.071683414 -0.09289513 -0.16785501 -0.028867103 -0.03424589 -0.15026818 -0.16643655 -0.12560797 -0.24499427 0.022220375 0.06586702 -0.01673588 0.12135423 -0.029290175 0.15429984 -0.14488469 0.051705804 -0.1833946 0.16643883 -0.13110897 -0.1059773 0.062413234 -0.20492089 -0.0012539955 -0.16708158 -0.16696762 0.14660482 0.093317665 0.16411154 0.020298492 -0.2532858 0.20921443 0.07290837 0.20622098 -0.06294016 -0.045331817 -0.08372542 0.14580986 -0.022244075 0.0038075226 0.025160035 0.1559375 -0.042084064 0.07929463 0.020254666 0.19060951 0.00972415 -0.12651044
Dhun 3 -0.09089982 0.123969674 0.0005646946 0.14269367 0.07998362 0.15855801 -0.050881345 0.060848277 0.0049038446 -0.13603853 -0.06617303 0.06736577 -0.26575682 0.059096776 -0.14279 0.1762637 -0.07005373 -0.09184156 -0.16599947 -0.027859986 -0.036187768 -0.15034609 -0.16788036 -0.12598373 -0.24670435 0.020647438 0.06603837 -0.015506034 0.12175082 -0.03023141 0.15612037 -0.1445337 0.052207418 -0.18541653 0.1646086 -0.13361941 -0.10643443 0.06365355 -0.20560642 -0.0027265998 -0.16651213 -0.1666727 0.14693391 0.09417782 0.16176502 0.020253628 -0.25254032 0.21080422 0.07105629 0.20628129 -0.0646974 -0.042963903 -0.082020774 0.14621302 -0.020313289 0.0027375142 0.025193581 0.15767375 -0.041508503 0.07750297 0.020787692 0.18999134 0.0078016366 -0.12715903
Lille 3 -0.09042091 0.1252297 0.0012404891 0.14326729 0.07909239 0.15951936 -0.05212286 0.058663204 0.004216447 -0.1363429 -0.065395586 0.06823134 -0.26559904 0.05943462 -0.14453928 0.17583428 -0.071281485 -0.092949435 -0.16879997 -0.0279466 -0.03462816 -0.14980562 -0.16681239 -0.12589185 -0.2445826 0.02150749 0.06709362 -0.016676432 0.12141684 -0.02961433 0.15456487 -0.14467385 0.05066403 -0.18308136 0.16737898 -0.13164727 -0.107387334 0.06392508 -0.20482215 -0.0017091106 -0.16646415 -0.16678217 0.14656746 0.0950784 0.16418019 0.019161168 -0.25267404 0.20898893 0.07208566 0.2057743 -0.0624045 -0.045251805 -0.08432036 0.14576608 -0.022687849 0.0041904217 0.025095766 0.15704715 -0.04293922 0.08010848 0.019884149 0.19003326 0.009556759 -0.12686236
Torque 6 -0.0898979 0.12550932 0.00074674806 0.1437528 0.07880078 0.15834315 -0.052577093 0.058861237 0.00450088 -0.13476337 -0.06670725 0.06645102 -0.26540592 0.058649745 -0.14493322 0.1748162 -0.07035561 -0.09337119 -0.16818622 -0.028132059 -0.03448157 -0.1502581 -0.16783528 -0.12524429 -0.24401258 0.022023289 0.06823085 -0.016904566 0.12248662 -0.029607696 0.15592779 -0.14398882 0.049685147 -0.18306646 0.16683741 -0.13181975 -0.10789774 0.06482314 -0.2047201 -0.0025401744 -0.16582943 -0.1675424 0.14772682 0.0956934 0.164235 0.017509168 -0.25204083 0.20935948 0.071723565 0.20613769 -0.062463436 -0.04406207 -0.084959894 0.14654909 -0.021571198 0.0033654822 0.023874095 0.15738232 -0.042190265 0.080055185 0.020253742 0.19004254 0.00993391 -0.12763128
Galarr 2 -0.08981072 0.1253465 0.00043491853 0.14361665 0.078856565 0.15803467 -0.052302778 0.059393782 0.004514038 -0.13461013 -0.066880405 0.06617459 -0.26531896 0.058547396 -0.14449894 0.17481928 -0.07016384 -0.093209065 -0.16768077 -0.028034065 -0.034854528 -0.15034463 -0.16815087 -0.12523217 -0.24445362 0.021698292 0.06798213 -0.016450848 0.12273365 -0.029946363 0.15646914 -0.14369923 0.04999954 -0.18357301 0.1663424 -0.13239726 -0.10773406 0.06491788 -0.20477687 -0.0028716126 -0.16566801 -0.1673579 0.14783563 0.09569616 0.1637042 0.01750004 -0.2519456 0.2097078 0.07123605 0.20636818 -0.062868096 -0.043490827 -0.08447863 0.14693905 -0.021032248 0.0029047949 0.023745755 0.15775134 -0.041888613 0.07961331 0.02036495 0.18997763 0.009513636 -0.12794457
Aen 24 -0.08976314 0.12588432 0.0012380064 0.1444618 0.0786838 0.15855922 -0.05354366 0.0577351 0.00461572 -0.13481717 -0.06709649 0.06645355 -0.2652481 0.058692575 -0.1458344 0.17422637 -0.0702579 -0.09380324 -0.16926658 -0.028007535 -0.03388734 -0.15006648 -0.16761349 -0.125224 -0.24286325 0.022527754 0.06944079 -0.017826064 0.12220786 -0.029066654 0.15536098 -0.14436968 0.048504423 -0.1820232 0.16787459 -0.13095783 -0.108773485 0.06530419 -0.20454662 -0.0023082457 -0.16575007 -0.16804768 0.14775264 0.0964178 0.1651542 0.0167765 -0.25179064 0.20874383 0.07226915 0.20561504 -0.061498936 -0.044809636 -0.08616361 0.14588566 -0.022322703 0.0041416604 0.023811618 0.15713754 -0.04289735 0.08112031 0.019997872 0.19001843 0.010817792 -0.12730129
Vanadain 3 -0.08965993 0.12593322 0.0012452384 0.14442089 0.078572854 0.15848896 -0.05365004 0.05775559 0.004500485 -0.13464561 -0.06713226 0.06629828 -0.26513398 0.05856106 -0.1458934 0.17412974 -0.07029398 -0.09385073 -0.16930135 -0.028081993 -0.03381297 -0.15007615 -0.16766419 -0.12514272 -0.24279436 0.02260676 0.06951374 -0.01786759 0.12236557 -0.029035138 0.15538205 -0.14426407 0.048380993 -0.18193735 0.16795419 -0.1308969 -0.10886133 0.065434635 -0.20453215 -0.002305952 -0.16572876 -0.16809681 0.14787786 0.096476324 0.16533169 0.016596992 -0.25180712 0.20870362 0.07230098 0.20564139 -0.061492946 -0.04477967 -0.08633074 0.14601028 -0.022423994 0.004139366 0.023701245 0.15712023 -0.04282741 0.08118952 0.020030282 0.18997647 0.010844 -0.12737365
Toruviel 11 -0.08948108 0.12563282 0.0009607109 0.14477114 0.0788661 0.15798877 -0.053635687 0.058305282 0.004749919 -0.13468175 -0.06808889 0.06569766 -0.26481515 0.058457762 -0.14539146 0.17362528 -0.06954973 -0.09342168 -0.16881904 -0.027688991 -0.034626193 -0.15004611 -0.1683984 -0.12523408 -0.24320458 0.021876173 0.069873564 -0.017422484 0.12242057 -0.029306456 0.1562557 -0.14403918 0.048422854 -0.18251912 0.16742156 -0.13171539 -0.10925329 0.066075325 -0.20467821 -0.0029254425 -0.16548547 -0.16804463 0.14805725 0.097017914 0.16435629 0.01639289 -0.25125438 0.20935287 0.071344614 0.20558734 -0.061867822 -0.043941796 -0.08587001 0.14610523 -0.021556888 0.0036102876 0.02347416 0.15788843 -0.04258771 0.08077094 0.020086149 0.1898448 0.01023452 -0.1277726
Filavandrel 7 -0.090572596 0.12556002 0.0011272903 0.14365213 0.07904759 0.15928006 -0.05194078 0.05838551 0.0046231146 -0.13576636 -0.06580976 0.067640945 -0.26622418 0.059328035 -0.1452546 0.17551765 -0.070925646 -0.09303901 -0.16859604 -0.028513117 -0.03435509 -0.15008472 -0.1671435 -0.12546569 -0.24402776 0.022042753 0.067543685 -0.017146282 0.12141964 -0.02904703 0.15489382 -0.14467129 0.050427515 -0.1827382 0.16710365 -0.13092989 -0.10731585 0.063698165 -0.20471509 -0.0017075225 -0.16665064 -0.16744162 0.14704865 0.094701864 0.16423792 0.018944846 -0.25237104 0.20921038 0.07230502 0.20581488 -0.062132012 -0.04519911 -0.084752135 0.14562213 -0.022068568 0.0037927935 0.024445599 0.15652911 -0.042339213 0.080199376 0.019986551 0.1905256 0.010150552 -0.1269282
Field 12 -0.08975196 0.12541255 0.0007768906 0.14427526 0.07899404 0.15811382 -0.05292537 0.05882553 0.0047206697 -0.13487834 -0.067539245 0.06605894 -0.26512495 0.058608208 -0.14492193 0.17423646 -0.06979062 -0.093165435 -0.16826609 -0.027828643 -0.034866795 -0.15014178 -0.16826855 -0.12531856 -0.24389033 0.021667369 0.068939984 -0.01695944 0.12235157 -0.02953506 0.15627602 -0.1440209 0.049296323 -0.18307297 0.16686447 -0.13203059 -0.10852622 0.06544889 -0.20478383 -0.0028480415 -0.1656964 -0.1677091 0.14784318 0.09631804 0.16387667 0.01717604 -0.25155744 0.20961209 0.07126776 0.20585074 -0.06237525 -0.04379422 -0.085086405 0.14628565 -0.021277664 0.0033165738 0.023722565 0.15779608 -0.042277608 0.08015471 0.020193473 0.18995318 0.009807026 -0.12774454
22 4 0.030083934 -0.045990117 -0.023876317 -0.11540369 -0.028454866 -0.07727039 -0.052522082 0.26740816 -0.114301115 0.08885007 0.17118162 0.011875697 -0.08602784 0.030610962 -0.048810903 -0.06476572 -0.0059952806 0.030745095 0.052558985 -0.155729 0.08138679 0.059157543 0.08110067 -0.03374757 0.025039481 -0.20751755 -0.2814614 -0.038000617 0.06682987 0.010667439 0.11356464 0.035056736 0.12037856 0.068101384 -0.12750599 0.04915747 -0.06270526 -0.32591787 -0.191422 0.19459708 0.090689994 -0.026179757 0.08043906 0.30147728 0.13349211 -0.18490137 -0.013896882 0.0145601975 -0.061058864 -0.10315736 0.15340386 -0.061281368 0.12630068 -0.054570395 -0.22564961 -0.24431106 0.07415443 -0.036496583 -0.072959326 0.25696537 -0.0035969594 -0.008461574 0.13069816 -0.011664303
King 55 -0.089656845 0.125725 0.0009994783 0.14425413 0.078683265 0.15827605 -0.053339332 0.05827225 0.00453211 -0.13460788 -0.06722233 0.06615091 -0.2650988 0.0585135 -0.14544539 0.174226 -0.07014022 -0.09364206 -0.16879672 -0.027997216 -0.034189943 -0.15014945 -0.1679018 -0.12517798 -0.24328776 0.022285083 0.06919097 -0.017444087 0.12250913 -0.029326307 0.15579851 -0.14408036 0.048771665 -0.1824572 0.1674548 -0.1314338 -0.10864658 0.0654296 -0.20462826 -0.0025614584 -0.16565292 -0.16790764 0.14791319 0.09638286 0.16479348 0.016756896 -0.25177312 0.20905077 0.07190061 0.20582896 -0.061927665 -0.044291943 -0.085796796 0.14628755 -0.021948246 0.0037560586 0.023683382 0.1574116 -0.042559896 0.08070953 0.02014465 0.1899305 0.01040565 -0.12758234
Chireadan 6 -0.0912452 0.12533769 0.0013664574 0.14389203 0.07959816 0.15988755 -0.05180306 0.05765066 0.004974164 -0.13699229 -0.065390766 0.06893173 -0.26653618 0.060213145 -0.14500673 0.17624296 -0.07103768 -0.09295025 -0.1688354 -0.028027352 -0.03440681 -0.14999871 -0.1664371 -0.12598255 -0.24411732 0.021778626 0.067309745 -0.017260177 0.12042265 -0.02912284 0.1541406 -0.14557828 0.050868224 -0.18277267 0.16709797 -0.13101959 -0.10677593 0.06297034 -0.20498005 -0.0015236455 -0.16689807 -0.1671117 0.14625342 0.094612926 0.16373277 0.020132184 -0.2524804 0.2089484 0.07268491 0.20539531 -0.062056307 -0.04589408 -0.08410802 0.14470151 -0.022286294 0.004492994 0.025559383 0.15627955 -0.043485317 0.07981968 0.01975578 0.19081862 0.010285824 -0.1262203
15 10 0.03043645 -0.045452185 -0.024491793 -0.11661271 -0.027008405 -0.07695313 -0.05190875 0.267327 -0.11427904 0.08911695 0.1706454 0.010900633 -0.08588914 0.031068828 -0.048424363 -0.06402405 -0.005689181 0.030499965 0.053021062 -0.15466203 0.08206176 0.060536884 0.080120616 -0.034648675 0.02461737 -0.20773074 -0.28064123 -0.03706811 0.066363074 0.009768467 0.114404485 0.034371406 0.120109126 0.06824574 -0.1292315 0.049831256 -0.06358873 -0.32521912 -0.19173142 0.19336857 0.09085726 -0.026315268 0.08182701 0.30121392 0.13399997 -0.18671621 -0.015467232 0.01404443 -0.06016765 -0.10342583 0.15420681 -0.06061594 0.12664062 -0.05565843 -0.22463582 -0.2446245 0.07421878 -0.03733912 -0.0742154 0.25681865 -0.0034702325 -0.0075979754 0.13007021 -0.013289574
Errdil 4 -0.09051041 0.12518685 0.00038336794 0.14346918 0.079315014 0.15870853 -0.051035393 0.05959764 0.004773839 -0.13574468 -0.06623652 0.067176834 -0.26625046 0.0593114 -0.14426568 0.1755477 -0.070446014 -0.09242264 -0.16747016 -0.028321214 -0.035438072 -0.15021203 -0.16792145 -0.12550464 -0.24511725 0.02103314 0.06687323 -0.016008627 0.121643774 -0.029721953 0.15614964 -0.14409067 0.051422376 -0.18392985 0.1659182 -0.13217293 -0.106868684 0.06374121 -0.2048318 -0.0023988977 -0.16646954 -0.16695657 0.14714712 0.09456058 0.16267888 0.019296905 -0.25202215 0.21018001 0.07098253 0.20624378 -0.06297833 -0.044020794 -0.083461344 0.1462818 -0.02065656 0.0026207159 0.024167752 0.15735768 -0.041572597 0.07917215 0.020119581 0.1905517 0.009104675 -0.12762119
Vratimir 3 -0.09030783 0.12540774 0.00087188615 0.14335313 0.07891506 0.15881008 -0.052051336 0.05890023 0.0044748364 -0.13518396 -0.065934144 0.06715484 -0.26584458 0.058941547 -0.14483772 0.17549188 -0.07079891 -0.09321342 -0.16807745 -0.028377356 -0.034403346 -0.1502629 -0.16737065 -0.12536673 -0.2443422 0.022089202 0.06744355 -0.016848499 0.122110344 -0.029502142 0.15538664 -0.14428885 0.050359204 -0.18317764 0.16670616 -0.13158411 -0.10725863 0.06402045 -0.20478901 -0.0021114587 -0.16624844 -0.16735242 0.14735426 0.094902396 0.16419543 0.018439142 -0.2524583 0.20931318 0.072119206 0.20616746 -0.06262296 -0.044485766 -0.08454921 0.1463041 -0.021795709 0.0035128668 0.02430299 0.15690222 -0.042155273 0.07980244 0.020254249 0.1902334 0.009864085 -0.1272589
Beau 24 -0.089566454 0.1257304 0.00081559626 0.14432827 0.07869162 0.15810138 -0.053228185 0.058446385 0.004566813 -0.13454007 -0.06743568 0.06594485 -0.26507494 0.058488406 -0.14533776 0.17408872 -0.069991544 -0.09355787 -0.16866422 -0.027946467 -0.0343965 -0.15016332 -0.16813917 -0.1251443 -0.24337758 0.022073528 0.0692159 -0.017241031 0.12258865 -0.0294479 0.15614316 -0.14389452 0.048843354 -0.18260498 0.1673001 -0.1316423 -0.10867394 0.06555861 -0.20459817 -0.0027486747 -0.16555838 -0.16784939 0.1479945 0.09648973 0.16450973 0.016652824 -0.25160033 0.20923246 0.07155154 0.20590448 -0.061978202 -0.044048708 -0.085663624 0.14645165 -0.021631911 0.0034793802 0.023504294 0.15763828 -0.04240708 0.080628075 0.020128576 0.18994617 0.010268121 -0.12780641
23 3 0.030662354 -0.047697805 -0.025311464 -0.115781605 -0.030066183 -0.07942002 -0.053514633 0.26678833 -0.113867514 0.089437984 0.1694354 0.01292109 -0.085045315 0.028789464 -0.05072695 -0.065075465 -0.007498874 0.03427183 0.053602073 -0.15636326 0.08163576 0.05843938 0.08215364 -0.033168107 0.02811151 -0.20868948 -0.28167507 -0.038006347 0.065476604 0.010866875 0.11265109 0.033898503 0.1216457 0.068231724 -0.12772773 0.04992082 -0.06074596 -0.325118 -0.19301967 0.19598834 0.08681971 -0.02394026 0.08312372 0.30120593 0.1316343 -0.18420431 -0.0139993215 0.014539714 -0.05938049 -0.102755934 0.15213668 -0.058443714 0.1257362 -0.054705437 -0.22590666 -0.24597783 0.07216665 -0.03602495 -0.07395293 0.2570484 -0.0049100006 -0.009841163 0.13015631 -0.009737822
Triss 55 -0.09017295 0.12536104 0.0011180192 0.14440452 0.079328075 0.15872176 -0.05286195 0.05827831 0.004878205 -0.13575627 -0.06707763 0.067015454 -0.2653994 0.059101522 -0.14504047 0.1746174 -0.070038304 -0.09315672 -0.16870831 -0.027802868 -0.034722716 -0.14997791 -0.16772653 -0.12563662 -0.24382457 0.021675432 0.06872136 -0.017236212 0.121593684 -0.029311568 0.15545756 -0.14472982 0.04952477 -0.18279684 0.16722058 -0.13156873 -0.10842369 0.064860016 -0.20483759 -0.0023772574 -0.16609038 -0.16761127 0.14731945 0.09606379 0.16386767 0.017998056 -0.25177237 0.20934993 0.071734205 0.20546673 -0.062105227 -0.044652566 -0.084989846 0.14541534 -0.021835333 0.0039113835 0.02435627 0.15745476 -0.042886287 0.08030136 0.019982018 0.19005904 0.0100617 -0.12707208
Laurelnose 4 -0.08945433 0.12598312 0.0011826624 0.14461969 0.07851516 0.15825437 -0.05391253 0.057735678 0.004513474 -0.13443434 -0.06751832 0.065945916 -0.26491272 0.05841474 -0.14594011 0.17379066 -0.070071824 -0.09392895 -0.16935451 -0.027959147 -0.03385184 -0.15007265 -0.16789529 -0.12508062 -0.24262783 0.022573644 0.069906875 -0.017895496 0.12255283 -0.029087707 0.15565151 -0.14411302 0.048043627 -0.18188049 0.16801861 -0.13101378 -0.1091801 0.065835506 -0.20449622 -0.0025202876 -0.16551808 -0.1681906 0.14806308 0.09687112 0.16535029 0.016131898 -0.2515966 0.20872529 0.072102636 0.20562503 -0.061412748 -0.04456751 -0.08653546 0.14613172 -0.022311583 0.004065647 0.023486635 0.15735912 -0.042844597 0.08131531 0.020029886 0.18987969 0.010878834 -0.12755892
Neville 5 -0.08883623 0.12613094 0.0009949252 0.14521393 0.07834092 0.15754832 -0.05469917 0.0576751 0.0045523737 -0.13379864 -0.06867548 0.06488786 -0.26424518 0.05797495 -0.1460781 0.17277093 -0.069404386 -0.09416222 -0.16951154 -0.027590213 -0.033967946 -0.15006 -0.16858612 -0.124892436 -0.24212466 0.022473969 0.071085244 -0.017978946 0.1231128 -0.029244978 0.15645754 -0.14365779 0.04703086 -0.18170717 0.16820939 -0.13136251 -0.11013478 0.06703711 -0.20438546 -0.0031632318 -0.16488361 -0.16846946 0.14861657 0.09805407 0.16540365 0.014736429 -0.25096136 0.20878722 0.07150659 0.20557295 -0.061171263 -0.043930404 -0.087148316 0.14649393 -0.021974035 0.0038444386 0.022842484 0.15807354 -0.042895533 0.08169147 0.020028403 0.18958658 0.0109831765 -0.12811285
Eskel 11 -0.09015343 0.12546875 0.0011654983 0.14411965 0.07905446 0.15875554 -0.052776285 0.058370102 0.004707384 -0.13537233 -0.06682498 0.066850506 -0.2655376 0.058936268 -0.1452377 0.17473392 -0.07027635 -0.09316511 -0.16864397 -0.028090866 -0.034498785 -0.15005662 -0.16764101 -0.12543662 -0.24374816 0.021984408 0.068586454 -0.01733104 0.12180695 -0.029134238 0.1553729 -0.14453267 0.049526703 -0.18270418 0.16720968 -0.13133204 -0.10820934 0.064762965 -0.20479453 -0.0022239573 -0.166174 -0.16773666 0.14745013 0.09572521 0.1642944 0.017914958 -0.25194183 0.20928071 0.07199328 0.20563965 -0.062129926 -0.044635873 -0.085199475 0.14570686 -0.021924641 0.0038515236 0.024176395 0.15710554 -0.042531185 0.08035874 0.020087324 0.19016038 0.010120436 -0.12716544
Vesemir 15 -0.0902207 0.12553945 0.0012237799 0.14456394 0.079043314 0.15854937 -0.05324355 0.057913907 0.0047675017 -0.1354845 -0.06708271 0.06692004 -0.26530063 0.05912658 -0.14522287 0.17464164 -0.07015991 -0.09317311 -0.16892876 -0.027630951 -0.03454705 -0.15007621 -0.16767526 -0.12559463 -0.2434156 0.021784704 0.06892846 -0.017380115 0.12182897 -0.029265916 0.15540184 -0.14462699 0.049250934 -0.18261352 0.16739224 -0.13138549 -0.1083851 0.06514459 -0.20487493 -0.0024417748 -0.16595207 -0.16762464 0.14729741 0.09625897 0.16424097 0.017779065 -0.2518053 0.20911008 0.07191885 0.20545013 -0.061882008 -0.044711106 -0.08533786 0.14565751 -0.022072466 0.0041202526 0.024349017 0.15709141 -0.04321478 0.08040851 0.01996151 0.1901933 0.010257117 -0.12727655
Dennis 11 -0.08967184 0.12573677 0.0008408332 0.14436674 0.078760296 0.15823059 -0.05308209 0.058397558 0.0046188664 -0.13474056 -0.06736938 0.06610646 -0.26522323 0.058622196 -0.14537221 0.17415546 -0.07002747 -0.093446985 -0.16871603 -0.02799083 -0.0344611 -0.15012334 -0.1680971 -0.12518637 -0.24340144 0.021986796 0.06912673 -0.017232534 0.12237783 -0.029361906 0.15605606 -0.14398406 0.048997145 -0.18258263 0.16731073 -0.13153343 -0.108602494 0.06540319 -0.20459275 -0.002651562 -0.16569483 -0.1678218 0.14788438 0.0963558 0.16439722 0.016902577 -0.25158387 0.20927599 0.07153442 0.20584056 -0.061917603 -0.044195965 -0.08558675 0.14628845 -0.021618206 0.003479978 0.023559168 0.15755709 -0.042396933 0.08064046 0.020062558 0.19004847 0.010262395 -0.1277356
Count 24 -0.08965676 0.1254583 0.000949388 0.14424722 0.07887769 0.15817104 -0.053293694 0.058604315 0.004591951 -0.13478793 -0.06744971 0.0661042 -0.26491407 0.058513463 -0.14504647 0.17420386 -0.069915354 -0.09339528 -0.16852508 -0.02776479 -0.034587443 -0.15010777 -0.1680795 -0.1253265 -0.24367028 0.02191401 0.06913094 -0.017184682 0.12247183 -0.029512707 0.15600851 -0.14408535 0.048949853 -0.18284237 0.1671802 -0.13190943 -0.10871146 0.06560457 -0.20477186 -0.0027652716 -0.1656006 -0.1677695 0.14785339 0.09651973 0.16433868 0.016902037 -0.251686 0.20931464 0.07156857 0.20579201 -0.062249653 -0.043961868 -0.08541419 0.14627814 -0.021705184 0.0036479647 0.023820205 0.15773246 -0.04254743 0.080386974 0.020201242 0.18979996 0.009992503 -0.12763083
25 6 0.031008847 -0.04558808 -0.024960084 -0.117175385 -0.029536186 -0.07804154 -0.054148722 0.26722816 -0.11353332 0.08650567 0.17100659 0.012355527 -0.08577092 0.029766236 -0.051961724 -0.06424105 -0.005026239 0.032231532 0.05513482 -0.15521246 0.0815962 0.06125041 0.08065726 -0.032594357 0.022067633 -0.20755357 -0.2829757 -0.03693468 0.06513716 0.00838702 0.11205988 0.032752596 0.1212623 0.067765355 -0.12966399 0.049424235 -0.06480275 -0.3250692 -0.19179602 0.19388787 0.09184648 -0.022670133 0.08380145 0.30165946 0.13528085 -0.18694086 -0.017734922 0.015561851 -0.05899742 -0.10548426 0.15313397 -0.059011802 0.124854684 -0.054326173 -0.22421741 -0.24352787 0.07081778 -0.0357847 -0.07367124 0.25615424 -0.0028681725 -0.0069272807 0.12845671 -0.01457165
Istredd 4 -0.093062654 0.12509419 0.0017489261 0.14557849 0.08120499 0.16262525 -0.047982022 0.056771602 0.0064007933 -0.14078611 -0.06448415 0.07022022 -0.27011666 0.06332516 -0.1446481 0.17676902 -0.07101908 -0.0898978 -0.17004427 -0.0279188 -0.0371275 -0.14909047 -0.16558841 -0.12625438 -0.24549907 0.018530305 0.06631783 -0.016471555 0.11546573 -0.0281724 0.15328772 -0.14657179 0.05370883 -0.18172151 0.1666503 -0.13038504 -0.10617034 0.060078945 -0.20349142 0.000483776 -0.1695824 -0.16618371 0.14305796 0.09287113 0.16088726 0.025032593 -0.25210786 0.21047406 0.06980947 0.20477648 -0.060285058 -0.047892164 -0.08098745 0.14181978 -0.020492619 0.0035299903 0.025355533 0.15647067 -0.04190719 0.07961541 0.019089375 0.19377093 0.009477726 -0.12566829
24 4 0.029929861 -0.048394267 -0.026744416 -0.11378707 -0.029614365 -0.08115234 -0.052723054 0.2634382 -0.11161348 0.09128528 0.16876161 0.017534487 -0.084886216 0.028099658 -0.050095607 -0.06988923 -0.007890325 0.03405923 0.051614087 -0.15900272 0.07946906 0.053630266 0.08707335 -0.034956343 0.033524524 -0.2046071 -0.28097802 -0.040714487 0.06968505 0.012981154 0.11231442 0.037648845 0.11873861 0.068316035 -0.12538888 0.049887724 -0.055660807 -0.32813218 -0.19401804 0.20049927 0.08270749 -0.025872169 0.080726564 0.3020854 0.12795222 -0.18031934 -0.00919966 0.012009961 -0.06235158 -0.09909705 0.1486395 -0.06124153 0.12734951 -0.054580998 -0.2294821 -0.24577285 0.07224158 -0.033348422 -0.07343459 0.25884807 -0.007233713 -0.012335214 0.13390507 -0.003462998
Herbolth 3 -0.091163576 0.12537837 0.001050074 0.14375456 0.07996427 0.16020516 -0.050914347 0.058208853 0.0051790867 -0.13740766 -0.06448758 0.06957164 -0.2669514 0.060260296 -0.14478262 0.17669773 -0.07118277 -0.093157165 -0.16861829 -0.028486174 -0.034474637 -0.14981648 -0.16649812 -0.1256946 -0.24474543 0.021346789 0.06630955 -0.016895961 0.12040112 -0.029199282 0.15391056 -0.14580737 0.05183848 -0.1828395 0.16705957 -0.13065967 -0.10667616 0.062084872 -0.20468418 -0.0011467399 -0.16717438 -0.16673402 0.14631398 0.09397761 0.16314602 0.020805078 -0.25300577 0.20901786 0.07252846 0.20558475 -0.061903067 -0.04611773 -0.08330376 0.14439465 -0.022370229 0.004038498 0.02526638 0.15660962 -0.04307569 0.07998723 0.01972315 0.19050315 0.010435436 -0.1258327
Seven 9 -0.089369245 0.12569845 0.0011838762 0.14482538 0.078739874 0.1579888 -0.054144133 0.057998218 0.004669462 -0.13447247 -0.068127535 0.065614805 -0.26457903 0.058292247 -0.14562836 0.17348494 -0.06958271 -0.09371233 -0.16909143 -0.027647944 -0.03426362 -0.15004045 -0.16824396 -0.1251938 -0.24284944 0.022255043 0.07026116 -0.01779739 0.12258332 -0.029193338 0.15598796 -0.14413938 0.047889017 -0.18219864 0.16776074 -0.13150518 -0.10954834 0.06631972 -0.20467582 -0.0028616632 -0.16536638 -0.16824728 0.14816266 0.09728804 0.1649289 0.015968079 -0.25134256 0.20903121 0.07174447 0.20548695 -0.06170229 -0.044088498 -0.086356685 0.14604731 -0.021989899 0.003991534 0.02351195 0.15777224 -0.042859755 0.08105495 0.020133387 0.18968551 0.010529821 -0.1276286
Vespula 2 -0.09096196 0.123680264 0.0009096156 0.14303859 0.08029358 0.15858501 -0.05137166 0.06071938 0.00511816 -0.13635424 -0.0667205 0.067321554 -0.26545316 0.059088398 -0.14273295 0.17597118 -0.069622725 -0.09163942 -0.16608325 -0.027552526 -0.036412973 -0.1502126 -0.16797177 -0.1261964 -0.24667841 0.020511022 0.066621736 -0.015798574 0.121455595 -0.030024847 0.15594862 -0.14493798 0.0518297 -0.18541527 0.16468418 -0.13372023 -0.1069908 0.06408452 -0.20583652 -0.002800061 -0.16655093 -0.16689491 0.14688152 0.09460279 0.161654 0.020249542 -0.25235915 0.21090347 0.07110551 0.20585135 -0.06476701 -0.04292258 -0.08213126 0.14563537 -0.020425841 0.003123862 0.025467135 0.15780455 -0.041824177 0.077491194 0.020831889 0.18981293 0.0076809293 -0.12685731
Dandelion 95 -0.090626284 0.12512799 0.0010174661 0.14366373 0.07942153 0.15901138 -0.05205902 0.058706693 0.004627872 -0.13615532 -0.066084534 0.06779258 -0.26578805 0.05948156 -0.14442529 0.17561112 -0.07059805 -0.0927957 -0.16819787 -0.028019588 -0.03488489 -0.15012527 -0.16734771 -0.12567998 -0.24461927 0.021433454 0.06748325 -0.016751075 0.12134711 -0.029491724 0.15510264 -0.14482905 0.05069007 -0.18331267 0.16664441 -0.13184243 -0.10726715 0.0639395 -0.2050833 -0.002063062 -0.1665199 -0.16710424 0.14694025 0.09507765 0.1635313 0.019318556 -0.25231397 0.20943007 0.07184982 0.20567998 -0.06272077 -0.044774882 -0.08401141 0.14560473 -0.021870306 0.00390217 0.0249597 0.15705666 -0.04278865 0.079459816 0.020067504 0.19038783 0.009586983 -0.12693344
74 1 0.029840691 -0.04384205 -0.023210859 -0.117164575 -0.025649242 -0.07587055 -0.051512644 0.26796114 -0.114474036 0.08933495 0.17145608 0.008244989 -0.0871895 0.0322457 -0.047129106 -0.06311336 -0.0051584546 0.028544353 0.052447103 -0.15309139 0.08255331 0.06250571 0.0789618 -0.035222135 0.02369424 -0.20751339 -0.28033072 -0.037378687 0.06595668 0.008408357 0.11494859 0.034165766 0.11983991 0.06812146 -0.13082139 0.049670447 -0.06565621 -0.32506058 -0.19004373 0.19076681 0.09337714 -0.02697758 0.08203557 0.3011043 0.1355451 -0.18896149 -0.016045762 0.013461249 -0.06033787 -0.10365548 0.15539646 -0.061318155 0.12676425 -0.056015193 -0.22370514 -0.24395815 0.07574561 -0.03811885 -0.07498344 0.2567632 -0.004187841 -0.0058891503 0.1284099 -0.01591712
88 1 0.030127654 -0.046277888 -0.024011668 -0.114878185 -0.02845885 -0.07788913 -0.052205503 0.26655662 -0.11402917 0.08991607 0.17066002 0.01235413 -0.086113706 0.03032508 -0.048194826 -0.065649584 -0.0068761976 0.0312072 0.05164459 -0.15642668 0.08116627 0.057747725 0.08242585 -0.03423305 0.027959088 -0.20737915 -0.2809537 -0.038715567 0.067603976 0.011255972 0.11341192 0.03577488 0.11992986 0.06812666 -0.12688139 0.049414296 -0.060387332 -0.32653448 -0.19198968 0.19573985 0.0886122 -0.026836043 0.08020466 0.301667 0.1321587 -0.18395415 -0.011976107 0.013610685 -0.061527394 -0.101538844 0.15225017 -0.061628208 0.12699996 -0.05469715 -0.22652641 -0.24489965 0.0747372 -0.03577048 -0.07311848 0.2573571 -0.005103832 -0.009438339 0.1315039 -0.009647869
Gar 23 -0.08923646 0.12592132 0.0010109238 0.14471993 0.07851521 0.1579728 -0.05401876 0.057964806 0.0044985265 -0.13431355 -0.06789135 0.06562079 -0.2646351 0.058292445 -0.14571822 0.17352846 -0.06983235 -0.09388196 -0.1692347 -0.027739856 -0.03411145 -0.15005596 -0.16819924 -0.12508689 -0.24273881 0.022298126 0.07009089 -0.017661933 0.12276304 -0.029327217 0.15607378 -0.1438752 0.047939695 -0.18208145 0.16790803 -0.13143091 -0.10940325 0.06623894 -0.20449871 -0.0028364426 -0.16527073 -0.16810668 0.14818731 0.09725662 0.16508944 0.015796762 -0.25138447 0.20888585 0.0716633 0.20568042 -0.06152255 -0.04417597 -0.08644202 0.14637685 -0.022044271 0.0038463864 0.023327282 0.15778972 -0.042805444 0.081240065 0.020039404 0.1897326 0.01065136 -0.12784065
Dudu 2 -0.08999531 0.12447565 0.0014696993 0.14464849 0.07978484 0.15811248 -0.053772714 0.05900584 0.0051569077 -0.1355545 -0.0685215 0.066040576 -0.26440248 0.058521055 -0.14432476 0.17393805 -0.06886935 -0.092600726 -0.16792873 -0.02711109 -0.035529435 -0.14994109 -0.16842175 -0.1258676 -0.24437076 0.021288598 0.069730915 -0.017328164 0.121845454 -0.029326048 0.15595068 -0.1449091 0.048865292 -0.18356544 0.16656575 -0.13269703 -0.109401025 0.06620951 -0.205463 -0.003091943 -0.16578099 -0.16802111 0.1476754 0.09696914 0.16336778 0.017487405 -0.2513969 0.21000122 0.07138227 0.2050741 -0.06307565 -0.043365963 -0.08480839 0.14520302 -0.021369494 0.0040638098 0.024565944 0.15814058 -0.042834807 0.07957636 0.020497117 0.18943846 0.009151323 -0.12703674
Vimme 2 -0.091224834 0.12417054 0.0018450969 0.14344913 0.080127425 0.15951274 -0.052195325 0.05912265 0.0050787614 -0.13681589 -0.06620202 0.06815182 -0.26571777 0.05939628 -0.14403786 0.17596455 -0.07019904 -0.09212714 -0.16760197 -0.027846899 -0.035294656 -0.14995515 -0.16702741 -0.12623458 -0.24535891 0.021486275 0.06736886 -0.01715992 0.120716296 -0.029009309 0.15432686 -0.1458088 0.050887298 -0.18389839 0.16617158 -0.1319897 -0.1074834 0.06380127 -0.20566918 -0.0018058111 -0.16703755 -0.16745077 0.14655727 0.0945959 0.16324867 0.020277226 -0.2526485 0.2098617 0.07256901 0.20516285 -0.06355401 -0.044636898 -0.083576165 0.14446765 -0.022042952 0.004505938 0.025852526 0.15669988 -0.042729713 0.07881792 0.020498578 0.19001044 0.00894183 -0.12591927
Little 19 -0.090068534 0.12541433 0.0011581021 0.14459866 0.079180025 0.15845516 -0.053267267 0.05814368 0.004997324 -0.13533151 -0.06738595 0.06663833 -0.26528788 0.058961496 -0.14517725 0.1744161 -0.06981743 -0.093293555 -0.16871865 -0.027544802 -0.034616143 -0.15006468 -0.16782348 -0.12558141 -0.24350557 0.021866601 0.069190264 -0.017399646 0.12187901 -0.029342543 0.15566602 -0.1446067 0.049039077 -0.18278372 0.1672128 -0.13167964 -0.108624056 0.06528048 -0.20482162 -0.0026288445 -0.16574487 -0.16780041 0.14743355 0.09641199 0.16410683 0.017405795 -0.2516408 0.20925729 0.07177322 0.2055108 -0.061987687 -0.044356808 -0.08528303 0.14562806 -0.021697631 0.0039568413 0.024198392 0.15747268 -0.042995814 0.08043139 0.020053042 0.18999617 0.010202997 -0.12725618
Sword 7 -0.08954246 0.12596175 0.0012094808 0.14453454 0.0785399 0.15835495 -0.053800046 0.057744224 0.0045079086 -0.13452491 -0.06735288 0.06609694 -0.26500762 0.05847746 -0.14592013 0.17393604 -0.07016705 -0.09389545 -0.16933176 -0.028011804 -0.033835188 -0.15007418 -0.1677963 -0.12510727 -0.24269925 0.022587843 0.0697384 -0.017883541 0.12247261 -0.029065184 0.15553606 -0.1441778 0.04818823 -0.1819049 0.16799103 -0.13096371 -0.10904351 0.065663725 -0.20451166 -0.0024284306 -0.1656084 -0.16815045 0.14798374 0.09670195 0.16534236 0.016331227 -0.2516869 0.20871605 0.07218765 0.2056321 -0.061447136 -0.04465845 -0.08644775 0.14607972 -0.022359764 0.0040972414 0.023578616 0.15725677 -0.04283724 0.08126142 0.02003006 0.18992122 0.010863908 -0.12747954
Agloval 6 -0.09077333 0.12517366 0.00013940212 0.14293069 0.07992209 0.15957005 -0.04997586 0.059288204 0.004350181 -0.13756695 -0.06415373 0.06965691 -0.2666988 0.060661245 -0.1431793 0.1771218 -0.071385235 -0.09275361 -0.16779892 -0.028491857 -0.035237975 -0.15012029 -0.16713777 -0.125257 -0.24585989 0.020261364 0.06563703 -0.015617599 0.12039603 -0.030026449 0.15460284 -0.14493167 0.052907806 -0.1837858 0.16603777 -0.13249546 -0.105298534 0.06212087 -0.20510246 -0.0013551798 -0.16722678 -0.16573888 0.146595 0.0940483 0.16227818 0.021670204 -0.252685 0.20940658 0.07116472 0.20604861 -0.0630714 -0.0453832 -0.08186274 0.14565346 -0.021649418 0.003532087 0.025624871 0.15744282 -0.043001 0.078375585 0.019646648 0.19099854 0.009460709 -0.12683375
29 3 0.03066625 -0.04512969 -0.023387652 -0.11652429 -0.027722867 -0.07632614 -0.052673057 0.26793638 -0.11486724 0.087998725 0.17169158 0.010121754 -0.086669415 0.031346485 -0.049399592 -0.06363726 -0.005085173 0.03008468 0.053454068 -0.15451542 0.08169331 0.061327834 0.07947066 -0.033594094 0.022456657 -0.2082016 -0.28155997 -0.036929827 0.06580202 0.009138553 0.113881096 0.033940483 0.12065355 0.067997 -0.12923422 0.049052257 -0.065102205 -0.32516935 -0.19098677 0.1925804 0.09278577 -0.025505947 0.08138549 0.30131277 0.13507782 -0.18676473 -0.015797278 0.014883556 -0.060128964 -0.10419733 0.15464616 -0.06069095 0.1259446 -0.054992374 -0.22413439 -0.24390398 0.073824935 -0.037224896 -0.07352337 0.25631633 -0.002906453 -0.006945064 0.1291602 -0.014498558
Teleri 3 -0.08883623 0.12613094 0.0009949252 0.14521393 0.07834092 0.15754832 -0.05469917 0.0576751 0.0045523737 -0.13379864 -0.06867548 0.06488786 -0.26424518 0.05797495 -0.1460781 0.17277093 -0.069404386 -0.09416222 -0.16951154 -0.027590213 -0.033967946 -0.15006 -0.16858612 -0.124892436 -0.24212466 0.022473969 0.071085244 -0.017978946 0.1231128 -0.029244978 0.15645754 -0.14365779 0.04703086 -0.18170717 0.16820939 -0.13136251 -0.11013478 0.06703711 -0.20438546 -0.0031632318 -0.16488361 -0.16846946 0.14861657 0.09805407 0.16540365 0.014736429 -0.25096136 0.20878722 0.07150659 0.20557295 -0.061171263 -0.043930404 -0.087148316 0.14649393 -0.021974035 0.0038444386 0.022842484 0.15807354 -0.042895533 0.08169147 0.020028403 0.18958658 0.0109831765 -0.12811285
Essi 7 -0.09151959 0.12574461 0.0011125286 0.1452229 0.079770505 0.15939918 -0.051332146 0.057607573 0.0057540843 -0.13735206 -0.06619875 0.06888503 -0.26718912 0.060708564 -0.14541662 0.1756731 -0.070218295 -0.09234111 -0.16899695 -0.02752955 -0.035219103 -0.1500322 -0.16742787 -0.12633853 -0.24363044 0.020845404 0.067696236 -0.01673579 0.11997155 -0.02918818 0.15501402 -0.1454468 0.051136497 -0.18323973 0.16691235 -0.13077682 -0.10693127 0.06353317 -0.20484278 -0.00201726 -0.16658781 -0.16687596 0.14598553 0.094911024 0.16227454 0.020164417 -0.25148776 0.20945391 0.07157949 0.20512038 -0.061364636 -0.045858018 -0.08421814 0.14435397 -0.021320337 0.003579113 0.025054049 0.15624401 -0.043623198 0.08027507 0.019163098 0.19107963 0.010317233 -0.126825
Duke 7 -0.090098485 0.12551229 0.0008894728 0.14362039 0.0788338 0.15863135 -0.052430134 0.058725774 0.0044859583 -0.13498737 -0.06632643 0.066831626 -0.2656187 0.05880403 -0.14501636 0.17510489 -0.07060038 -0.093349874 -0.16828398 -0.028265176 -0.034341477 -0.1502354 -0.16754594 -0.12530021 -0.24402781 0.022144385 0.06796447 -0.017010167 0.122254744 -0.029465688 0.15554117 -0.1442001 0.049884193 -0.18296936 0.16692257 -0.13155372 -0.10767058 0.06445206 -0.20473337 -0.0022617418 -0.16605508 -0.16751367 0.14753605 0.09535359 0.16436966 0.017910331 -0.2522469 0.2092401 0.0720324 0.20608455 -0.062416174 -0.044406857 -0.08492136 0.14633265 -0.0218214 0.0035602713 0.02409457 0.15707111 -0.042261444 0.0800731 0.02022218 0.19014286 0.010024062 -0.12738214
Zelest 3 -0.09206953 0.12422322 0.0017540638 0.14355782 0.08064409 0.16034576 -0.051124644 0.05855125 0.0057728775 -0.13801679 -0.06519078 0.06971012 -0.2670036 0.060555227 -0.14404728 0.17701548 -0.07052849 -0.09210517 -0.1677342 -0.027654808 -0.03528923 -0.14991455 -0.16620353 -0.12667575 -0.24547872 0.021314096 0.06644592 -0.016987644 0.119494535 -0.029127399 0.15377836 -0.14652921 0.05193489 -0.18406779 0.16594289 -0.13179004 -0.10638061 0.06222751 -0.20548438 -0.0014190971 -0.1673195 -0.16700868 0.14548919 0.09369347 0.16245934 0.021725487 -0.25277618 0.20972183 0.07274784 0.2051377 -0.06312354 -0.04548618 -0.08260394 0.1436486 -0.02165748 0.0045983433 0.026588747 0.15632811 -0.04327235 0.078712404 0.020082558 0.19057688 0.009272388 -0.12532037
Veverka 1 -0.08883623 0.12613094 0.0009949252 0.14521393 0.07834092 0.15754832 -0.05469917 0.0576751 0.0045523737 -0.13379864 -0.06867548 0.06488786 -0.26424518 0.05797495 -0.1460781 0.17277093 -0.069404386 -0.09416222 -0.16951154 -0.027590213 -0.033967946 -0.15006 -0.16858612 -0.124892436 -0.24212466 0.022473969 0.071085244 -0.017978946 0.1231128 -0.029244978 0.15645754 -0.14365779 0.04703086 -0.18170717 0.16820939 -0.13136251 -0.11013478 0.06703711 -0.20438546 -0.0031632318 -0.16488361 -0.16846946 0.14861657 0.09805407 0.16540365 0.014736429 -0.25096136 0.20878722 0.07150659 0.20557295 -0.061171263 -0.043930404 -0.087148316 0.14649393 -0.021974035 0.0038444386 0.022842484 0.15807354 -0.042895533 0.08169147 0.020028403 0.18958658 0.0109831765 -0.12811285
Braenn 6 -0.09232096 0.12442782 0.0021989222 0.14492881 0.08105452 0.16141528 -0.052435104 0.05530499 0.0076719676 -0.13849404 -0.0651493 0.069976546 -0.2689319 0.062028263 -0.1454242 0.17617449 -0.07079863 -0.09289776 -0.1699876 -0.026497258 -0.03430754 -0.14948131 -0.16481057 -0.1266464 -0.24356523 0.022489564 0.068196245 -0.019143598 0.11730566 -0.028482713 0.1534712 -0.14699784 0.049802426 -0.1821472 0.16727898 -0.13078529 -0.10789443 0.061180953 -0.20359603 -0.00020336025 -0.16690807 -0.16839004 0.14363003 0.09397725 0.16380383 0.020821787 -0.25233674 0.20875616 0.07307077 0.20500904 -0.060553573 -0.04729858 -0.08346012 0.14197113 -0.0209415 0.0062306128 0.026163977 0.15706557 -0.044282738 0.08081615 0.019332658 0.191762 0.010940714 -0.12455104
18 6 0.033044927 -0.04513283 -0.02888836 -0.11736488 -0.027848016 -0.08200076 -0.054447554 0.26211783 -0.1099233 0.091376305 0.16790208 0.017377116 -0.0834289 0.02669352 -0.055274338 -0.06724131 -0.0051613757 0.036781784 0.055588998 -0.15590003 0.08217164 0.056294054 0.08501334 -0.035381254 0.03181806 -0.20245898 -0.28098896 -0.037385166 0.067499645 0.011504965 0.110820636 0.03474592 0.12075464 0.0684502 -0.13326505 0.04922626 -0.058383793 -0.32781672 -0.19561428 0.19680072 0.084171735 -0.02235924 0.08487293 0.30403838 0.12983082 -0.18294637 -0.020473674 0.01011623 -0.057143968 -0.10413981 0.14942753 -0.057482284 0.12807758 -0.05827427 -0.22727573 -0.24531084 0.06574228 -0.031458728 -0.07698371 0.255135 -0.004826684 -0.008567084 0.13394457 -0.008565726
Freixenet 4 -0.09120069 0.12527266 0.0009928719 0.14436428 0.08022397 0.15996198 -0.051221997 0.05795224 0.0057138978 -0.13753429 -0.065319724 0.0693321 -0.26695862 0.060477927 -0.14475179 0.17629524 -0.07052139 -0.0931231 -0.16863243 -0.027815267 -0.034794137 -0.14981866 -0.16671528 -0.12598121 -0.24450268 0.021154378 0.0670655 -0.01691743 0.12013216 -0.029399727 0.15442036 -0.14590305 0.05137706 -0.1830709 0.16686872 -0.13120049 -0.107013285 0.062539876 -0.20469557 -0.0016646292 -0.16672888 -0.16687241 0.14613765 0.09464519 0.16264464 0.020365039 -0.25239477 0.20920068 0.07208172 0.2054229 -0.061755788 -0.045750525 -0.08326159 0.1441711 -0.021663249 0.0040037194 0.025322625 0.15707901 -0.04345019 0.07999767 0.019604897 0.19052514 0.010415067 -0.12596813
13 6 0.030757247 -0.044900205 -0.024409309 -0.11641526 -0.027605165 -0.077890605 -0.05243639 0.2662363 -0.114154264 0.089926444 0.17058834 0.010784016 -0.0868126 0.030594872 -0.048884615 -0.06539406 -0.0055168695 0.030778943 0.05255166 -0.15491463 0.08188483 0.05980118 0.08215881 -0.034939002 0.02674949 -0.20639218 -0.28139678 -0.038147427 0.06665083 0.009067429 0.11282997 0.035337936 0.119071655 0.06791558 -0.12980552 0.0502515 -0.061678983 -0.32634878 -0.19141302 0.19387695 0.09000145 -0.025695842 0.08194637 0.3019808 0.13285877 -0.1868122 -0.014202678 0.0121451 -0.059748553 -0.10225004 0.15193185 -0.060976338 0.12743123 -0.055390924 -0.22590378 -0.24407727 0.074074216 -0.035417374 -0.07517123 0.25675258 -0.006098056 -0.0072282106 0.13023025 -0.01177187
Eithn 6 -0.09232096 0.124427825 0.0021989224 0.1449288 0.08105452 0.16141528 -0.052435104 0.05530499 0.007671968 -0.13849406 -0.0651493 0.069976546 -0.2689319 0.062028263 -0.1454242 0.17617449 -0.07079862 -0.09289776 -0.1699876 -0.026497258 -0.03430754 -0.14948131 -0.16481057 -0.1266464 -0.24356523 0.022489564 0.06819625 -0.019143598 0.11730566 -0.028482713 0.1534712 -0.14699784 0.049802426 -0.18214719 0.16727898 -0.13078529 -0.10789443 0.061180945 -0.20359603 -0.00020336031 -0.16690807 -0.16839004 0.14363003 0.09397725 0.16380383 0.020821787 -0.25233674 0.20875616 0.07307077 0.20500904 -0.060553577 -0.04729858 -0.083460115 0.14197113 -0.0209415 0.006230612 0.026163975 0.15706557 -0.044282738 0.08081615 0.019332658 0.191762 0.010940714 -0.12455105
35 1 0.030127654 -0.046277888 -0.024011668 -0.114878185 -0.02845885 -0.07788913 -0.052205503 0.26655662 -0.11402917 0.08991607 0.17066002 0.01235413 -0.086113706 0.03032508 -0.048194826 -0.065649584 -0.0068761976 0.0312072 0.05164459 -0.15642668 0.08116627 0.057747725 0.08242585 -0.03423305 0.027959088 -0.20737915 -0.2809537 -0.038715567 0.067603976 0.011255972 0.11341192 0.03577488 0.11992986 0.06812666 -0.12688139 0.049414296 -0.060387332 -0.32653448 -0.19198968 0.19573985 0.0886122 -0.026836043 0.08020466 0.301667 0.1321587 -0.18395415 -0.011976107 0.013610685 -0.061527394 -0.101538844 0.15225017 -0.061628208 0.12699996 -0.05469715 -0.22652641 -0.24489965 0.0747372 -0.03577048 -0.07311848 0.2573571 -0.005103832 -0.009438339 0.1315039 -0.009647869
Ciri 158 -0.09130358 0.124930605 0.0011893905 0.14360686 0.079878256 0.15983482 -0.05123087 0.058507495 0.00516767 -0.13710256 -0.06518973 0.06882339 -0.26673907 0.0601664 -0.14437808 0.17639215 -0.070950635 -0.09246919 -0.16826522 -0.028009182 -0.03507431 -0.14992236 -0.16668068 -0.12600787 -0.2450221 0.021202642 0.0665142 -0.016700644 0.12040567 -0.029343808 0.15449871 -0.14540839 0.051604956 -0.18340442 0.16652368 -0.13144575 -0.10680434 0.062692404 -0.20485614 -0.001483653 -0.1670262 -0.16688731 0.14602105 0.09410633 0.16304958 0.020624688 -0.2527272 0.20952746 0.07202804 0.20565088 -0.062448684 -0.045433983 -0.083219856 0.14480871 -0.021758659 0.0039969743 0.02536988 0.15674835 -0.042735416 0.07945922 0.019932695 0.19066776 0.009558923 -0.12632029
Venzlav 6 -0.08963528 0.1254815 0.0012783495 0.1446303 0.07893893 0.15820818 -0.053866297 0.05815947 0.0047279825 -0.13480867 -0.06785319 0.06597792 -0.26474452 0.058450587 -0.14540268 0.173841 -0.0696715 -0.093486875 -0.16888042 -0.027676657 -0.03441127 -0.15002985 -0.16807194 -0.12534381 -0.24321051 0.022145454 0.069848716 -0.017706512 0.122317895 -0.029167358 0.15575232 -0.1443794 0.048317853 -0.18244338 0.1675355 -0.13157578 -0.10925451 0.06596063 -0.2048199 -0.0027108565 -0.16560687 -0.16813527 0.14793488 0.09690447 0.1646906 0.016583845 -0.25153178 0.20915204 0.071863025 0.20544283 -0.061967477 -0.044167306 -0.08596037 0.14582318 -0.02199771 0.0040650633 0.023846569 0.1576207 -0.042841636 0.08073623 0.02018577 0.18973392 0.010303074 -0.12738577
21 4 0.029960398 -0.045110866 -0.024333324 -0.116587564 -0.027299702 -0.0774679 -0.052297436 0.26718047 -0.113716334 0.08922845 0.17094858 0.010953612 -0.08657833 0.030947413 -0.048496187 -0.06474792 -0.005376803 0.030268818 0.052798226 -0.15452118 0.08165334 0.060524378 0.08093109 -0.03456398 0.025061363 -0.2068298 -0.28108883 -0.03811988 0.06673913 0.009324352 0.1136728 0.034746468 0.11978542 0.068208255 -0.12956747 0.05005133 -0.06356642 -0.3258218 -0.19101496 0.19315979 0.09107781 -0.025976375 0.08203938 0.30127528 0.13403632 -0.18705176 -0.015245844 0.013430322 -0.06034497 -0.10315665 0.15355943 -0.061023507 0.12659818 -0.055360664 -0.22519568 -0.24412595 0.073948726 -0.036776803 -0.0746965 0.2569892 -0.0044498844 -0.0070942435 0.12945133 -0.0130033
Yurga 9 -0.090185426 0.12559389 0.0008306024 0.14418097 0.079076886 0.15875252 -0.052343972 0.05835909 0.0046803076 -0.13555707 -0.066759154 0.06696308 -0.26572272 0.059169326 -0.14518353 0.17481129 -0.07038522 -0.09298457 -0.16866414 -0.028113345 -0.034754727 -0.15002437 -0.16779466 -0.12532434 -0.24389765 0.021555532 0.06829878 -0.016998524 0.12170779 -0.029266184 0.15566093 -0.1443407 0.050007902 -0.18274467 0.16708022 -0.13134465 -0.10793305 0.06451878 -0.20470218 -0.0023190884 -0.16624522 -0.1674698 0.14735694 0.095559515 0.163834 0.018245354 -0.2518418 0.2094069 0.07152841 0.20574905 -0.062000137 -0.044679217 -0.08485727 0.14588083 -0.021604607 0.00353179 0.024059612 0.15720877 -0.042407062 0.08026867 0.019924434 0.1904844 0.009994919 -0.12741452
27 3 0.029117204 -0.045922257 -0.02468294 -0.11641364 -0.030254344 -0.07591572 -0.05393014 0.26950008 -0.11394309 0.08489754 0.17240283 0.0119631365 -0.085884884 0.03129956 -0.050869633 -0.06259746 -0.005716649 0.030850083 0.054542772 -0.15580639 0.08063631 0.062155206 0.07902267 -0.03246848 0.018373352 -0.20933233 -0.2832399 -0.037552252 0.065460734 0.008012034 0.11238069 0.031790737 0.120772466 0.06864777 -0.12761594 0.049308997 -0.06708446 -0.32423362 -0.18971366 0.1935082 0.09491757 -0.022981556 0.08292624 0.3002915 0.13755776 -0.18786132 -0.017976249 0.017907511 -0.060550198 -0.10593162 0.15512447 -0.059482984 0.123909704 -0.053883776 -0.22331403 -0.24276255 0.07155916 -0.03672362 -0.071472846 0.25656012 -0.00026500836 -0.0062743025 0.12753159 -0.016841935
Visenna 2 -0.090909265 0.12292186 0.0026812667 0.14138167 0.07957875 0.16830295 -0.04402628 0.054448597 0.002965783 -0.14330067 -0.05906692 0.07569515 -0.2725044 0.05999492 -0.14406611 0.17961581 -0.07784305 -0.08906949 -0.17179869 -0.031051291 -0.033234604 -0.1470723 -0.165456 -0.12530209 -0.24830136 0.019959468 0.064667195 -0.020268733 0.1165063 -0.026864607 0.14615619 -0.14563344 0.05475168 -0.17930484 0.16812196 -0.1260786 -0.100549534 0.058634307 -0.20286465 0.0055886474 -0.17345814 -0.1626496 0.1463573 0.0906632 0.1611218 0.030802714 -0.25337088 0.20549895 0.077882506 0.2063703 -0.06376914 -0.052240517 -0.08418651 0.14176905 -0.024965411 0.0025266474 0.02781701 0.15363485 -0.04424089 0.077385046 0.01847209 0.19539367 0.008634605 -0.12203765
58 1 0.03101876 -0.045015108 -0.025372434 -0.11658248 -0.02800196 -0.07937445 -0.05269244 0.26492932 -0.11336827 0.09059317 0.1696454 0.0121500315 -0.08664478 0.029712923 -0.049461335 -0.06709922 -0.005763495 0.031621583 0.05242254 -0.1555231 0.081926264 0.05878661 0.08409373 -0.035018254 0.028964756 -0.20511931 -0.28171667 -0.03852153 0.06707388 0.008958452 0.11173733 0.035872065 0.11839971 0.06790237 -0.1304318 0.051172514 -0.05943907 -0.32708034 -0.19219452 0.19522266 0.08775109 -0.024939045 0.083076134 0.3024468 0.13140796 -0.1863362 -0.013638931 0.010880981 -0.059224658 -0.10089042 0.15008266 -0.0606393 0.12815678 -0.05566712 -0.2271459 -0.24398513 0.07280904 -0.03418629 -0.07617227 0.25677553 -0.007778567 -0.007923964 0.13067114 -0.009953536
48 1 0.030127654 -0.046277888 -0.024011668 -0.114878185 -0.02845885 -0.07788913 -0.052205503 0.26655662 -0.11402917 0.08991607 0.17066002 0.01235413 -0.086113706 0.03032508 -0.048194826 -0.065649584 -0.0068761976 0.0312072 0.05164459 -0.15642668 0.08116627 0.057747725 0.08242585 -0.03423305 0.027959088 -0.20737915 -0.2809537 -0.038715567 0.067603976 0.011255972 0.11341192 0.03577488 0.11992986 0.06812666 -0.12688139 0.049414296 -0.060387332 -0.32653448 -0.19198968 0.19573985 0.0886122 -0.026836043 0.08020466 0.301667 0.1321587 -0.18395415 -0.011976107 0.013610685 -0.061527394 -0.101538844 0.15225017 -0.061628208 0.12699996 -0.05469715 -0.22652641 -0.24489965 0.0747372 -0.03577048 -0.07311848 0.2573571 -0.005103832 -0.009438339 0.1315039 -0.009647869
19 5 0.030662762 -0.04551516 -0.024223324 -0.116830304 -0.026973248 -0.076472424 -0.05211643 0.26770028 -0.11431362 0.08831739 0.1707357 0.010635385 -0.08598836 0.031177469 -0.04871107 -0.0635033 -0.005225762 0.03061507 0.053719 -0.15438701 0.081986934 0.06118206 0.07923436 -0.034259237 0.023237843 -0.20820631 -0.2807677 -0.036526706 0.06603871 0.009300404 0.11463247 0.033741686 0.12060197 0.06793912 -0.12942594 0.049261168 -0.06488743 -0.3248638 -0.19182724 0.19273978 0.09172421 -0.02603973 0.08201587 0.30110967 0.13504508 -0.18696225 -0.016168028 0.0147604 -0.060272384 -0.10437523 0.1548606 -0.060436755 0.12598757 -0.055321746 -0.22385272 -0.24444337 0.074227646 -0.037883952 -0.0737314 0.2567625 -0.0025712566 -0.0071455454 0.12958294 -0.014398697
16 5 0.03102937 -0.04484122 -0.023487309 -0.11669429 -0.027880108 -0.07650165 -0.053151485 0.2680331 -0.11518582 0.0878069 0.1715402 0.009014965 -0.08639635 0.03084038 -0.049909547 -0.062380295 -0.004023311 0.030829117 0.054664236 -0.15405448 0.0820216 0.06159554 0.079007484 -0.03374274 0.021814687 -0.20818934 -0.2821249 -0.036627226 0.064586066 0.008463708 0.11372121 0.03332245 0.12095614 0.06695872 -0.1293248 0.04870195 -0.06589294 -0.32478228 -0.19099462 0.19182669 0.093889624 -0.024934754 0.08146845 0.3020039 0.13539803 -0.18773265 -0.016091662 0.015104549 -0.05931826 -0.10647501 0.15376127 -0.0604122 0.124859564 -0.0540413 -0.22336082 -0.24399193 0.07497871 -0.036708266 -0.07388242 0.25605562 -0.0029196476 -0.005556257 0.12900692 -0.015374311
20 4 0.03216061 -0.044767156 -0.023128869 -0.11758541 -0.0291263 -0.077387184 -0.0543571 0.26765597 -0.114931315 0.08520393 0.17139925 0.010586665 -0.08631516 0.029869353 -0.052636836 -0.06338066 -0.004047718 0.031493224 0.055922285 -0.15499392 0.0823464 0.06262432 0.07899503 -0.030651245 0.019028543 -0.20872104 -0.2839031 -0.034708444 0.06310477 0.0076155 0.112404525 0.031505175 0.12259992 0.06625027 -0.13042854 0.048405554 -0.06639268 -0.32425907 -0.19278726 0.19282205 0.09351683 -0.022013403 0.083908804 0.3026251 0.13631457 -0.18650045 -0.017368322 0.01755633 -0.058371007 -0.10645176 0.15395162 -0.05891241 0.12376591 -0.053582575 -0.2229402 -0.2430659 0.07121267 -0.03663104 -0.07295602 0.25489032 -0.0020488186 -0.007214467 0.12736276 -0.016528778
Sheldon 6 -0.08965993 0.12593322 0.0012452384 0.14442089 0.078572854 0.15848896 -0.05365004 0.05775559 0.004500485 -0.13464561 -0.06713226 0.06629828 -0.26513398 0.05856106 -0.1458934 0.17412974 -0.07029398 -0.09385073 -0.16930135 -0.028081993 -0.03381297 -0.15007615 -0.16766419 -0.12514272 -0.24279436 0.02260676 0.06951374 -0.01786759 0.12236557 -0.029035138 0.15538205 -0.14426407 0.048380993 -0.18193735 0.16795419 -0.1308969 -0.10886133 0.065434635 -0.20453215 -0.002305952 -0.16572876 -0.16809681 0.14787786 0.096476324 0.16533169 0.016596992 -0.25180712 0.20870362 0.07230098 0.20564139 -0.061492946 -0.04477967 -0.08633074 0.14601028 -0.022423994 0.004139366 0.023701245 0.15712023 -0.04282741 0.08118952 0.020030282 0.18997647 0.010844 -0.12737365
Donimir 2 -0.08883623 0.12613094 0.0009949252 0.14521393 0.07834092 0.15754832 -0.05469917 0.0576751 0.0045523737 -0.13379864 -0.06867548 0.06488786 -0.26424518 0.05797495 -0.1460781 0.17277093 -0.069404386 -0.09416222 -0.16951154 -0.027590213 -0.033967946 -0.15006 -0.16858612 -0.124892436 -0.24212466 0.022473969 0.071085244 -0.017978946 0.1231128 -0.029244978 0.15645754 -0.14365779 0.04703086 -0.18170717 0.16820939 -0.13136251 -0.11013478 0.06703711 -0.20438546 -0.0031632318 -0.16488361 -0.16846946 0.14861657 0.09805407 0.16540365 0.014736429 -0.25096136 0.20878722 0.07150659 0.20557295 -0.061171263 -0.043930404 -0.087148316 0.14649393 -0.021974035 0.0038444386 0.022842484 0.15807354 -0.042895533 0.08169147 0.020028403 0.18958658 0.0109831765 -0.12811285
Rience 29 -0.09003808 0.12568222 0.0011838545 0.14450793 0.07911521 0.15861684 -0.053120513 0.058205154 0.004664181 -0.13541552 -0.06706109 0.06694281 -0.26532018 0.058852863 -0.14534527 0.17434976 -0.070016876 -0.093510054 -0.1690227 -0.028098544 -0.034265194 -0.15001377 -0.16773637 -0.12551789 -0.2434809 0.022002744 0.06889459 -0.017362742 0.12183979 -0.029261861 0.15530075 -0.1447242 0.04918781 -0.18242311 0.1675959 -0.13116106 -0.10873929 0.06499303 -0.20466322 -0.0022879336 -0.16601808 -0.16769698 0.14754781 0.096180275 0.16431515 0.017549869 -0.25191626 0.2090024 0.07187694 0.20547043 -0.061828773 -0.0448596 -0.085447736 0.14539032 -0.022338895 0.0039469395 0.024090167 0.15746988 -0.04297209 0.080793835 0.019959252 0.1899092 0.0104992855 -0.12699412
68 2 0.03101876 -0.045015108 -0.025372434 -0.11658248 -0.02800196 -0.07937445 -0.05269244 0.26492932 -0.11336827 0.09059317 0.1696454 0.0121500315 -0.08664478 0.029712923 -0.049461335 -0.06709922 -0.005763495 0.031621583 0.05242254 -0.1555231 0.081926264 0.05878661 0.08409373 -0.035018254 0.028964756 -0.20511931 -0.28171667 -0.03852153 0.06707388 0.008958452 0.11173733 0.035872065 0.11839971 0.06790237 -0.1304318 0.051172514 -0.05943907 -0.32708034 -0.19219452 0.19522266 0.08775109 -0.024939045 0.083076134 0.3024468 0.13140796 -0.1863362 -0.013638931 0.010880981 -0.059224658 -0.10089042 0.15008266 -0.0606393 0.12815678 -0.05566712 -0.2271459 -0.24398513 0.07280904 -0.03418629 -0.07617227 0.25677553 -0.007778567 -0.007923964 0.13067114 -0.009953536
Lambert 6 -0.09113276 0.12403448 0.0014000568 0.14373206 0.08054396 0.15914097 -0.052079946 0.05944486 0.005095115 -0.13735372 -0.066342875 0.06838627 -0.26542503 0.05950473 -0.14328577 0.17555262 -0.07003903 -0.09222834 -0.16778512 -0.027487056 -0.035784 -0.14986117 -0.16738838 -0.1267019 -0.24588053 0.020735022 0.06670499 -0.016318187 0.120718114 -0.029991416 0.1549058 -0.14571646 0.05129361 -0.18428886 0.16618069 -0.13242213 -0.108136125 0.06375965 -0.20529881 -0.002010671 -0.16681948 -0.1668174 0.14615642 0.09496528 0.16219774 0.02034919 -0.25270674 0.2100317 0.07144596 0.20522071 -0.06353612 -0.044777714 -0.08292792 0.14431673 -0.022029143 0.004156038 0.025816927 0.15792832 -0.043046072 0.078940496 0.020244693 0.18956743 0.008577482 -0.12599859
64 1 0.031173872 -0.045164313 -0.024390295 -0.117621295 -0.027271315 -0.07575268 -0.052906264 0.26886207 -0.1150031 0.08675487 0.17201692 0.010202461 -0.085616566 0.031487636 -0.05031646 -0.06203985 -0.0038265053 0.030456217 0.05531542 -0.1532574 0.082089394 0.06338223 0.07792737 -0.03392399 0.01916094 -0.20810677 -0.281573 -0.035914496 0.06495718 0.008927634 0.11445075 0.033089988 0.12081926 0.06850003 -0.13002549 0.04902221 -0.067898154 -0.32388693 -0.19071595 0.19105814 0.09460093 -0.02504634 0.081516854 0.30037218 0.13631488 -0.1886618 -0.019661048 0.015298877 -0.05888378 -0.10706753 0.15627046 -0.059621308 0.1252421 -0.055162273 -0.22271132 -0.24362324 0.07325991 -0.038212486 -0.0737706 0.25622773 -0.0011303285 -0.0051123374 0.12880476 -0.016595544
44 3 0.030670665 -0.046007268 -0.023964772 -0.11563129 -0.028702702 -0.07798366 -0.052824814 0.2667311 -0.114115834 0.08884844 0.17069386 0.011975461 -0.08608065 0.030039998 -0.04935143 -0.06509956 -0.0062277415 0.031590916 0.052815374 -0.15603134 0.08152645 0.058900893 0.0817182 -0.033463974 0.026196633 -0.20768219 -0.28163853 -0.037822407 0.066461146 0.0103196595 0.11308382 0.03468858 0.12068276 0.0676596 -0.12781313 0.049262427 -0.06172962 -0.32597506 -0.19222012 0.19504626 0.089549415 -0.025533795 0.08136864 0.30189186 0.13310981 -0.18474847 -0.013420845 0.014386587 -0.060641732 -0.102860555 0.15248305 -0.060789626 0.12618165 -0.054394044 -0.2256569 -0.24460012 0.07386001 -0.035922583 -0.07326678 0.2568629 -0.004604228 -0.008823396 0.130451 -0.011242795
34 3 0.03081506 -0.046284292 -0.024732364 -0.116656564 -0.027034737 -0.07610585 -0.051898222 0.26793277 -0.11447444 0.08815754 0.17073485 0.01140861 -0.085486114 0.031383663 -0.048610948 -0.06326024 -0.005275694 0.03090612 0.05388181 -0.1544971 0.081538245 0.060829233 0.078906916 -0.03454933 0.022913247 -0.20860402 -0.2803176 -0.03639327 0.06663281 0.010098638 0.11515519 0.034069724 0.12044041 0.0685465 -0.1285676 0.04926964 -0.06492296 -0.3246869 -0.19203496 0.19312795 0.09137101 -0.026629817 0.08117049 0.30047476 0.1349073 -0.18650316 -0.016478252 0.0147859575 -0.060517833 -0.104468144 0.15532914 -0.06041933 0.1261175 -0.055469636 -0.22382334 -0.24484137 0.074212834 -0.03832969 -0.07323815 0.257075 -0.0015878964 -0.0072587854 0.13040715 -0.013765017
Vanielle 3 -0.08883623 0.12613094 0.0009949252 0.14521393 0.07834092 0.15754832 -0.05469917 0.0576751 0.0045523737 -0.13379864 -0.06867548 0.06488786 -0.26424518 0.05797495 -0.1460781 0.17277093 -0.069404386 -0.09416222 -0.16951154 -0.027590213 -0.033967946 -0.15006 -0.16858612 -0.124892436 -0.24212466 0.022473969 0.071085244 -0.017978946 0.1231128 -0.029244978 0.15645754 -0.14365779 0.04703086 -0.18170717 0.16820939 -0.13136251 -0.11013478 0.06703711 -0.20438546 -0.0031632318 -0.16488361 -0.16846946 0.14861657 0.09805407 0.16540365 0.014736429 -0.25096136 0.20878722 0.07150659 0.20557295 -0.061171263 -0.043930404 -0.087148316 0.14649393 -0.021974035 0.0038444386 0.022842484 0.15807354 -0.042895533 0.08169147 0.020028403 0.18958658 0.0109831765 -0.12811285
56 1 0.031753022 -0.045460545 -0.02386812 -0.11712366 -0.029186979 -0.078163415 -0.054057132 0.2670483 -0.11427552 0.08670256 0.17074117 0.011216693 -0.086004235 0.029466243 -0.051658742 -0.06399175 -0.004930085 0.03235458 0.05515063 -0.15522201 0.08223709 0.061200194 0.08029315 -0.03192183 0.022668589 -0.20826343 -0.2829746 -0.036031567 0.064167544 0.008445803 0.11241411 0.03251184 0.122174144 0.0667174 -0.12966134 0.04895281 -0.06440681 -0.32481733 -0.1926581 0.19363578 0.09141314 -0.022926243 0.08368689 0.30230558 0.13499613 -0.18631506 -0.01630872 0.015936669 -0.05886315 -0.10549166 0.1529306 -0.05910519 0.12452994 -0.053781338 -0.22389089 -0.24397182 0.07209683 -0.036222495 -0.07355464 0.25584388 -0.0036044703 -0.007592455 0.12832963 -0.014431304
